<?xml version="1.0"?>
<opencv_storage>
<cascade>
  <stageType>BOOST</stageType>
  <featureType>HAAR</featureType>
  <height>30</height>
  <width>30</width>
  <stageParams>
    <boostType>GAB</boostType>
    <minHitRate>9.9900001287460327e-01</minHitRate>
    <maxFalseAlarm>3.0000001192092896e-01</maxFalseAlarm>
    <weightTrimRate>9.4999999999999996e-01</weightTrimRate>
    <maxDepth>1</maxDepth>
    <maxWeakCount>100</maxWeakCount></stageParams>
  <featureParams>
    <maxCatCount>0</maxCatCount>
    <featSize>1</featSize>
    <mode>ALL</mode></featureParams>
  <stageNum>15</stageNum>
  <stages>
    <!-- stage 0 -->
    <_>
      <maxWeakCount>3</maxWeakCount>
      <stageThreshold>-1.0929762125015259e+00</stageThreshold>
      <weakClassifiers>
        <_>
          <internalNodes>
            0 -1 27 -3.4538663923740387e-02</internalNodes>
          <leafValues>
            6.3779526948928833e-01 -9.0977442264556885e-01</leafValues></_>
        <_>
          <internalNodes>
            0 -1 74 -4.4278249144554138e-02</internalNodes>
          <leafValues>
            5.5362659692764282e-01 -9.7216582298278809e-01</leafValues></_>
        <_>
          <internalNodes>
            0 -1 63 1.1684395372867584e-02</internalNodes>
          <leafValues>
            -7.5860559940338135e-01 7.0167291164398193e-01</leafValues></_></weakClassifiers></_>
    <!-- stage 1 -->
    <_>
      <maxWeakCount>5</maxWeakCount>
      <stageThreshold>-9.8956328630447388e-01</stageThreshold>
      <weakClassifiers>
        <_>
          <internalNodes>
            0 -1 25 -3.4753352403640747e-02</internalNodes>
          <leafValues>
            5.6896549463272095e-01 -7.3611110448837280e-01</leafValues></_>
        <_>
          <internalNodes>
            0 -1 15 -2.1519910660572350e-04</internalNodes>
          <leafValues>
            -8.8639771938323975e-01 3.9052581787109375e-01</leafValues></_>
        <_>
          <internalNodes>
            0 -1 89 -4.7983489930629730e-03</internalNodes>
          <leafValues>
            6.6071248054504395e-01 -5.9500432014465332e-01</leafValues></_>
        <_>
          <internalNodes>
            0 -1 86 -5.2549805492162704e-02</internalNodes>
          <leafValues>
            7.5135332345962524e-01 -4.8226144909858704e-01</leafValues></_>
        <_>
          <internalNodes>
            0 -1 14 -3.3963260054588318e-01</internalNodes>
          <leafValues>
            4.3328779935836792e-01 -9.6440297365188599e-01</leafValues></_></weakClassifiers></_>
    <!-- stage 2 -->
    <_>
      <maxWeakCount>4</maxWeakCount>
      <stageThreshold>-2.3438705503940582e-01</stageThreshold>
      <weakClassifiers>
        <_>
          <internalNodes>
            0 -1 28 5.0399377942085266e-02</internalNodes>
          <leafValues>
            -6.4848482608795166e-01 7.0526313781738281e-01</leafValues></_>
        <_>
          <internalNodes>
            0 -1 70 5.4758051410317421e-03</internalNodes>
          <leafValues>
            -6.3738638162612915e-01 4.6467205882072449e-01</leafValues></_>
        <_>
          <internalNodes>
            0 -1 66 2.0637348294258118e-02</internalNodes>
          <leafValues>
            -3.6072200536727905e-01 8.4378623962402344e-01</leafValues></_>
        <_>
          <internalNodes>
            0 -1 75 -5.2505144849419594e-03</internalNodes>
          <leafValues>
            -9.6940094232559204e-01 3.1014776229858398e-01</leafValues></_></weakClassifiers></_>
    <!-- stage 3 -->
    <_>
      <maxWeakCount>6</maxWeakCount>
      <stageThreshold>-4.1859358549118042e-01</stageThreshold>
      <weakClassifiers>
        <_>
          <internalNodes>
            0 -1 35 2.3945115506649017e-02</internalNodes>
          <leafValues>
            -4.3961352109909058e-01 9.6226418018341064e-01</leafValues></_>
        <_>
          <internalNodes>
            0 -1 69 -4.0096238255500793e-02</internalNodes>
          <leafValues>
            -9.8219192028045654e-01 3.2254013419151306e-01</leafValues></_>
        <_>
          <internalNodes>
            0 -1 4 4.5004561543464661e-03</internalNodes>
          <leafValues>
            -4.7777110338211060e-01 5.8530098199844360e-01</leafValues></_>
        <_>
          <internalNodes>
            0 -1 61 8.2221849879715592e-05</internalNodes>
          <leafValues>
            4.2534449696540833e-01 -7.7403628826141357e-01</leafValues></_>
        <_>
          <internalNodes>
            0 -1 57 3.6577963328454643e-05</internalNodes>
          <leafValues>
            2.8446894884109497e-01 -8.0190813541412354e-01</leafValues></_>
        <_>
          <internalNodes>
            0 -1 32 7.8578023239970207e-03</internalNodes>
          <leafValues>
            -3.9725381135940552e-01 8.2121098041534424e-01</leafValues></_></weakClassifiers></_>
    <!-- stage 4 -->
    <_>
      <maxWeakCount>7</maxWeakCount>
      <stageThreshold>-2.2293893992900848e-01</stageThreshold>
      <weakClassifiers>
        <_>
          <internalNodes>
            0 -1 38 -3.5221114754676819e-02</internalNodes>
          <leafValues>
            8.0000001192092896e-01 -4.3999999761581421e-01</leafValues></_>
        <_>
          <internalNodes>
            0 -1 50 -1.0867312084883451e-04</internalNodes>
          <leafValues>
            -7.2539526224136353e-01 3.6570438742637634e-01</leafValues></_>
        <_>
          <internalNodes>
            0 -1 6 3.5150363110005856e-03</internalNodes>
          <leafValues>
            -5.8181279897689819e-01 4.7397461533546448e-01</leafValues></_>
        <_>
          <internalNodes>
            0 -1 60 9.8466785857453942e-05</internalNodes>
          <leafValues>
            3.2069611549377441e-01 -8.1133764982223511e-01</leafValues></_>
        <_>
          <internalNodes>
            0 -1 56 2.1824674680829048e-02</internalNodes>
          <leafValues>
            -4.3592616915702820e-01 7.4708604812622070e-01</leafValues></_>
        <_>
          <internalNodes>
            0 -1 41 -4.2978988494724035e-04</internalNodes>
          <leafValues>
            -8.1440097093582153e-01 3.6946016550064087e-01</leafValues></_>
        <_>
          <internalNodes>
            0 -1 58 3.6796744097955525e-05</internalNodes>
          <leafValues>
            3.0701306462287903e-01 -7.6132923364639282e-01</leafValues></_></weakClassifiers></_>
    <!-- stage 5 -->
    <_>
      <maxWeakCount>6</maxWeakCount>
      <stageThreshold>-2.9186034202575684e-01</stageThreshold>
      <weakClassifiers>
        <_>
          <internalNodes>
            0 -1 12 4.4136822223663330e-02</internalNodes>
          <leafValues>
            -6.4625853300094604e-01 4.8672565817832947e-01</leafValues></_>
        <_>
          <internalNodes>
            0 -1 18 4.9261786043643951e-02</internalNodes>
          <leafValues>
            3.1737187504768372e-01 -8.5006123781204224e-01</leafValues></_>
        <_>
          <internalNodes>
            0 -1 68 -1.2046372517943382e-02</internalNodes>
          <leafValues>
            7.1463310718536377e-01 -4.0500441193580627e-01</leafValues></_>
        <_>
          <internalNodes>
            0 -1 36 -1.4582846779376268e-04</internalNodes>
          <leafValues>
            -6.5353393554687500e-01 4.4422310590744019e-01</leafValues></_>
        <_>
          <internalNodes>
            0 -1 48 2.4113034829497337e-02</internalNodes>
          <leafValues>
            -3.9272403717041016e-01 8.3339971303939819e-01</leafValues></_>
        <_>
          <internalNodes>
            0 -1 67 -8.4796920418739319e-05</internalNodes>
          <leafValues>
            -6.9465696811676025e-01 4.5956978201866150e-01</leafValues></_></weakClassifiers></_>
    <!-- stage 6 -->
    <_>
      <maxWeakCount>7</maxWeakCount>
      <stageThreshold>-4.6093285083770752e-01</stageThreshold>
      <weakClassifiers>
        <_>
          <internalNodes>
            0 -1 62 -4.0029342926573008e-05</internalNodes>
          <leafValues>
            -7.3684209585189819e-01 3.0136987566947937e-01</leafValues></_>
        <_>
          <internalNodes>
            0 -1 21 1.0623047128319740e-03</internalNodes>
          <leafValues>
            -4.3355557322502136e-01 6.2111127376556396e-01</leafValues></_>
        <_>
          <internalNodes>
            0 -1 1 2.1355640143156052e-02</internalNodes>
          <leafValues>
            -6.6856741905212402e-01 4.5552751421928406e-01</leafValues></_>
        <_>
          <internalNodes>
            0 -1 49 -6.3292696722783148e-05</internalNodes>
          <leafValues>
            -6.3304930925369263e-01 4.2861452698707581e-01</leafValues></_>
        <_>
          <internalNodes>
            0 -1 7 3.0105109326541424e-03</internalNodes>
          <leafValues>
            -4.7052839398384094e-01 6.8381816148757935e-01</leafValues></_>
        <_>
          <internalNodes>
            0 -1 34 2.5857686996459961e-03</internalNodes>
          <leafValues>
            -3.0535417795181274e-01 8.8571965694427490e-01</leafValues></_>
        <_>
          <internalNodes>
            0 -1 92 -1.0654510930180550e-02</internalNodes>
          <leafValues>
            6.4840340614318848e-01 -4.3700662255287170e-01</leafValues></_></weakClassifiers></_>
    <!-- stage 7 -->
    <_>
      <maxWeakCount>5</maxWeakCount>
      <stageThreshold>-9.4151508808135986e-01</stageThreshold>
      <weakClassifiers>
        <_>
          <internalNodes>
            0 -1 94 -8.8743045926094055e-03</internalNodes>
          <leafValues>
            -9.6296298503875732e-01 4.2105263471603394e-01</leafValues></_>
        <_>
          <internalNodes>
            0 -1 52 -8.1017776392400265e-04</internalNodes>
          <leafValues>
            -7.5496846437454224e-01 2.8363737463951111e-01</leafValues></_>
        <_>
          <internalNodes>
            0 -1 3 -1.0594843327999115e-01</internalNodes>
          <leafValues>
            -6.1339318752288818e-01 4.1954070329666138e-01</leafValues></_>
        <_>
          <internalNodes>
            0 -1 47 -1.0611853213049471e-04</internalNodes>
          <leafValues>
            -6.2412780523300171e-01 4.6139690279960632e-01</leafValues></_>
        <_>
          <internalNodes>
            0 -1 93 3.2162512652575970e-03</internalNodes>
          <leafValues>
            -4.5560294389724731e-01 6.8454045057296753e-01</leafValues></_></weakClassifiers></_>
    <!-- stage 8 -->
    <_>
      <maxWeakCount>8</maxWeakCount>
      <stageThreshold>-7.7314937114715576e-01</stageThreshold>
      <weakClassifiers>
        <_>
          <internalNodes>
            0 -1 13 -2.1509144455194473e-02</internalNodes>
          <leafValues>
            8.7500000000000000e-01 -3.8679245114326477e-01</leafValues></_>
        <_>
          <internalNodes>
            0 -1 39 -6.0153414960950613e-04</internalNodes>
          <leafValues>
            3.7589520215988159e-01 -6.0026890039443970e-01</leafValues></_>
        <_>
          <internalNodes>
            0 -1 8 2.5067036040127277e-03</internalNodes>
          <leafValues>
            -2.9297766089439392e-01 7.6694154739379883e-01</leafValues></_>
        <_>
          <internalNodes>
            0 -1 11 9.5663424581289291e-03</internalNodes>
          <leafValues>
            -2.4467891454696655e-01 8.8408809900283813e-01</leafValues></_>
        <_>
          <internalNodes>
            0 -1 44 -1.1897322838194668e-04</internalNodes>
          <leafValues>
            -9.2275470495223999e-01 3.0291226506233215e-01</leafValues></_>
        <_>
          <internalNodes>
            0 -1 26 5.0009163096547127e-03</internalNodes>
          <leafValues>
            -3.4646996855735779e-01 7.0533996820449829e-01</leafValues></_>
        <_>
          <internalNodes>
            0 -1 16 7.9606717918068171e-04</internalNodes>
          <leafValues>
            -4.8911187052726746e-01 5.0012665987014771e-01</leafValues></_>
        <_>
          <internalNodes>
            0 -1 90 1.7731884727254510e-03</internalNodes>
          <leafValues>
            3.0807402729988098e-01 -8.2046639919281006e-01</leafValues></_></weakClassifiers></_>
    <!-- stage 9 -->
    <_>
      <maxWeakCount>8</maxWeakCount>
      <stageThreshold>-4.6883198618888855e-01</stageThreshold>
      <weakClassifiers>
        <_>
          <internalNodes>
            0 -1 0 -3.5290926694869995e-01</internalNodes>
          <leafValues>
            -6.0937500000000000e-01 2.8787878155708313e-01</leafValues></_>
        <_>
          <internalNodes>
            0 -1 85 5.0350569654256105e-04</internalNodes>
          <leafValues>
            -3.3596998453140259e-01 7.6944345235824585e-01</leafValues></_>
        <_>
          <internalNodes>
            0 -1 88 -3.6533476668410003e-04</internalNodes>
          <leafValues>
            -7.6503789424896240e-01 3.3752954006195068e-01</leafValues></_>
        <_>
          <internalNodes>
            0 -1 91 1.0954785393550992e-03</internalNodes>
          <leafValues>
            2.9919159412384033e-01 -8.5210478305816650e-01</leafValues></_>
        <_>
          <internalNodes>
            0 -1 79 4.2555574327707291e-04</internalNodes>
          <leafValues>
            -6.9399112462997437e-01 2.7484217286109924e-01</leafValues></_>
        <_>
          <internalNodes>
            0 -1 10 1.3536261394619942e-04</internalNodes>
          <leafValues>
            -2.5981569290161133e-01 7.3156905174255371e-01</leafValues></_>
        <_>
          <internalNodes>
            0 -1 24 6.7784989369101822e-05</internalNodes>
          <leafValues>
            -5.6813919544219971e-01 3.6019685864448547e-01</leafValues></_>
        <_>
          <internalNodes>
            0 -1 40 -1.7147459089756012e-02</internalNodes>
          <leafValues>
            8.1425714492797852e-01 -2.8138887882232666e-01</leafValues></_></weakClassifiers></_>
    <!-- stage 10 -->
    <_>
      <maxWeakCount>8</maxWeakCount>
      <stageThreshold>-2.3467057943344116e-01</stageThreshold>
      <weakClassifiers>
        <_>
          <internalNodes>
            0 -1 73 1.7266325652599335e-02</internalNodes>
          <leafValues>
            -6.1538463830947876e-01 3.0769231915473938e-01</leafValues></_>
        <_>
          <internalNodes>
            0 -1 53 -1.7028153524734080e-04</internalNodes>
          <leafValues>
            -7.8537327051162720e-01 2.1745648980140686e-01</leafValues></_>
        <_>
          <internalNodes>
            0 -1 71 1.3463396579027176e-02</internalNodes>
          <leafValues>
            -2.8373906016349792e-01 7.3286753892898560e-01</leafValues></_>
        <_>
          <internalNodes>
            0 -1 95 1.6530054854229093e-03</internalNodes>
          <leafValues>
            -2.4837382137775421e-01 8.2598239183425903e-01</leafValues></_>
        <_>
          <internalNodes>
            0 -1 78 4.0556511521572247e-05</internalNodes>
          <leafValues>
            2.9304918646812439e-01 -7.1449196338653564e-01</leafValues></_>
        <_>
          <internalNodes>
            0 -1 23 4.3839844875037670e-03</internalNodes>
          <leafValues>
            -2.8910142183303833e-01 8.0802357196807861e-01</leafValues></_>
        <_>
          <internalNodes>
            0 -1 82 8.0368263297714293e-05</internalNodes>
          <leafValues>
            3.5278517007827759e-01 -7.0602113008499146e-01</leafValues></_>
        <_>
          <internalNodes>
            0 -1 42 1.5802960842847824e-03</internalNodes>
          <leafValues>
            -4.8005136847496033e-01 4.7436687350273132e-01</leafValues></_></weakClassifiers></_>
    <!-- stage 11 -->
    <_>
      <maxWeakCount>7</maxWeakCount>
      <stageThreshold>-5.3748744726181030e-01</stageThreshold>
      <weakClassifiers>
        <_>
          <internalNodes>
            0 -1 33 6.8158982321619987e-04</internalNodes>
          <leafValues>
            -5.7664233446121216e-01 3.1707316637039185e-01</leafValues></_>
        <_>
          <internalNodes>
            0 -1 37 -2.9339957109186798e-05</internalNodes>
          <leafValues>
            -7.5375360250473022e-01 2.6846319437026978e-01</leafValues></_>
        <_>
          <internalNodes>
            0 -1 55 -4.2159697040915489e-03</internalNodes>
          <leafValues>
            4.4892048835754395e-01 -4.3934169411659241e-01</leafValues></_>
        <_>
          <internalNodes>
            0 -1 31 8.8893352076411247e-03</internalNodes>
          <leafValues>
            3.1732344627380371e-01 -7.8119707107543945e-01</leafValues></_>
        <_>
          <internalNodes>
            0 -1 2 4.0923440828919411e-03</internalNodes>
          <leafValues>
            -3.4238308668136597e-01 7.7635031938552856e-01</leafValues></_>
        <_>
          <internalNodes>
            0 -1 22 2.4063074961304665e-03</internalNodes>
          <leafValues>
            -2.6552122831344604e-01 8.6205542087554932e-01</leafValues></_>
        <_>
          <internalNodes>
            0 -1 76 3.6150920204818249e-03</internalNodes>
          <leafValues>
            -1.8284294009208679e-01 9.1693365573883057e-01</leafValues></_></weakClassifiers></_>
    <!-- stage 12 -->
    <_>
      <maxWeakCount>8</maxWeakCount>
      <stageThreshold>-8.8617062568664551e-01</stageThreshold>
      <weakClassifiers>
        <_>
          <internalNodes>
            0 -1 19 1.8086576461791992e-01</internalNodes>
          <leafValues>
            -3.5813954472541809e-01 8.2222223281860352e-01</leafValues></_>
        <_>
          <internalNodes>
            0 -1 65 3.1129433773458004e-04</internalNodes>
          <leafValues>
            -4.5635762810707092e-01 4.2247259616851807e-01</leafValues></_>
        <_>
          <internalNodes>
            0 -1 20 1.0289608035236597e-03</internalNodes>
          <leafValues>
            -3.5653799772262573e-01 5.5980908870697021e-01</leafValues></_>
        <_>
          <internalNodes>
            0 -1 51 6.8929279223084450e-05</internalNodes>
          <leafValues>
            -4.1087892651557922e-01 4.8985520005226135e-01</leafValues></_>
        <_>
          <internalNodes>
            0 -1 47 5.9117446653544903e-04</internalNodes>
          <leafValues>
            2.4367000162601471e-01 -8.0684149265289307e-01</leafValues></_>
        <_>
          <internalNodes>
            0 -1 83 -5.6389038218185306e-04</internalNodes>
          <leafValues>
            6.2433218955993652e-01 -3.7044754624366760e-01</leafValues></_>
        <_>
          <internalNodes>
            0 -1 45 1.1006276123225689e-02</internalNodes>
          <leafValues>
            2.6895689964294434e-01 -8.9080816507339478e-01</leafValues></_>
        <_>
          <internalNodes>
            0 -1 59 -5.1763065857812762e-04</internalNodes>
          <leafValues>
            6.1305099725723267e-01 -3.6278298497200012e-01</leafValues></_></weakClassifiers></_>
    <!-- stage 13 -->
    <_>
      <maxWeakCount>7</maxWeakCount>
      <stageThreshold>-8.8029217720031738e-01</stageThreshold>
      <weakClassifiers>
        <_>
          <internalNodes>
            0 -1 46 -1.1474390514194965e-02</internalNodes>
          <leafValues>
            -8.2278478145599365e-01 1.3812154531478882e-01</leafValues></_>
        <_>
          <internalNodes>
            0 -1 9 3.4450674429535866e-03</internalNodes>
          <leafValues>
            -3.2584685087203979e-01 5.9436702728271484e-01</leafValues></_>
        <_>
          <internalNodes>
            0 -1 64 -4.2779618524946272e-05</internalNodes>
          <leafValues>
            -9.4328808784484863e-01 2.0185221731662750e-01</leafValues></_>
        <_>
          <internalNodes>
            0 -1 80 2.2362312301993370e-03</internalNodes>
          <leafValues>
            -3.8658031821250916e-01 5.4922795295715332e-01</leafValues></_>
        <_>
          <internalNodes>
            0 -1 30 1.0591268073767424e-03</internalNodes>
          <leafValues>
            -5.5560123920440674e-01 4.7328695654869080e-01</leafValues></_>
        <_>
          <internalNodes>
            0 -1 81 2.7313637547194958e-03</internalNodes>
          <leafValues>
            -3.2419160008430481e-01 7.2783356904983521e-01</leafValues></_>
        <_>
          <internalNodes>
            0 -1 77 -1.6263208817690611e-04</internalNodes>
          <leafValues>
            -8.8456475734710693e-01 3.0397221446037292e-01</leafValues></_></weakClassifiers></_>
    <!-- stage 14 -->
    <_>
      <maxWeakCount>8</maxWeakCount>
      <stageThreshold>-4.1500654816627502e-01</stageThreshold>
      <weakClassifiers>
        <_>
          <internalNodes>
            0 -1 54 2.2581892553716898e-03</internalNodes>
          <leafValues>
            -5.3741496801376343e-01 3.4513273835182190e-01</leafValues></_>
        <_>
          <internalNodes>
            0 -1 17 1.7856128513813019e-02</internalNodes>
          <leafValues>
            -2.5590443611145020e-01 7.3594367504119873e-01</leafValues></_>
        <_>
          <internalNodes>
            0 -1 5 6.8955472670495510e-04</internalNodes>
          <leafValues>
            -7.6517575979232788e-01 2.5286203622817993e-01</leafValues></_>
        <_>
          <internalNodes>
            0 -1 29 4.8628661897964776e-04</internalNodes>
          <leafValues>
            4.1232284903526306e-01 -6.0253900289535522e-01</leafValues></_>
        <_>
          <internalNodes>
            0 -1 84 7.1440436877310276e-03</internalNodes>
          <leafValues>
            -4.1958361864089966e-01 4.3300443887710571e-01</leafValues></_>
        <_>
          <internalNodes>
            0 -1 87 3.8484361721202731e-04</internalNodes>
          <leafValues>
            -4.4737300276756287e-01 5.0361186265945435e-01</leafValues></_>
        <_>
          <internalNodes>
            0 -1 43 7.8229216160252690e-04</internalNodes>
          <leafValues>
            -5.1104265451431274e-01 3.9285036921501160e-01</leafValues></_>
        <_>
          <internalNodes>
            0 -1 72 4.1592174966353923e-05</internalNodes>
          <leafValues>
            3.0241620540618896e-01 -6.2220102548599243e-01</leafValues></_></weakClassifiers></_></stages>
  <features>
    <_>
      <rects>
        <_>
          0 7 30 7 -1.</_>
        <_>
          10 7 10 7 2.</_></rects>
      <tilted>0</tilted></_>
    <_>
      <rects>
        <_>
          0 7 20 14 -1.</_>
        <_>
          0 14 20 7 2.</_></rects>
      <tilted>0</tilted></_>
    <_>
      <rects>
        <_>
          0 8 2 20 -1.</_>
        <_>
          0 8 1 10 2.</_>
        <_>
          1 18 1 10 2.</_></rects>
      <tilted>0</tilted></_>
    <_>
      <rects>
        <_>
          0 9 30 2 -1.</_>
        <_>
          10 9 10 2 2.</_></rects>
      <tilted>0</tilted></_>
    <_>
      <rects>
        <_>
          0 17 4 12 -1.</_>
        <_>
          2 17 2 12 2.</_></rects>
      <tilted>0</tilted></_>
    <_>
      <rects>
        <_>
          0 25 12 4 -1.</_>
        <_>
          3 25 6 4 2.</_></rects>
      <tilted>0</tilted></_>
    <_>
      <rects>
        <_>
          0 26 16 4 -1.</_>
        <_>
          0 26 8 2 2.</_>
        <_>
          8 28 8 2 2.</_></rects>
      <tilted>0</tilted></_>
    <_>
      <rects>
        <_>
          0 28 10 1 -1.</_>
        <_>
          5 28 5 1 2.</_></rects>
      <tilted>0</tilted></_>
    <_>
      <rects>
        <_>
          1 5 3 3 -1.</_>
        <_>
          2 6 1 1 9.</_></rects>
      <tilted>0</tilted></_>
    <_>
      <rects>
        <_>
          1 6 4 10 -1.</_>
        <_>
          2 6 2 10 2.</_></rects>
      <tilted>0</tilted></_>
    <_>
      <rects>
        <_>
          1 11 2 2 -1.</_>
        <_>
          1 11 1 1 2.</_>
        <_>
          2 12 1 1 2.</_></rects>
      <tilted>0</tilted></_>
    <_>
      <rects>
        <_>
          2 5 3 6 -1.</_>
        <_>
          3 7 1 2 9.</_></rects>
      <tilted>0</tilted></_>
    <_>
      <rects>
        <_>
          2 8 13 16 -1.</_>
        <_>
          2 16 13 8 2.</_></rects>
      <tilted>0</tilted></_>
    <_>
      <rects>
        <_>
          2 9 9 3 -1.</_>
        <_>
          5 10 3 1 9.</_></rects>
      <tilted>0</tilted></_>
    <_>
      <rects>
        <_>
          2 16 22 12 -1.</_>
        <_>
          2 20 22 4 2.</_></rects>
      <tilted>0</tilted></_>
    <_>
      <rects>
        <_>
          2 26 9 3 -1.</_>
        <_>
          5 27 3 1 9.</_></rects>
      <tilted>0</tilted></_>
    <_>
      <rects>
        <_>
          2 28 14 2 -1.</_>
        <_>
          2 28 7 1 2.</_>
        <_>
          9 29 7 1 2.</_></rects>
      <tilted>0</tilted></_>
    <_>
      <rects>
        <_>
          3 2 3 9 -1.</_>
        <_>
          4 5 1 3 9.</_></rects>
      <tilted>0</tilted></_>
    <_>
      <rects>
        <_>
          3 5 26 19 -1.</_>
        <_>
          16 5 13 19 2.</_></rects>
      <tilted>0</tilted></_>
    <_>
      <rects>
        <_>
          3 6 24 12 -1.</_>
        <_>
          9 6 12 12 2.</_></rects>
      <tilted>0</tilted></_>
    <_>
      <rects>
        <_>
          3 6 7 2 -1.</_>
        <_>
          3 7 7 1 2.</_></rects>
      <tilted>0</tilted></_>
    <_>
      <rects>
        <_>
          3 7 3 2 -1.</_>
        <_>
          4 8 1 2 3.</_></rects>
      <tilted>1</tilted></_>
    <_>
      <rects>
        <_>
          3 8 3 4 -1.</_>
        <_>
          3 9 3 2 2.</_></rects>
      <tilted>0</tilted></_>
    <_>
      <rects>
        <_>
          3 9 25 4 -1.</_>
        <_>
          3 10 25 2 2.</_></rects>
      <tilted>0</tilted></_>
    <_>
      <rects>
        <_>
          3 18 6 9 -1.</_>
        <_>
          5 21 2 3 9.</_></rects>
      <tilted>0</tilted></_>
    <_>
      <rects>
        <_>
          4 8 12 20 -1.</_>
        <_>
          4 8 6 10 2.</_>
        <_>
          10 18 6 10 2.</_></rects>
      <tilted>0</tilted></_>
    <_>
      <rects>
        <_>
          4 9 3 6 -1.</_>
        <_>
          5 11 1 2 9.</_></rects>
      <tilted>0</tilted></_>
    <_>
      <rects>
        <_>
          5 0 18 5 -1.</_>
        <_>
          5 0 9 5 2.</_></rects>
      <tilted>1</tilted></_>
    <_>
      <rects>
        <_>
          5 6 20 10 -1.</_>
        <_>
          10 6 10 10 2.</_></rects>
      <tilted>0</tilted></_>
    <_>
      <rects>
        <_>
          5 25 4 1 -1.</_>
        <_>
          6 26 2 1 2.</_></rects>
      <tilted>1</tilted></_>
    <_>
      <rects>
        <_>
          6 17 15 9 -1.</_>
        <_>
          11 20 5 3 9.</_></rects>
      <tilted>0</tilted></_>
    <_>
      <rects>
        <_>
          6 19 14 10 -1.</_>
        <_>
          13 19 7 10 2.</_></rects>
      <tilted>0</tilted></_>
    <_>
      <rects>
        <_>
          7 1 4 12 -1.</_>
        <_>
          7 1 2 6 2.</_>
        <_>
          9 7 2 6 2.</_></rects>
      <tilted>0</tilted></_>
    <_>
      <rects>
        <_>
          7 1 22 6 -1.</_>
        <_>
          7 1 22 3 2.</_></rects>
      <tilted>1</tilted></_>
    <_>
      <rects>
        <_>
          7 9 3 3 -1.</_>
        <_>
          8 10 1 1 9.</_></rects>
      <tilted>0</tilted></_>
    <_>
      <rects>
        <_>
          7 9 20 2 -1.</_>
        <_>
          12 9 10 2 2.</_></rects>
      <tilted>0</tilted></_>
    <_>
      <rects>
        <_>
          7 20 8 3 -1.</_>
        <_>
          9 20 4 3 2.</_></rects>
      <tilted>0</tilted></_>
    <_>
      <rects>
        <_>
          7 22 4 1 -1.</_>
        <_>
          8 22 2 1 2.</_></rects>
      <tilted>0</tilted></_>
    <_>
      <rects>
        <_>
          8 4 8 8 -1.</_>
        <_>
          6 6 8 4 2.</_></rects>
      <tilted>1</tilted></_>
    <_>
      <rects>
        <_>
          8 28 22 2 -1.</_>
        <_>
          8 28 11 1 2.</_>
        <_>
          19 29 11 1 2.</_></rects>
      <tilted>0</tilted></_>
    <_>
      <rects>
        <_>
          9 5 2 8 -1.</_>
        <_>
          7 7 2 4 2.</_></rects>
      <tilted>1</tilted></_>
    <_>
      <rects>
        <_>
          9 19 2 3 -1.</_>
        <_>
          8 20 2 1 3.</_></rects>
      <tilted>1</tilted></_>
    <_>
      <rects>
        <_>
          9 20 9 9 -1.</_>
        <_>
          12 23 3 3 9.</_></rects>
      <tilted>0</tilted></_>
    <_>
      <rects>
        <_>
          10 3 5 3 -1.</_>
        <_>
          9 4 5 1 3.</_></rects>
      <tilted>1</tilted></_>
    <_>
      <rects>
        <_>
          10 19 3 3 -1.</_>
        <_>
          11 20 1 1 9.</_></rects>
      <tilted>0</tilted></_>
    <_>
      <rects>
        <_>
          11 10 10 4 -1.</_>
        <_>
          11 12 10 2 2.</_></rects>
      <tilted>0</tilted></_>
    <_>
      <rects>
        <_>
          11 13 8 17 -1.</_>
        <_>
          15 13 4 17 2.</_></rects>
      <tilted>0</tilted></_>
    <_>
      <rects>
        <_>
          11 15 8 1 -1.</_>
        <_>
          15 15 4 1 2.</_></rects>
      <tilted>0</tilted></_>
    <_>
      <rects>
        <_>
          12 6 12 10 -1.</_>
        <_>
          15 6 6 10 2.</_></rects>
      <tilted>0</tilted></_>
    <_>
      <rects>
        <_>
          12 15 2 1 -1.</_>
        <_>
          12 15 1 1 2.</_></rects>
      <tilted>1</tilted></_>
    <_>
      <rects>
        <_>
          12 16 3 3 -1.</_>
        <_>
          13 17 1 1 9.</_></rects>
      <tilted>0</tilted></_>
    <_>
      <rects>
        <_>
          12 16 9 6 -1.</_>
        <_>
          15 18 3 2 9.</_></rects>
      <tilted>0</tilted></_>
    <_>
      <rects>
        <_>
          12 16 5 4 -1.</_>
        <_>
          12 16 5 2 2.</_></rects>
      <tilted>1</tilted></_>
    <_>
      <rects>
        <_>
          12 18 3 3 -1.</_>
        <_>
          13 19 1 1 9.</_></rects>
      <tilted>0</tilted></_>
    <_>
      <rects>
        <_>
          12 20 18 3 -1.</_>
        <_>
          18 21 6 1 9.</_></rects>
      <tilted>0</tilted></_>
    <_>
      <rects>
        <_>
          12 29 18 1 -1.</_>
        <_>
          21 29 9 1 2.</_></rects>
      <tilted>0</tilted></_>
    <_>
      <rects>
        <_>
          13 2 14 6 -1.</_>
        <_>
          11 4 14 2 3.</_></rects>
      <tilted>1</tilted></_>
    <_>
      <rects>
        <_>
          13 11 2 2 -1.</_>
        <_>
          14 11 1 2 2.</_></rects>
      <tilted>0</tilted></_>
    <_>
      <rects>
        <_>
          13 14 6 1 -1.</_>
        <_>
          16 14 3 1 2.</_></rects>
      <tilted>0</tilted></_>
    <_>
      <rects>
        <_>
          13 26 2 2 -1.</_>
        <_>
          13 26 2 1 2.</_></rects>
      <tilted>1</tilted></_>
    <_>
      <rects>
        <_>
          14 12 1 2 -1.</_>
        <_>
          14 12 1 1 2.</_></rects>
      <tilted>1</tilted></_>
    <_>
      <rects>
        <_>
          14 12 2 3 -1.</_>
        <_>
          15 12 1 3 2.</_></rects>
      <tilted>0</tilted></_>
    <_>
      <rects>
        <_>
          14 13 2 3 -1.</_>
        <_>
          15 13 1 3 2.</_></rects>
      <tilted>0</tilted></_>
    <_>
      <rects>
        <_>
          15 0 9 9 -1.</_>
        <_>
          12 3 9 3 3.</_></rects>
      <tilted>1</tilted></_>
    <_>
      <rects>
        <_>
          15 21 2 1 -1.</_>
        <_>
          16 21 1 1 2.</_></rects>
      <tilted>0</tilted></_>
    <_>
      <rects>
        <_>
          15 25 8 5 -1.</_>
        <_>
          19 25 4 5 2.</_></rects>
      <tilted>0</tilted></_>
    <_>
      <rects>
        <_>
          16 0 12 2 -1.</_>
        <_>
          20 4 4 2 3.</_></rects>
      <tilted>1</tilted></_>
    <_>
      <rects>
        <_>
          16 10 3 1 -1.</_>
        <_>
          17 11 1 1 3.</_></rects>
      <tilted>1</tilted></_>
    <_>
      <rects>
        <_>
          16 18 14 12 -1.</_>
        <_>
          16 18 7 6 2.</_>
        <_>
          23 24 7 6 2.</_></rects>
      <tilted>0</tilted></_>
    <_>
      <rects>
        <_>
          17 18 1 12 -1.</_>
        <_>
          17 22 1 4 2.</_></rects>
      <tilted>0</tilted></_>
    <_>
      <rects>
        <_>
          18 18 12 12 -1.</_>
        <_>
          22 22 4 4 9.</_></rects>
      <tilted>0</tilted></_>
    <_>
      <rects>
        <_>
          19 4 9 6 -1.</_>
        <_>
          22 6 3 2 9.</_></rects>
      <tilted>0</tilted></_>
    <_>
      <rects>
        <_>
          19 19 2 6 -1.</_>
        <_>
          20 19 1 6 2.</_></rects>
      <tilted>0</tilted></_>
    <_>
      <rects>
        <_>
          20 7 4 18 -1.</_>
        <_>
          20 16 4 9 2.</_></rects>
      <tilted>0</tilted></_>
    <_>
      <rects>
        <_>
          20 18 3 11 -1.</_>
        <_>
          21 18 1 11 2.</_></rects>
      <tilted>0</tilted></_>
    <_>
      <rects>
        <_>
          20 19 2 8 -1.</_>
        <_>
          20 19 2 4 2.</_></rects>
      <tilted>1</tilted></_>
    <_>
      <rects>
        <_>
          21 10 7 2 -1.</_>
        <_>
          21 11 7 1 2.</_></rects>
      <tilted>0</tilted></_>
    <_>
      <rects>
        <_>
          21 21 3 3 -1.</_>
        <_>
          22 22 1 1 9.</_></rects>
      <tilted>0</tilted></_>
    <_>
      <rects>
        <_>
          21 21 2 4 -1.</_>
        <_>
          22 21 1 4 2.</_></rects>
      <tilted>0</tilted></_>
    <_>
      <rects>
        <_>
          21 24 6 6 -1.</_>
        <_>
          23 26 2 2 9.</_></rects>
      <tilted>0</tilted></_>
    <_>
      <rects>
        <_>
          22 3 4 5 -1.</_>
        <_>
          23 4 2 5 2.</_></rects>
      <tilted>1</tilted></_>
    <_>
      <rects>
        <_>
          22 10 3 3 -1.</_>
        <_>
          23 11 1 1 9.</_></rects>
      <tilted>0</tilted></_>
    <_>
      <rects>
        <_>
          22 21 2 1 -1.</_>
        <_>
          22 21 1 1 2.</_></rects>
      <tilted>1</tilted></_>
    <_>
      <rects>
        <_>
          23 4 3 1 -1.</_>
        <_>
          24 5 1 1 3.</_></rects>
      <tilted>1</tilted></_>
    <_>
      <rects>
        <_>
          24 2 6 14 -1.</_>
        <_>
          24 2 3 7 2.</_>
        <_>
          27 9 3 7 2.</_></rects>
      <tilted>0</tilted></_>
    <_>
      <rects>
        <_>
          24 6 1 4 -1.</_>
        <_>
          24 7 1 2 2.</_></rects>
      <tilted>0</tilted></_>
    <_>
      <rects>
        <_>
          24 6 6 10 -1.</_>
        <_>
          24 6 6 5 2.</_></rects>
      <tilted>1</tilted></_>
    <_>
      <rects>
        <_>
          24 12 6 1 -1.</_>
        <_>
          26 14 2 1 3.</_></rects>
      <tilted>1</tilted></_>
    <_>
      <rects>
        <_>
          24 21 2 4 -1.</_>
        <_>
          23 22 2 2 2.</_></rects>
      <tilted>1</tilted></_>
    <_>
      <rects>
        <_>
          24 25 6 5 -1.</_>
        <_>
          27 25 3 5 2.</_></rects>
      <tilted>0</tilted></_>
    <_>
      <rects>
        <_>
          25 19 1 6 -1.</_>
        <_>
          23 21 1 2 3.</_></rects>
      <tilted>1</tilted></_>
    <_>
      <rects>
        <_>
          25 23 2 4 -1.</_>
        <_>
          24 24 2 2 2.</_></rects>
      <tilted>1</tilted></_>
    <_>
      <rects>
        <_>
          26 6 4 24 -1.</_>
        <_>
          26 6 2 12 2.</_>
        <_>
          28 18 2 12 2.</_></rects>
      <tilted>0</tilted></_>
    <_>
      <rects>
        <_>
          27 5 3 10 -1.</_>
        <_>
          28 6 1 10 3.</_></rects>
      <tilted>1</tilted></_>
    <_>
      <rects>
        <_>
          27 29 3 1 -1.</_>
        <_>
          28 29 1 1 2.</_></rects>
      <tilted>0</tilted></_>
    <_>
      <rects>
        <_>
          29 3 1 3 -1.</_>
        <_>
          28 4 1 1 3.</_></rects>
      <tilted>1</tilted></_></features></cascade>
</opencv_storage>
