<?xml version="1.0"?>
<opencv_storage>
<cascade>
  <stageType>BOOST</stageType>
  <featureType>HAAR</featureType>
  <height>30</height>
  <width>30</width>
  <stageParams>
    <boostType>GAB</boostType>
    <minHitRate>9.9900001287460327e-01</minHitRate>
    <maxFalseAlarm>5.0000000000000000e-01</maxFalseAlarm>
    <weightTrimRate>9.4999999999999996e-01</weightTrimRate>
    <maxDepth>1</maxDepth>
    <maxWeakCount>100</maxWeakCount></stageParams>
  <featureParams>
    <maxCatCount>0</maxCatCount>
    <featSize>1</featSize>
    <mode>ALL</mode></featureParams>
  <stageNum>20</stageNum>
  <stages>
    <!-- stage 0 -->
    <_>
      <maxWeakCount>2</maxWeakCount>
      <stageThreshold>-9.7072206437587738e-02</stageThreshold>
      <weakClassifiers>
        <_>
          <internalNodes>
            0 -1 9 9.3951269984245300e-02</internalNodes>
          <leafValues>
            -7.7611941099166870e-01 9.7297298908233643e-01</leafValues></_>
        <_>
          <internalNodes>
            0 -1 38 -8.9769652113318443e-03</internalNodes>
          <leafValues>
            -1. 6.7904722690582275e-01</leafValues></_></weakClassifiers></_>
    <!-- stage 1 -->
    <_>
      <maxWeakCount>2</maxWeakCount>
      <stageThreshold>-1.2454166263341904e-01</stageThreshold>
      <weakClassifiers>
        <_>
          <internalNodes>
            0 -1 18 7.2473108768463135e-02</internalNodes>
          <leafValues>
            -7.0802921056747437e-01 9.1549295186996460e-01</leafValues></_>
        <_>
          <internalNodes>
            0 -1 36 -1.2479557096958160e-01</internalNodes>
          <leafValues>
            5.8348751068115234e-01 -9.8324888944625854e-01</leafValues></_></weakClassifiers></_>
    <!-- stage 2 -->
    <_>
      <maxWeakCount>4</maxWeakCount>
      <stageThreshold>-7.0620214939117432e-01</stageThreshold>
      <weakClassifiers>
        <_>
          <internalNodes>
            0 -1 19 -2.8290823101997375e-02</internalNodes>
          <leafValues>
            6.1224490404129028e-01 -8.3636361360549927e-01</leafValues></_>
        <_>
          <internalNodes>
            0 -1 65 5.8978252112865448e-02</internalNodes>
          <leafValues>
            -7.0223063230514526e-01 6.2128186225891113e-01</leafValues></_>
        <_>
          <internalNodes>
            0 -1 16 -6.1250146245583892e-05</internalNodes>
          <leafValues>
            -8.7928873300552368e-01 4.3490245938301086e-01</leafValues></_>
        <_>
          <internalNodes>
            0 -1 57 -1.8481379083823413e-04</internalNodes>
          <leafValues>
            -8.0830669403076172e-01 3.9748966693878174e-01</leafValues></_></weakClassifiers></_>
    <!-- stage 3 -->
    <_>
      <maxWeakCount>4</maxWeakCount>
      <stageThreshold>-3.8374626636505127e-01</stageThreshold>
      <weakClassifiers>
        <_>
          <internalNodes>
            0 -1 64 -2.8149385005235672e-02</internalNodes>
          <leafValues>
            6.9230771064758301e-01 -6.6153848171234131e-01</leafValues></_>
        <_>
          <internalNodes>
            0 -1 56 1.0432984709041193e-05</internalNodes>
          <leafValues>
            4.0663895010948181e-01 -9.3986964225769043e-01</leafValues></_>
        <_>
          <internalNodes>
            0 -1 22 -4.4768318533897400e-02</internalNodes>
          <leafValues>
            6.9735831022262573e-01 -5.5646425485610962e-01</leafValues></_>
        <_>
          <internalNodes>
            0 -1 48 -1.1840928345918655e-03</internalNodes>
          <leafValues>
            -9.0578341484069824e-01 4.2761749029159546e-01</leafValues></_></weakClassifiers></_>
    <!-- stage 4 -->
    <_>
      <maxWeakCount>3</maxWeakCount>
      <stageThreshold>-5.9386622905731201e-01</stageThreshold>
      <weakClassifiers>
        <_>
          <internalNodes>
            0 -1 13 -2.8539597988128662e-02</internalNodes>
          <leafValues>
            5.9090906381607056e-01 -6.9999998807907104e-01</leafValues></_>
        <_>
          <internalNodes>
            0 -1 77 1.0315816849470139e-02</internalNodes>
          <leafValues>
            -3.9477318525314331e-01 8.6207699775695801e-01</leafValues></_>
        <_>
          <internalNodes>
            0 -1 8 6.3484042882919312e-02</internalNodes>
          <leafValues>
            -7.5594317913055420e-01 5.2224582433700562e-01</leafValues></_></weakClassifiers></_>
    <!-- stage 5 -->
    <_>
      <maxWeakCount>2</maxWeakCount>
      <stageThreshold>-4.0167164802551270e-01</stageThreshold>
      <weakClassifiers>
        <_>
          <internalNodes>
            0 -1 24 2.6441769674420357e-02</internalNodes>
          <leafValues>
            -6.8965518474578857e-01 5.2173912525177002e-01</leafValues></_>
        <_>
          <internalNodes>
            0 -1 15 -5.9670045971870422e-02</internalNodes>
          <leafValues>
            -1. 2.8798350691795349e-01</leafValues></_></weakClassifiers></_>
    <!-- stage 6 -->
    <_>
      <maxWeakCount>4</maxWeakCount>
      <stageThreshold>-6.7241293191909790e-01</stageThreshold>
      <weakClassifiers>
        <_>
          <internalNodes>
            0 -1 21 2.7493648231029510e-02</internalNodes>
          <leafValues>
            -6.7479676008224487e-01 6.0000002384185791e-01</leafValues></_>
        <_>
          <internalNodes>
            0 -1 53 4.8538036935497075e-05</internalNodes>
          <leafValues>
            4.3162629008293152e-01 -8.5861808061599731e-01</leafValues></_>
        <_>
          <internalNodes>
            0 -1 68 -3.0750254518352449e-04</internalNodes>
          <leafValues>
            -8.3549696207046509e-01 4.2261201143264771e-01</leafValues></_>
        <_>
          <internalNodes>
            0 -1 30 -3.6928302142769098e-04</internalNodes>
          <leafValues>
            -8.3640688657760620e-01 4.9051725864410400e-01</leafValues></_></weakClassifiers></_>
    <!-- stage 7 -->
    <_>
      <maxWeakCount>4</maxWeakCount>
      <stageThreshold>-2.6545330882072449e-01</stageThreshold>
      <weakClassifiers>
        <_>
          <internalNodes>
            0 -1 75 4.0509283542633057e-02</internalNodes>
          <leafValues>
            -6.8333333730697632e-01 5.6818181276321411e-01</leafValues></_>
        <_>
          <internalNodes>
            0 -1 25 -2.4750923737883568e-02</internalNodes>
          <leafValues>
            4.5794594287872314e-01 -6.3596427440643311e-01</leafValues></_>
        <_>
          <internalNodes>
            0 -1 79 2.0925682038068771e-03</internalNodes>
          <leafValues>
            -3.9710289239883423e-01 8.6452871561050415e-01</leafValues></_>
        <_>
          <internalNodes>
            0 -1 20 -4.7659174015279859e-05</internalNodes>
          <leafValues>
            -8.9447814226150513e-01 4.0482726693153381e-01</leafValues></_></weakClassifiers></_>
    <!-- stage 8 -->
    <_>
      <maxWeakCount>5</maxWeakCount>
      <stageThreshold>-4.2184680700302124e-01</stageThreshold>
      <weakClassifiers>
        <_>
          <internalNodes>
            0 -1 1 -2.1236168220639229e-02</internalNodes>
          <leafValues>
            7.3333334922790527e-01 -5.1351350545883179e-01</leafValues></_>
        <_>
          <internalNodes>
            0 -1 17 1.6967665869742632e-03</internalNodes>
          <leafValues>
            -4.0934073925018311e-01 8.1336361169815063e-01</leafValues></_>
        <_>
          <internalNodes>
            0 -1 54 -6.7159598984289914e-05</internalNodes>
          <leafValues>
            -8.2615274190902710e-01 4.3675366044044495e-01</leafValues></_>
        <_>
          <internalNodes>
            0 -1 23 -3.7731975317001343e-03</internalNodes>
          <leafValues>
            7.7326065301895142e-01 -4.6592283248901367e-01</leafValues></_>
        <_>
          <internalNodes>
            0 -1 4 6.0903672128915787e-03</internalNodes>
          <leafValues>
            -6.9252777099609375e-01 5.7735091447830200e-01</leafValues></_></weakClassifiers></_>
    <!-- stage 9 -->
    <_>
      <maxWeakCount>3</maxWeakCount>
      <stageThreshold>-4.0909650921821594e-01</stageThreshold>
      <weakClassifiers>
        <_>
          <internalNodes>
            0 -1 59 2.7235189918428659e-04</internalNodes>
          <leafValues>
            2.1126760542392731e-01 -9.3939393758773804e-01</leafValues></_>
        <_>
          <internalNodes>
            0 -1 52 2.7991220122203231e-04</internalNodes>
          <leafValues>
            2.6053580641746521e-01 -9.1037869453430176e-01</leafValues></_>
        <_>
          <internalNodes>
            0 -1 61 -5.8954741689376533e-05</internalNodes>
          <leafValues>
            -8.8089990615844727e-01 2.9121500253677368e-01</leafValues></_></weakClassifiers></_>
    <!-- stage 10 -->
    <_>
      <maxWeakCount>5</maxWeakCount>
      <stageThreshold>-3.7486231327056885e-01</stageThreshold>
      <weakClassifiers>
        <_>
          <internalNodes>
            0 -1 33 -2.4130607023835182e-02</internalNodes>
          <leafValues>
            4.8837208747863770e-01 -6.0655736923217773e-01</leafValues></_>
        <_>
          <internalNodes>
            0 -1 55 4.5684428187087178e-05</internalNodes>
          <leafValues>
            3.6450162529945374e-01 -7.9388856887817383e-01</leafValues></_>
        <_>
          <internalNodes>
            0 -1 35 2.6874516624957323e-03</internalNodes>
          <leafValues>
            -3.8897949457168579e-01 8.5190612077713013e-01</leafValues></_>
        <_>
          <internalNodes>
            0 -1 72 1.7562455032020807e-03</internalNodes>
          <leafValues>
            -2.9680377244949341e-01 8.6532628536224365e-01</leafValues></_>
        <_>
          <internalNodes>
            0 -1 67 1.2810826301574707e-02</internalNodes>
          <leafValues>
            -4.8749387264251709e-01 6.1643737554550171e-01</leafValues></_></weakClassifiers></_>
    <!-- stage 11 -->
    <_>
      <maxWeakCount>4</maxWeakCount>
      <stageThreshold>-3.5924196243286133e-01</stageThreshold>
      <weakClassifiers>
        <_>
          <internalNodes>
            0 -1 26 -6.0680247843265533e-03</internalNodes>
          <leafValues>
            8.6956518888473511e-01 -4.4444444775581360e-01</leafValues></_>
        <_>
          <internalNodes>
            0 -1 32 9.7213149070739746e-02</internalNodes>
          <leafValues>
            4.1128221154212952e-01 -7.8884804248809814e-01</leafValues></_>
        <_>
          <internalNodes>
            0 -1 37 -8.7182846618816257e-04</internalNodes>
          <leafValues>
            4.8116129636764526e-01 -5.8213514089584351e-01</leafValues></_>
        <_>
          <internalNodes>
            0 -1 42 3.8252770900726318e-04</internalNodes>
          <leafValues>
            3.9288923144340515e-01 -7.9428285360336304e-01</leafValues></_></weakClassifiers></_>
    <!-- stage 12 -->
    <_>
      <maxWeakCount>4</maxWeakCount>
      <stageThreshold>-7.7734476327896118e-01</stageThreshold>
      <weakClassifiers>
        <_>
          <internalNodes>
            0 -1 7 -3.0549090355634689e-02</internalNodes>
          <leafValues>
            7.5000000000000000e-01 -6.9540232419967651e-01</leafValues></_>
        <_>
          <internalNodes>
            0 -1 44 -3.8015434984117746e-04</internalNodes>
          <leafValues>
            2.3101776838302612e-01 -8.2305729389190674e-01</leafValues></_>
        <_>
          <internalNodes>
            0 -1 74 -1.5961956977844238e-01</internalNodes>
          <leafValues>
            -5.6957888603210449e-01 3.9873743057250977e-01</leafValues></_>
        <_>
          <internalNodes>
            0 -1 5 7.2876966441981494e-05</internalNodes>
          <leafValues>
            -7.1169769763946533e-01 3.5101142525672913e-01</leafValues></_></weakClassifiers></_>
    <!-- stage 13 -->
    <_>
      <maxWeakCount>5</maxWeakCount>
      <stageThreshold>-8.8906484842300415e-01</stageThreshold>
      <weakClassifiers>
        <_>
          <internalNodes>
            0 -1 3 -1.5741437673568726e-02</internalNodes>
          <leafValues>
            8.6666667461395264e-01 -6.6480445861816406e-01</leafValues></_>
        <_>
          <internalNodes>
            0 -1 12 2.3855976760387421e-03</internalNodes>
          <leafValues>
            -4.0461617708206177e-01 7.7400785684585571e-01</leafValues></_>
        <_>
          <internalNodes>
            0 -1 49 -6.5223796991631389e-04</internalNodes>
          <leafValues>
            -8.9991486072540283e-01 3.5688698291778564e-01</leafValues></_>
        <_>
          <internalNodes>
            0 -1 66 -6.0549178160727024e-03</internalNodes>
          <leafValues>
            7.3735862970352173e-01 -3.5079607367515564e-01</leafValues></_>
        <_>
          <internalNodes>
            0 -1 70 4.0928112866822630e-05</internalNodes>
          <leafValues>
            2.7816084027290344e-01 -9.1388988494873047e-01</leafValues></_></weakClassifiers></_>
    <!-- stage 14 -->
    <_>
      <maxWeakCount>4</maxWeakCount>
      <stageThreshold>-8.0543470382690430e-01</stageThreshold>
      <weakClassifiers>
        <_>
          <internalNodes>
            0 -1 11 -5.3844498470425606e-03</internalNodes>
          <leafValues>
            4.5833334326744080e-01 -6.8823528289794922e-01</leafValues></_>
        <_>
          <internalNodes>
            0 -1 69 -7.6191464904695749e-04</internalNodes>
          <leafValues>
            4.5398250222206116e-01 -5.0894069671630859e-01</leafValues></_>
        <_>
          <internalNodes>
            0 -1 71 -4.4783031626138836e-05</internalNodes>
          <leafValues>
            -7.8422760963439941e-01 3.0571866035461426e-01</leafValues></_>
        <_>
          <internalNodes>
            0 -1 50 5.5561948101967573e-05</internalNodes>
          <leafValues>
            2.1304570138454437e-01 -9.3427646160125732e-01</leafValues></_></weakClassifiers></_>
    <!-- stage 15 -->
    <_>
      <maxWeakCount>6</maxWeakCount>
      <stageThreshold>-1.2628602981567383e+00</stageThreshold>
      <weakClassifiers>
        <_>
          <internalNodes>
            0 -1 81 -1.0367730632424355e-02</internalNodes>
          <leafValues>
            6.0000002384185791e-01 -6.7816090583801270e-01</leafValues></_>
        <_>
          <internalNodes>
            0 -1 62 1.3636052608489990e-03</internalNodes>
          <leafValues>
            -6.5921014547348022e-01 2.9608884453773499e-01</leafValues></_>
        <_>
          <internalNodes>
            0 -1 76 -5.4867817088961601e-03</internalNodes>
          <leafValues>
            7.6757496595382690e-01 -3.1263798475265503e-01</leafValues></_>
        <_>
          <internalNodes>
            0 -1 46 -3.8673300878144801e-05</internalNodes>
          <leafValues>
            -7.4978619813919067e-01 3.0966487526893616e-01</leafValues></_>
        <_>
          <internalNodes>
            0 -1 6 4.8755854368209839e-03</internalNodes>
          <leafValues>
            -4.3303596973419189e-01 4.9714818596839905e-01</leafValues></_>
        <_>
          <internalNodes>
            0 -1 51 3.4584306180477142e-02</internalNodes>
          <leafValues>
            -4.1966423392295837e-01 6.2326055765151978e-01</leafValues></_></weakClassifiers></_>
    <!-- stage 16 -->
    <_>
      <maxWeakCount>5</maxWeakCount>
      <stageThreshold>-7.1818578243255615e-01</stageThreshold>
      <weakClassifiers>
        <_>
          <internalNodes>
            0 -1 73 -9.9740087985992432e-02</internalNodes>
          <leafValues>
            3.9130434393882751e-01 -6.7251461744308472e-01</leafValues></_>
        <_>
          <internalNodes>
            0 -1 60 9.1495567176025361e-05</internalNodes>
          <leafValues>
            2.7844703197479248e-01 -7.0468306541442871e-01</leafValues></_>
        <_>
          <internalNodes>
            0 -1 83 -3.9319849747698754e-05</internalNodes>
          <leafValues>
            -7.8509467840194702e-01 2.3625850677490234e-01</leafValues></_>
        <_>
          <internalNodes>
            0 -1 14 -1.0816704889293760e-04</internalNodes>
          <leafValues>
            -7.0093768835067749e-01 2.7054467797279358e-01</leafValues></_>
        <_>
          <internalNodes>
            0 -1 43 -7.5452044256962836e-05</internalNodes>
          <leafValues>
            -8.3092141151428223e-01 2.0715153217315674e-01</leafValues></_></weakClassifiers></_>
    <!-- stage 17 -->
    <_>
      <maxWeakCount>6</maxWeakCount>
      <stageThreshold>-1.2395917177200317e+00</stageThreshold>
      <weakClassifiers>
        <_>
          <internalNodes>
            0 -1 29 -2.8490386903285980e-03</internalNodes>
          <leafValues>
            1.7857143655419350e-02 -7.7536231279373169e-01</leafValues></_>
        <_>
          <internalNodes>
            0 -1 31 -2.6704079937189817e-04</internalNodes>
          <leafValues>
            1.8564090132713318e-01 -6.9984763860702515e-01</leafValues></_>
        <_>
          <internalNodes>
            0 -1 2 6.8842540495097637e-03</internalNodes>
          <leafValues>
            -7.7028632164001465e-01 2.0890058577060699e-01</leafValues></_>
        <_>
          <internalNodes>
            0 -1 63 9.8363369703292847e-02</internalNodes>
          <leafValues>
            -5.4903435707092285e-01 3.5492068529129028e-01</leafValues></_>
        <_>
          <internalNodes>
            0 -1 78 2.8401208110153675e-03</internalNodes>
          <leafValues>
            -4.5644766092300415e-01 5.3313267230987549e-01</leafValues></_>
        <_>
          <internalNodes>
            0 -1 47 -1.3039342593401670e-04</internalNodes>
          <leafValues>
            -9.5416295528411865e-01 2.3898020386695862e-01</leafValues></_></weakClassifiers></_>
    <!-- stage 18 -->
    <_>
      <maxWeakCount>6</maxWeakCount>
      <stageThreshold>-1.0561167001724243e+00</stageThreshold>
      <weakClassifiers>
        <_>
          <internalNodes>
            0 -1 0 -2.6147335767745972e-01</internalNodes>
          <leafValues>
            6.2162160873413086e-01 -6.6951566934585571e-01</leafValues></_>
        <_>
          <internalNodes>
            0 -1 39 1.6796011477708817e-02</internalNodes>
          <leafValues>
            1.0491181164979935e-01 -9.2058199644088745e-01</leafValues></_>
        <_>
          <internalNodes>
            0 -1 41 4.4327930663712323e-04</internalNodes>
          <leafValues>
            -4.0794488787651062e-01 4.6385005116462708e-01</leafValues></_>
        <_>
          <internalNodes>
            0 -1 80 -1.3896482996642590e-02</internalNodes>
          <leafValues>
            5.7484233379364014e-01 -3.7226161360740662e-01</leafValues></_>
        <_>
          <internalNodes>
            0 -1 82 1.3958103954792023e-03</internalNodes>
          <leafValues>
            -3.0604246258735657e-01 5.5177503824234009e-01</leafValues></_>
        <_>
          <internalNodes>
            0 -1 27 3.1722900457680225e-03</internalNodes>
          <leafValues>
            -2.6308131217956543e-01 6.4147746562957764e-01</leafValues></_></weakClassifiers></_>
    <!-- stage 19 -->
    <_>
      <maxWeakCount>6</maxWeakCount>
      <stageThreshold>-9.1798156499862671e-01</stageThreshold>
      <weakClassifiers>
        <_>
          <internalNodes>
            0 -1 10 3.1276755034923553e-02</internalNodes>
          <leafValues>
            -6.7455619573593140e-01 3.1999999284744263e-01</leafValues></_>
        <_>
          <internalNodes>
            0 -1 58 3.0030307243578136e-04</internalNodes>
          <leafValues>
            -6.2823110818862915e-01 1.8451929092407227e-01</leafValues></_>
        <_>
          <internalNodes>
            0 -1 34 5.2928575314581394e-04</internalNodes>
          <leafValues>
            -4.0075609087944031e-01 4.0683162212371826e-01</leafValues></_>
        <_>
          <internalNodes>
            0 -1 40 -8.5473337094299495e-05</internalNodes>
          <leafValues>
            -6.7281061410903931e-01 2.6896753907203674e-01</leafValues></_>
        <_>
          <internalNodes>
            0 -1 28 2.2015792783349752e-03</internalNodes>
          <leafValues>
            -2.9155385494232178e-01 5.3514152765274048e-01</leafValues></_>
        <_>
          <internalNodes>
            0 -1 45 7.4758594564627856e-05</internalNodes>
          <leafValues>
            2.3532769083976746e-01 -8.3129763603210449e-01</leafValues></_></weakClassifiers></_></stages>
  <features>
    <_>
      <rects>
        <_>
          0 0 9 18 -1.</_>
        <_>
          3 6 3 6 9.</_></rects>
      <tilted>0</tilted></_>
    <_>
      <rects>
        <_>
          0 1 7 10 -1.</_>
        <_>
          0 6 7 5 2.</_></rects>
      <tilted>0</tilted></_>
    <_>
      <rects>
        <_>
          0 1 24 29 -1.</_>
        <_>
          12 1 12 29 2.</_></rects>
      <tilted>0</tilted></_>
    <_>
      <rects>
        <_>
          0 5 3 6 -1.</_>
        <_>
          1 7 1 2 9.</_></rects>
      <tilted>0</tilted></_>
    <_>
      <rects>
        <_>
          0 8 3 20 -1.</_>
        <_>
          0 13 3 10 2.</_></rects>
      <tilted>0</tilted></_>
    <_>
      <rects>
        <_>
          0 28 18 2 -1.</_>
        <_>
          0 28 9 1 2.</_>
        <_>
          9 29 9 1 2.</_></rects>
      <tilted>0</tilted></_>
    <_>
      <rects>
        <_>
          1 1 6 6 -1.</_>
        <_>
          3 3 2 2 9.</_></rects>
      <tilted>0</tilted></_>
    <_>
      <rects>
        <_>
          1 4 6 6 -1.</_>
        <_>
          3 6 2 2 9.</_></rects>
      <tilted>0</tilted></_>
    <_>
      <rects>
        <_>
          1 4 27 16 -1.</_>
        <_>
          1 12 27 8 2.</_></rects>
      <tilted>0</tilted></_>
    <_>
      <rects>
        <_>
          1 5 28 12 -1.</_>
        <_>
          8 5 14 12 2.</_></rects>
      <tilted>0</tilted></_>
    <_>
      <rects>
        <_>
          1 9 28 1 -1.</_>
        <_>
          8 9 14 1 2.</_></rects>
      <tilted>0</tilted></_>
    <_>
      <rects>
        <_>
          2 3 1 8 -1.</_>
        <_>
          2 5 1 4 2.</_></rects>
      <tilted>0</tilted></_>
    <_>
      <rects>
        <_>
          2 6 2 4 -1.</_>
        <_>
          2 7 2 2 2.</_></rects>
      <tilted>0</tilted></_>
    <_>
      <rects>
        <_>
          2 8 14 16 -1.</_>
        <_>
          2 8 7 8 2.</_>
        <_>
          9 16 7 8 2.</_></rects>
      <tilted>0</tilted></_>
    <_>
      <rects>
        <_>
          2 23 6 1 -1.</_>
        <_>
          4 25 2 1 3.</_></rects>
      <tilted>1</tilted></_>
    <_>
      <rects>
        <_>
          2 23 15 1 -1.</_>
        <_>
          7 23 5 1 2.</_></rects>
      <tilted>0</tilted></_>
    <_>
      <rects>
        <_>
          2 26 8 3 -1.</_>
        <_>
          4 26 4 3 2.</_></rects>
      <tilted>0</tilted></_>
    <_>
      <rects>
        <_>
          3 6 3 2 -1.</_>
        <_>
          4 7 1 2 3.</_></rects>
      <tilted>1</tilted></_>
    <_>
      <rects>
        <_>
          3 6 24 8 -1.</_>
        <_>
          9 6 12 8 2.</_></rects>
      <tilted>0</tilted></_>
    <_>
      <rects>
        <_>
          3 9 14 20 -1.</_>
        <_>
          3 9 7 10 2.</_>
        <_>
          10 19 7 10 2.</_></rects>
      <tilted>0</tilted></_>
    <_>
      <rects>
        <_>
          3 28 4 2 -1.</_>
        <_>
          5 28 2 2 2.</_></rects>
      <tilted>0</tilted></_>
    <_>
      <rects>
        <_>
          4 6 8 10 -1.</_>
        <_>
          8 6 4 10 2.</_></rects>
      <tilted>0</tilted></_>
    <_>
      <rects>
        <_>
          4 8 12 20 -1.</_>
        <_>
          4 8 6 10 2.</_>
        <_>
          10 18 6 10 2.</_></rects>
      <tilted>0</tilted></_>
    <_>
      <rects>
        <_>
          5 3 4 26 -1.</_>
        <_>
          6 3 2 26 2.</_></rects>
      <tilted>0</tilted></_>
    <_>
      <rects>
        <_>
          5 4 8 17 -1.</_>
        <_>
          9 4 4 17 2.</_></rects>
      <tilted>0</tilted></_>
    <_>
      <rects>
        <_>
          5 5 8 24 -1.</_>
        <_>
          5 5 4 12 2.</_>
        <_>
          9 17 4 12 2.</_></rects>
      <tilted>0</tilted></_>
    <_>
      <rects>
        <_>
          5 7 4 14 -1.</_>
        <_>
          6 7 2 14 2.</_></rects>
      <tilted>0</tilted></_>
    <_>
      <rects>
        <_>
          6 2 4 4 -1.</_>
        <_>
          6 2 2 2 2.</_>
        <_>
          8 4 2 2 2.</_></rects>
      <tilted>0</tilted></_>
    <_>
      <rects>
        <_>
          6 3 2 3 -1.</_>
        <_>
          5 4 2 1 3.</_></rects>
      <tilted>1</tilted></_>
    <_>
      <rects>
        <_>
          6 12 8 4 -1.</_>
        <_>
          6 12 8 2 2.</_></rects>
      <tilted>1</tilted></_>
    <_>
      <rects>
        <_>
          6 19 6 4 -1.</_>
        <_>
          6 20 6 2 2.</_></rects>
      <tilted>0</tilted></_>
    <_>
      <rects>
        <_>
          6 26 10 3 -1.</_>
        <_>
          11 26 5 3 2.</_></rects>
      <tilted>0</tilted></_>
    <_>
      <rects>
        <_>
          7 3 6 27 -1.</_>
        <_>
          9 12 2 9 9.</_></rects>
      <tilted>0</tilted></_>
    <_>
      <rects>
        <_>
          7 7 6 4 -1.</_>
        <_>
          7 7 3 4 2.</_></rects>
      <tilted>1</tilted></_>
    <_>
      <rects>
        <_>
          7 28 17 2 -1.</_>
        <_>
          7 29 17 1 2.</_></rects>
      <tilted>0</tilted></_>
    <_>
      <rects>
        <_>
          8 9 3 2 -1.</_>
        <_>
          9 10 1 2 3.</_></rects>
      <tilted>1</tilted></_>
    <_>
      <rects>
        <_>
          8 16 10 9 -1.</_>
        <_>
          8 19 10 3 2.</_></rects>
      <tilted>0</tilted></_>
    <_>
      <rects>
        <_>
          8 28 22 2 -1.</_>
        <_>
          8 28 11 1 2.</_>
        <_>
          19 29 11 1 2.</_></rects>
      <tilted>0</tilted></_>
    <_>
      <rects>
        <_>
          9 0 10 18 -1.</_>
        <_>
          9 9 10 9 2.</_></rects>
      <tilted>0</tilted></_>
    <_>
      <rects>
        <_>
          9 13 7 8 -1.</_>
        <_>
          9 13 7 4 2.</_></rects>
      <tilted>1</tilted></_>
    <_>
      <rects>
        <_>
          9 21 6 2 -1.</_>
        <_>
          9 22 6 1 2.</_></rects>
      <tilted>0</tilted></_>
    <_>
      <rects>
        <_>
          9 27 17 2 -1.</_>
        <_>
          9 28 17 1 2.</_></rects>
      <tilted>0</tilted></_>
    <_>
      <rects>
        <_>
          10 16 8 2 -1.</_>
        <_>
          12 16 4 2 2.</_></rects>
      <tilted>0</tilted></_>
    <_>
      <rects>
        <_>
          10 19 3 3 -1.</_>
        <_>
          11 20 1 1 9.</_></rects>
      <tilted>0</tilted></_>
    <_>
      <rects>
        <_>
          10 20 12 10 -1.</_>
        <_>
          10 25 12 5 2.</_></rects>
      <tilted>0</tilted></_>
    <_>
      <rects>
        <_>
          10 29 4 1 -1.</_>
        <_>
          12 29 2 1 2.</_></rects>
      <tilted>0</tilted></_>
    <_>
      <rects>
        <_>
          12 15 2 4 -1.</_>
        <_>
          11 16 2 2 2.</_></rects>
      <tilted>1</tilted></_>
    <_>
      <rects>
        <_>
          13 2 5 8 -1.</_>
        <_>
          13 6 5 4 2.</_></rects>
      <tilted>0</tilted></_>
    <_>
      <rects>
        <_>
          13 12 6 15 -1.</_>
        <_>
          15 17 2 5 9.</_></rects>
      <tilted>0</tilted></_>
    <_>
      <rects>
        <_>
          13 12 5 4 -1.</_>
        <_>
          13 14 5 2 2.</_></rects>
      <tilted>0</tilted></_>
    <_>
      <rects>
        <_>
          13 13 4 1 -1.</_>
        <_>
          15 13 2 1 2.</_></rects>
      <tilted>0</tilted></_>
    <_>
      <rects>
        <_>
          14 0 8 9 -1.</_>
        <_>
          11 3 8 3 3.</_></rects>
      <tilted>1</tilted></_>
    <_>
      <rects>
        <_>
          14 11 1 4 -1.</_>
        <_>
          13 12 1 2 2.</_></rects>
      <tilted>1</tilted></_>
    <_>
      <rects>
        <_>
          14 15 2 2 -1.</_>
        <_>
          14 16 2 1 2.</_></rects>
      <tilted>0</tilted></_>
    <_>
      <rects>
        <_>
          15 13 1 2 -1.</_>
        <_>
          15 13 1 1 2.</_></rects>
      <tilted>1</tilted></_>
    <_>
      <rects>
        <_>
          15 14 1 2 -1.</_>
        <_>
          15 14 1 1 2.</_></rects>
      <tilted>1</tilted></_>
    <_>
      <rects>
        <_>
          15 17 2 1 -1.</_>
        <_>
          16 17 1 1 2.</_></rects>
      <tilted>0</tilted></_>
    <_>
      <rects>
        <_>
          15 17 4 5 -1.</_>
        <_>
          16 17 2 5 2.</_></rects>
      <tilted>0</tilted></_>
    <_>
      <rects>
        <_>
          16 13 1 16 -1.</_>
        <_>
          16 13 1 8 2.</_></rects>
      <tilted>1</tilted></_>
    <_>
      <rects>
        <_>
          16 15 1 6 -1.</_>
        <_>
          16 18 1 3 2.</_></rects>
      <tilted>0</tilted></_>
    <_>
      <rects>
        <_>
          17 12 1 6 -1.</_>
        <_>
          17 15 1 3 2.</_></rects>
      <tilted>0</tilted></_>
    <_>
      <rects>
        <_>
          18 15 3 1 -1.</_>
        <_>
          19 16 1 1 3.</_></rects>
      <tilted>1</tilted></_>
    <_>
      <rects>
        <_>
          18 26 12 4 -1.</_>
        <_>
          21 26 6 4 2.</_></rects>
      <tilted>0</tilted></_>
    <_>
      <rects>
        <_>
          19 0 9 30 -1.</_>
        <_>
          19 15 9 15 2.</_></rects>
      <tilted>0</tilted></_>
    <_>
      <rects>
        <_>
          19 4 8 13 -1.</_>
        <_>
          23 4 4 13 2.</_></rects>
      <tilted>0</tilted></_>
    <_>
      <rects>
        <_>
          20 0 6 30 -1.</_>
        <_>
          20 15 6 15 2.</_></rects>
      <tilted>0</tilted></_>
    <_>
      <rects>
        <_>
          20 3 6 4 -1.</_>
        <_>
          20 3 3 2 2.</_>
        <_>
          23 5 3 2 2.</_></rects>
      <tilted>0</tilted></_>
    <_>
      <rects>
        <_>
          20 8 6 18 -1.</_>
        <_>
          20 8 3 9 2.</_>
        <_>
          23 17 3 9 2.</_></rects>
      <tilted>0</tilted></_>
    <_>
      <rects>
        <_>
          20 21 6 6 -1.</_>
        <_>
          22 23 2 2 9.</_></rects>
      <tilted>0</tilted></_>
    <_>
      <rects>
        <_>
          20 28 10 2 -1.</_>
        <_>
          20 28 5 1 2.</_>
        <_>
          25 29 5 1 2.</_></rects>
      <tilted>0</tilted></_>
    <_>
      <rects>
        <_>
          21 22 2 1 -1.</_>
        <_>
          22 22 1 1 2.</_></rects>
      <tilted>0</tilted></_>
    <_>
      <rects>
        <_>
          21 22 4 2 -1.</_>
        <_>
          22 22 2 2 2.</_></rects>
      <tilted>0</tilted></_>
    <_>
      <rects>
        <_>
          22 5 2 8 -1.</_>
        <_>
          22 5 1 4 2.</_>
        <_>
          23 9 1 4 2.</_></rects>
      <tilted>0</tilted></_>
    <_>
      <rects>
        <_>
          22 5 6 15 -1.</_>
        <_>
          24 10 2 5 9.</_></rects>
      <tilted>0</tilted></_>
    <_>
      <rects>
        <_>
          22 9 5 15 -1.</_>
        <_>
          22 14 5 5 2.</_></rects>
      <tilted>0</tilted></_>
    <_>
      <rects>
        <_>
          23 3 3 26 -1.</_>
        <_>
          23 16 3 13 2.</_></rects>
      <tilted>0</tilted></_>
    <_>
      <rects>
        <_>
          23 8 4 2 -1.</_>
        <_>
          24 9 2 2 2.</_></rects>
      <tilted>1</tilted></_>
    <_>
      <rects>
        <_>
          26 0 4 16 -1.</_>
        <_>
          26 0 2 8 2.</_>
        <_>
          28 8 2 8 2.</_></rects>
      <tilted>0</tilted></_>
    <_>
      <rects>
        <_>
          26 1 4 18 -1.</_>
        <_>
          26 1 2 9 2.</_>
        <_>
          28 10 2 9 2.</_></rects>
      <tilted>0</tilted></_>
    <_>
      <rects>
        <_>
          26 3 3 3 -1.</_>
        <_>
          25 4 3 1 3.</_></rects>
      <tilted>1</tilted></_>
    <_>
      <rects>
        <_>
          26 6 4 24 -1.</_>
        <_>
          26 6 2 12 2.</_>
        <_>
          28 18 2 12 2.</_></rects>
      <tilted>0</tilted></_>
    <_>
      <rects>
        <_>
          26 8 4 6 -1.</_>
        <_>
          27 9 2 6 2.</_></rects>
      <tilted>1</tilted></_>
    <_>
      <rects>
        <_>
          27 5 3 3 -1.</_>
        <_>
          28 6 1 3 3.</_></rects>
      <tilted>1</tilted></_>
    <_>
      <rects>
        <_>
          29 23 1 4 -1.</_>
        <_>
          28 24 1 2 2.</_></rects>
      <tilted>1</tilted></_></features></cascade>
</opencv_storage>
