<?xml version="1.0"?>
<opencv_storage>
<cascade>
  <stageType>BOOST</stageType>
  <featureType>HAAR</featureType>
  <height>30</height>
  <width>30</width>
  <stageParams>
    <boostType>GAB</boostType>
    <minHitRate>9.9500000476837158e-01</minHitRate>
    <maxFalseAlarm>3.0000001192092896e-01</maxFalseAlarm>
    <weightTrimRate>9.4999999999999996e-01</weightTrimRate>
    <maxDepth>1</maxDepth>
    <maxWeakCount>100</maxWeakCount></stageParams>
  <featureParams>
    <maxCatCount>0</maxCatCount>
    <featSize>1</featSize>
    <mode>ALL</mode></featureParams>
  <stageNum>16</stageNum>
  <stages>
    <!-- stage 0 -->
    <_>
      <maxWeakCount>7</maxWeakCount>
      <stageThreshold>-1.2591835260391235e+00</stageThreshold>
      <weakClassifiers>
        <_>
          <internalNodes>
            0 -1 5 3.9967489242553711e-01</internalNodes>
          <leafValues>
            -8.1360203027725220e-01 6.0591131448745728e-01</leafValues></_>
        <_>
          <internalNodes>
            0 -1 149 -6.2213577330112457e-03</internalNodes>
          <leafValues>
            5.1703703403472900e-01 -6.5316253900527954e-01</leafValues></_>
        <_>
          <internalNodes>
            0 -1 58 -2.8265386819839478e-02</internalNodes>
          <leafValues>
            6.7066931724548340e-01 -4.5404517650604248e-01</leafValues></_>
        <_>
          <internalNodes>
            0 -1 97 -1.3885367661714554e-04</internalNodes>
          <leafValues>
            -8.6531054973602295e-01 3.6596471071243286e-01</leafValues></_>
        <_>
          <internalNodes>
            0 -1 110 -7.1404370828531682e-05</internalNodes>
          <leafValues>
            -8.2145959138870239e-01 3.6879166960716248e-01</leafValues></_>
        <_>
          <internalNodes>
            0 -1 9 -2.4056112393736839e-02</internalNodes>
          <leafValues>
            -4.9159941077232361e-01 6.9685041904449463e-01</leafValues></_>
        <_>
          <internalNodes>
            0 -1 120 -6.1347891460172832e-05</internalNodes>
          <leafValues>
            -7.5173038244247437e-01 4.7045263648033142e-01</leafValues></_></weakClassifiers></_>
    <!-- stage 1 -->
    <_>
      <maxWeakCount>6</maxWeakCount>
      <stageThreshold>-8.9790260791778564e-01</stageThreshold>
      <weakClassifiers>
        <_>
          <internalNodes>
            0 -1 12 2.7278918772935867e-02</internalNodes>
          <leafValues>
            -6.4205819368362427e-01 5.6862747669219971e-01</leafValues></_>
        <_>
          <internalNodes>
            0 -1 144 -2.4962050840258598e-02</internalNodes>
          <leafValues>
            4.6557924151420593e-01 -6.0865122079849243e-01</leafValues></_>
        <_>
          <internalNodes>
            0 -1 98 7.9511577496305108e-05</internalNodes>
          <leafValues>
            3.3194774389266968e-01 -8.9740604162216187e-01</leafValues></_>
        <_>
          <internalNodes>
            0 -1 88 -3.8600084371864796e-04</internalNodes>
          <leafValues>
            -7.4348676204681396e-01 3.5120481252670288e-01</leafValues></_>
        <_>
          <internalNodes>
            0 -1 59 -2.2704081237316132e-01</internalNodes>
          <leafValues>
            -5.7873624563217163e-01 4.9840009212493896e-01</leafValues></_>
        <_>
          <internalNodes>
            0 -1 104 -2.5191716849803925e-04</internalNodes>
          <leafValues>
            -8.0828475952148438e-01 3.4243789315223694e-01</leafValues></_></weakClassifiers></_>
    <!-- stage 2 -->
    <_>
      <maxWeakCount>7</maxWeakCount>
      <stageThreshold>-1.1393518447875977e+00</stageThreshold>
      <weakClassifiers>
        <_>
          <internalNodes>
            0 -1 38 -5.4592743515968323e-02</internalNodes>
          <leafValues>
            -8.8278388977050781e-01 1.2538225948810577e-01</leafValues></_>
        <_>
          <internalNodes>
            0 -1 40 8.8154915720224380e-03</internalNodes>
          <leafValues>
            -5.3101825714111328e-01 5.7794111967086792e-01</leafValues></_>
        <_>
          <internalNodes>
            0 -1 17 -1.3734336942434311e-02</internalNodes>
          <leafValues>
            3.7931886315345764e-01 -6.8018424510955811e-01</leafValues></_>
        <_>
          <internalNodes>
            0 -1 64 5.1442552357912064e-03</internalNodes>
          <leafValues>
            -3.8029578328132629e-01 7.4208396673202515e-01</leafValues></_>
        <_>
          <internalNodes>
            0 -1 46 5.6441769003868103e-02</internalNodes>
          <leafValues>
            3.0061444640159607e-01 -8.9455395936965942e-01</leafValues></_>
        <_>
          <internalNodes>
            0 -1 100 -1.4956740778870881e-04</internalNodes>
          <leafValues>
            -7.0377784967422485e-01 3.7101730704307556e-01</leafValues></_>
        <_>
          <internalNodes>
            0 -1 63 -1.6188205918297172e-03</internalNodes>
          <leafValues>
            7.6619064807891846e-01 -3.2957553863525391e-01</leafValues></_></weakClassifiers></_>
    <!-- stage 3 -->
    <_>
      <maxWeakCount>7</maxWeakCount>
      <stageThreshold>-1.4878150224685669e+00</stageThreshold>
      <weakClassifiers>
        <_>
          <internalNodes>
            0 -1 37 -1.8638156354427338e-02</internalNodes>
          <leafValues>
            8.2178217172622681e-01 -5.6713426113128662e-01</leafValues></_>
        <_>
          <internalNodes>
            0 -1 33 -2.3845741152763367e-01</internalNodes>
          <leafValues>
            -6.9078409671783447e-01 4.5022982358932495e-01</leafValues></_>
        <_>
          <internalNodes>
            0 -1 140 9.1738235205411911e-03</internalNodes>
          <leafValues>
            -6.6779559850692749e-01 3.9829310774803162e-01</leafValues></_>
        <_>
          <internalNodes>
            0 -1 77 1.7435094341635704e-03</internalNodes>
          <leafValues>
            -3.8591539859771729e-01 7.2967743873596191e-01</leafValues></_>
        <_>
          <internalNodes>
            0 -1 124 -1.2409368355292827e-04</internalNodes>
          <leafValues>
            -9.3439072370529175e-01 2.9663941264152527e-01</leafValues></_>
        <_>
          <internalNodes>
            0 -1 167 2.4181238841265440e-03</internalNodes>
          <leafValues>
            -3.3839142322540283e-01 8.6325663328170776e-01</leafValues></_>
        <_>
          <internalNodes>
            0 -1 25 1.7664175247773528e-03</internalNodes>
          <leafValues>
            -2.7544757723808289e-01 7.6031023263931274e-01</leafValues></_></weakClassifiers></_>
    <!-- stage 4 -->
    <_>
      <maxWeakCount>9</maxWeakCount>
      <stageThreshold>-1.2873375415802002e+00</stageThreshold>
      <weakClassifiers>
        <_>
          <internalNodes>
            0 -1 7 1.2309025973081589e-02</internalNodes>
          <leafValues>
            -6.4235293865203857e-01 4.1714286804199219e-01</leafValues></_>
        <_>
          <internalNodes>
            0 -1 93 -1.9060566555708647e-03</internalNodes>
          <leafValues>
            3.8833439350128174e-01 -6.0262423753738403e-01</leafValues></_>
        <_>
          <internalNodes>
            0 -1 8 7.9472362995147705e-02</internalNodes>
          <leafValues>
            -5.5537480115890503e-01 4.1953942179679871e-01</leafValues></_>
        <_>
          <internalNodes>
            0 -1 6 3.1347121112048626e-03</internalNodes>
          <leafValues>
            -2.8523689508438110e-01 8.3406251668930054e-01</leafValues></_>
        <_>
          <internalNodes>
            0 -1 26 -1.3828709721565247e-01</internalNodes>
          <leafValues>
            -1. 2.9120308160781860e-01</leafValues></_>
        <_>
          <internalNodes>
            0 -1 138 -3.7662312388420105e-03</internalNodes>
          <leafValues>
            7.7389204502105713e-01 -3.6132529377937317e-01</leafValues></_>
        <_>
          <internalNodes>
            0 -1 168 -2.5560194626450539e-03</internalNodes>
          <leafValues>
            7.9965704679489136e-01 -2.7051138877868652e-01</leafValues></_>
        <_>
          <internalNodes>
            0 -1 10 2.7019634842872620e-02</internalNodes>
          <leafValues>
            -5.7757472991943359e-01 3.7087514996528625e-01</leafValues></_>
        <_>
          <internalNodes>
            0 -1 21 -9.0897548943758011e-04</internalNodes>
          <leafValues>
            5.9716027975082397e-01 -3.8758954405784607e-01</leafValues></_></weakClassifiers></_>
    <!-- stage 5 -->
    <_>
      <maxWeakCount>9</maxWeakCount>
      <stageThreshold>-6.2656134366989136e-01</stageThreshold>
      <weakClassifiers>
        <_>
          <internalNodes>
            0 -1 159 -3.4499187022447586e-02</internalNodes>
          <leafValues>
            4.1935482621192932e-01 -5.9550559520721436e-01</leafValues></_>
        <_>
          <internalNodes>
            0 -1 133 -7.5178056955337524e-02</internalNodes>
          <leafValues>
            7.8725516796112061e-01 -2.9626575112342834e-01</leafValues></_>
        <_>
          <internalNodes>
            0 -1 29 -1.9863072782754898e-02</internalNodes>
          <leafValues>
            2.6750192046165466e-01 -7.5304275751113892e-01</leafValues></_>
        <_>
          <internalNodes>
            0 -1 13 2.4121263995766640e-03</internalNodes>
          <leafValues>
            -5.8566075563430786e-01 3.2262241840362549e-01</leafValues></_>
        <_>
          <internalNodes>
            0 -1 113 -2.0356301683932543e-04</internalNodes>
          <leafValues>
            -7.1760237216949463e-01 2.6224866509437561e-01</leafValues></_>
        <_>
          <internalNodes>
            0 -1 99 -6.4722975366748869e-05</internalNodes>
          <leafValues>
            -6.1859667301177979e-01 2.9813975095748901e-01</leafValues></_>
        <_>
          <internalNodes>
            0 -1 65 2.5685704313218594e-03</internalNodes>
          <leafValues>
            -2.8625679016113281e-01 7.1452194452285767e-01</leafValues></_>
        <_>
          <internalNodes>
            0 -1 65 -3.0318885110318661e-03</internalNodes>
          <leafValues>
            6.9003146886825562e-01 -2.9902192950248718e-01</leafValues></_>
        <_>
          <internalNodes>
            0 -1 175 -3.8339528255164623e-03</internalNodes>
          <leafValues>
            7.2052073478698730e-01 -1.9222794473171234e-01</leafValues></_></weakClassifiers></_>
    <!-- stage 6 -->
    <_>
      <maxWeakCount>9</maxWeakCount>
      <stageThreshold>-9.2085230350494385e-01</stageThreshold>
      <weakClassifiers>
        <_>
          <internalNodes>
            0 -1 45 -5.8672255836427212e-03</internalNodes>
          <leafValues>
            7.3913043737411499e-01 -4.7269302606582642e-01</leafValues></_>
        <_>
          <internalNodes>
            0 -1 26 -1.3806270062923431e-01</internalNodes>
          <leafValues>
            -1. 2.1643114089965820e-01</leafValues></_>
        <_>
          <internalNodes>
            0 -1 160 1.2740973383188248e-02</internalNodes>
          <leafValues>
            -5.1269602775573730e-01 3.7256217002868652e-01</leafValues></_>
        <_>
          <internalNodes>
            0 -1 56 4.9786362797021866e-03</internalNodes>
          <leafValues>
            -2.2603034973144531e-01 7.7040231227874756e-01</leafValues></_>
        <_>
          <internalNodes>
            0 -1 52 4.6393345110118389e-03</internalNodes>
          <leafValues>
            -1.7502844333648682e-01 9.3484246730804443e-01</leafValues></_>
        <_>
          <internalNodes>
            0 -1 49 -3.7700331304222345e-03</internalNodes>
          <leafValues>
            5.3281223773956299e-01 -3.2228353619575500e-01</leafValues></_>
        <_>
          <internalNodes>
            0 -1 126 -3.8623769069090486e-04</internalNodes>
          <leafValues>
            -6.5593200922012329e-01 2.9015082120895386e-01</leafValues></_>
        <_>
          <internalNodes>
            0 -1 60 -1.9345257431268692e-02</internalNodes>
          <leafValues>
            7.4214953184127808e-01 -2.5123411417007446e-01</leafValues></_>
        <_>
          <internalNodes>
            0 -1 130 1.2542132753878832e-03</internalNodes>
          <leafValues>
            -3.1501054763793945e-01 5.3253126144409180e-01</leafValues></_></weakClassifiers></_>
    <!-- stage 7 -->
    <_>
      <maxWeakCount>10</maxWeakCount>
      <stageThreshold>-8.3299160003662109e-01</stageThreshold>
      <weakClassifiers>
        <_>
          <internalNodes>
            0 -1 14 5.2638091146945953e-02</internalNodes>
          <leafValues>
            -5.5164837837219238e-01 3.5172414779663086e-01</leafValues></_>
        <_>
          <internalNodes>
            0 -1 69 -1.9312518998049200e-04</internalNodes>
          <leafValues>
            -6.6279166936874390e-01 2.4996434152126312e-01</leafValues></_>
        <_>
          <internalNodes>
            0 -1 108 5.6316079280804843e-05</internalNodes>
          <leafValues>
            1.9125841557979584e-01 -7.8551548719406128e-01</leafValues></_>
        <_>
          <internalNodes>
            0 -1 153 1.3570681214332581e-02</internalNodes>
          <leafValues>
            -5.2967327833175659e-01 3.7824615836143494e-01</leafValues></_>
        <_>
          <internalNodes>
            0 -1 1 3.7435665726661682e-02</internalNodes>
          <leafValues>
            -3.0999994277954102e-01 6.0424941778182983e-01</leafValues></_>
        <_>
          <internalNodes>
            0 -1 89 -1.7666578292846680e-02</internalNodes>
          <leafValues>
            2.1422593295574188e-01 -9.8634642362594604e-01</leafValues></_>
        <_>
          <internalNodes>
            0 -1 166 4.8471200279891491e-03</internalNodes>
          <leafValues>
            -2.6568701863288879e-01 7.9786872863769531e-01</leafValues></_>
        <_>
          <internalNodes>
            0 -1 96 -2.1896712132729590e-04</internalNodes>
          <leafValues>
            -4.9880573153495789e-01 3.5621672868728638e-01</leafValues></_>
        <_>
          <internalNodes>
            0 -1 34 4.4308234937489033e-03</internalNodes>
          <leafValues>
            -3.3501839637756348e-01 5.2362197637557983e-01</leafValues></_>
        <_>
          <internalNodes>
            0 -1 109 1.3184228446334600e-03</internalNodes>
          <leafValues>
            2.2077141702175140e-01 -8.7345451116561890e-01</leafValues></_></weakClassifiers></_>
    <!-- stage 8 -->
    <_>
      <maxWeakCount>10</maxWeakCount>
      <stageThreshold>-1.2293379306793213e+00</stageThreshold>
      <weakClassifiers>
        <_>
          <internalNodes>
            0 -1 86 -1.9069448113441467e-02</internalNodes>
          <leafValues>
            3.0177515745162964e-01 -5.8236658573150635e-01</leafValues></_>
        <_>
          <internalNodes>
            0 -1 30 2.5799357891082764e-01</internalNodes>
          <leafValues>
            -4.4339203834533691e-01 4.7227740287780762e-01</leafValues></_>
        <_>
          <internalNodes>
            0 -1 41 -1.9174232147634029e-03</internalNodes>
          <leafValues>
            3.9405775070190430e-01 -4.0663710236549377e-01</leafValues></_>
        <_>
          <internalNodes>
            0 -1 101 5.8556708972901106e-04</internalNodes>
          <leafValues>
            2.1380938589572906e-01 -7.6020675897598267e-01</leafValues></_>
        <_>
          <internalNodes>
            0 -1 114 -4.9134244909510016e-04</internalNodes>
          <leafValues>
            -7.2379487752914429e-01 2.1940678358078003e-01</leafValues></_>
        <_>
          <internalNodes>
            0 -1 3 8.7510704994201660e-02</internalNodes>
          <leafValues>
            1.7567253112792969e-01 -6.6818690299987793e-01</leafValues></_>
        <_>
          <internalNodes>
            0 -1 121 -9.2394562670961022e-04</internalNodes>
          <leafValues>
            3.0014711618423462e-01 -4.7677856683731079e-01</leafValues></_>
        <_>
          <internalNodes>
            0 -1 112 6.7597012966871262e-03</internalNodes>
          <leafValues>
            1.5678864717483521e-01 -7.9498696327209473e-01</leafValues></_>
        <_>
          <internalNodes>
            0 -1 54 1.6825538128614426e-02</internalNodes>
          <leafValues>
            1.5081009268760681e-01 -7.4781155586242676e-01</leafValues></_>
        <_>
          <internalNodes>
            0 -1 165 4.2436644434928894e-03</internalNodes>
          <leafValues>
            -2.3665110766887665e-01 6.0313528776168823e-01</leafValues></_></weakClassifiers></_>
    <!-- stage 9 -->
    <_>
      <maxWeakCount>12</maxWeakCount>
      <stageThreshold>-8.3245468139648438e-01</stageThreshold>
      <weakClassifiers>
        <_>
          <internalNodes>
            0 -1 67 2.5280136615037918e-02</internalNodes>
          <leafValues>
            -4.9799197912216187e-01 4.7058823704719543e-01</leafValues></_>
        <_>
          <internalNodes>
            0 -1 103 8.7243467569351196e-03</internalNodes>
          <leafValues>
            -5.0514870882034302e-01 2.7380955219268799e-01</leafValues></_>
        <_>
          <internalNodes>
            0 -1 146 -1.1978609836660326e-04</internalNodes>
          <leafValues>
            -5.4396206140518188e-01 2.1729534864425659e-01</leafValues></_>
        <_>
          <internalNodes>
            0 -1 156 4.5519421109929681e-04</internalNodes>
          <leafValues>
            -2.2123259305953979e-01 5.5314558744430542e-01</leafValues></_>
        <_>
          <internalNodes>
            0 -1 155 2.6189787313342094e-03</internalNodes>
          <leafValues>
            -2.2651128470897675e-01 5.7838279008865356e-01</leafValues></_>
        <_>
          <internalNodes>
            0 -1 50 -2.9091488569974899e-02</internalNodes>
          <leafValues>
            7.7490252256393433e-01 -1.7189334332942963e-01</leafValues></_>
        <_>
          <internalNodes>
            0 -1 72 -1.4668665244244039e-04</internalNodes>
          <leafValues>
            -6.9124352931976318e-01 2.1135699748992920e-01</leafValues></_>
        <_>
          <internalNodes>
            0 -1 68 -6.3137232791632414e-04</internalNodes>
          <leafValues>
            -6.1673265695571899e-01 2.0669452846050262e-01</leafValues></_>
        <_>
          <internalNodes>
            0 -1 139 4.8327952390536666e-04</internalNodes>
          <leafValues>
            -4.7394484281539917e-01 2.8285011649131775e-01</leafValues></_>
        <_>
          <internalNodes>
            0 -1 171 4.4062561355531216e-03</internalNodes>
          <leafValues>
            -2.9567036032676697e-01 5.0338912010192871e-01</leafValues></_>
        <_>
          <internalNodes>
            0 -1 164 -1.6345770563930273e-03</internalNodes>
          <leafValues>
            -8.9639919996261597e-01 1.8552474677562714e-01</leafValues></_>
        <_>
          <internalNodes>
            0 -1 51 5.7058516889810562e-02</internalNodes>
          <leafValues>
            1.6311849653720856e-01 -7.4763739109039307e-01</leafValues></_></weakClassifiers></_>
    <!-- stage 10 -->
    <_>
      <maxWeakCount>15</maxWeakCount>
      <stageThreshold>-1.0657774209976196e+00</stageThreshold>
      <weakClassifiers>
        <_>
          <internalNodes>
            0 -1 105 3.8361079990863800e-02</internalNodes>
          <leafValues>
            -5.1738238334655762e-01 4.7747749090194702e-01</leafValues></_>
        <_>
          <internalNodes>
            0 -1 15 -8.2279485650360584e-04</internalNodes>
          <leafValues>
            2.9264971613883972e-01 -4.1761064529418945e-01</leafValues></_>
        <_>
          <internalNodes>
            0 -1 119 -1.6796684940345585e-04</internalNodes>
          <leafValues>
            -6.4765197038650513e-01 1.6544890403747559e-01</leafValues></_>
        <_>
          <internalNodes>
            0 -1 142 -4.4688293710350990e-03</internalNodes>
          <leafValues>
            5.0275206565856934e-01 -2.0539985597133636e-01</leafValues></_>
        <_>
          <internalNodes>
            0 -1 80 -1.5175959561020136e-04</internalNodes>
          <leafValues>
            -5.0099235773086548e-01 2.2252932190895081e-01</leafValues></_>
        <_>
          <internalNodes>
            0 -1 55 1.0824939236044884e-03</internalNodes>
          <leafValues>
            -2.0246192812919617e-01 5.9419113397598267e-01</leafValues></_>
        <_>
          <internalNodes>
            0 -1 91 6.8097090115770698e-04</internalNodes>
          <leafValues>
            -3.8636127114295959e-01 3.3670571446418762e-01</leafValues></_>
        <_>
          <internalNodes>
            0 -1 79 4.8824588884599507e-04</internalNodes>
          <leafValues>
            1.2567970156669617e-01 -7.7050322294235229e-01</leafValues></_>
        <_>
          <internalNodes>
            0 -1 78 -3.9206100627779961e-03</internalNodes>
          <leafValues>
            7.1944904327392578e-01 -1.8043746054172516e-01</leafValues></_>
        <_>
          <internalNodes>
            0 -1 66 4.0227929130196571e-03</internalNodes>
          <leafValues>
            -1.9744399189949036e-01 6.4513438940048218e-01</leafValues></_>
        <_>
          <internalNodes>
            0 -1 123 -3.1807005871087313e-03</internalNodes>
          <leafValues>
            5.4013437032699585e-01 -2.0537212491035461e-01</leafValues></_>
        <_>
          <internalNodes>
            0 -1 150 -1.3460748596116900e-04</internalNodes>
          <leafValues>
            2.7105864882469177e-01 -4.3730121850967407e-01</leafValues></_>
        <_>
          <internalNodes>
            0 -1 61 3.5196534008719027e-04</internalNodes>
          <leafValues>
            -2.4715770781040192e-01 6.0582345724105835e-01</leafValues></_>
        <_>
          <internalNodes>
            0 -1 169 3.2329582609236240e-04</internalNodes>
          <leafValues>
            -1.8148466944694519e-01 5.8520865440368652e-01</leafValues></_>
        <_>
          <internalNodes>
            0 -1 128 -5.5047962814569473e-04</internalNodes>
          <leafValues>
            -7.2813040018081665e-01 1.8035772442817688e-01</leafValues></_></weakClassifiers></_>
    <!-- stage 11 -->
    <_>
      <maxWeakCount>13</maxWeakCount>
      <stageThreshold>-8.6138093471527100e-01</stageThreshold>
      <weakClassifiers>
        <_>
          <internalNodes>
            0 -1 137 -2.4509313516318798e-03</internalNodes>
          <leafValues>
            3.7614679336547852e-01 -4.9083504080772400e-01</leafValues></_>
        <_>
          <internalNodes>
            0 -1 48 8.2727073458954692e-04</internalNodes>
          <leafValues>
            -4.9079287052154541e-01 2.4579074978828430e-01</leafValues></_>
        <_>
          <internalNodes>
            0 -1 92 2.7263741940259933e-03</internalNodes>
          <leafValues>
            -4.3996798992156982e-01 2.7378433942794800e-01</leafValues></_>
        <_>
          <internalNodes>
            0 -1 157 1.5411319211125374e-02</internalNodes>
          <leafValues>
            -2.5899997353553772e-01 4.4216120243072510e-01</leafValues></_>
        <_>
          <internalNodes>
            0 -1 132 -1.1669407831504941e-04</internalNodes>
          <leafValues>
            -5.3265118598937988e-01 2.4081952869892120e-01</leafValues></_>
        <_>
          <internalNodes>
            0 -1 24 -5.9468341059982777e-03</internalNodes>
          <leafValues>
            8.2160156965255737e-01 -1.7199929058551788e-01</leafValues></_>
        <_>
          <internalNodes>
            0 -1 174 -3.5260510630905628e-03</internalNodes>
          <leafValues>
            -2.4921657145023346e-01 5.1870250701904297e-01</leafValues></_>
        <_>
          <internalNodes>
            0 -1 35 3.0938894487917423e-03</internalNodes>
          <leafValues>
            -1.6614173352718353e-01 7.5404363870620728e-01</leafValues></_>
        <_>
          <internalNodes>
            0 -1 32 -1.4818814815953374e-04</internalNodes>
          <leafValues>
            4.3403154611587524e-01 -2.7718833088874817e-01</leafValues></_>
        <_>
          <internalNodes>
            0 -1 162 -2.8157263295724988e-04</internalNodes>
          <leafValues>
            4.0174525976181030e-01 -3.2276526093482971e-01</leafValues></_>
        <_>
          <internalNodes>
            0 -1 147 6.2127801356837153e-05</internalNodes>
          <leafValues>
            2.0854808390140533e-01 -6.2043619155883789e-01</leafValues></_>
        <_>
          <internalNodes>
            0 -1 42 -3.4500202164053917e-03</internalNodes>
          <leafValues>
            -8.9360636472702026e-01 1.2065029889345169e-01</leafValues></_>
        <_>
          <internalNodes>
            0 -1 106 -8.6876287241466343e-05</internalNodes>
          <leafValues>
            -5.3820669651031494e-01 1.8831935524940491e-01</leafValues></_></weakClassifiers></_>
    <!-- stage 12 -->
    <_>
      <maxWeakCount>14</maxWeakCount>
      <stageThreshold>-8.6771672964096069e-01</stageThreshold>
      <weakClassifiers>
        <_>
          <internalNodes>
            0 -1 161 -1.7130674794316292e-02</internalNodes>
          <leafValues>
            1.8857142329216003e-01 -5.4823529720306396e-01</leafValues></_>
        <_>
          <internalNodes>
            0 -1 22 8.6358627304434776e-03</internalNodes>
          <leafValues>
            -2.6035726070404053e-01 4.9516856670379639e-01</leafValues></_>
        <_>
          <internalNodes>
            0 -1 134 -5.9374448028393090e-05</internalNodes>
          <leafValues>
            -6.0375779867172241e-01 1.8894454836845398e-01</leafValues></_>
        <_>
          <internalNodes>
            0 -1 31 -3.1708190217614174e-03</internalNodes>
          <leafValues>
            7.2106891870498657e-01 -1.3272610306739807e-01</leafValues></_>
        <_>
          <internalNodes>
            0 -1 73 -3.6601915780920535e-05</internalNodes>
          <leafValues>
            -5.5569523572921753e-01 2.0573951303958893e-01</leafValues></_>
        <_>
          <internalNodes>
            0 -1 2 3.1183531973510981e-03</internalNodes>
          <leafValues>
            1.2045031785964966e-01 -7.4322474002838135e-01</leafValues></_>
        <_>
          <internalNodes>
            0 -1 115 -1.2350923498161137e-04</internalNodes>
          <leafValues>
            3.4298545122146606e-01 -3.1074178218841553e-01</leafValues></_>
        <_>
          <internalNodes>
            0 -1 122 -4.4199350668350235e-05</internalNodes>
          <leafValues>
            -4.5725795626640320e-01 2.5750997662544250e-01</leafValues></_>
        <_>
          <internalNodes>
            0 -1 84 7.2873318567872047e-03</internalNodes>
          <leafValues>
            -3.0458340048789978e-01 3.7337628006935120e-01</leafValues></_>
        <_>
          <internalNodes>
            0 -1 117 2.1602882043225691e-05</internalNodes>
          <leafValues>
            2.2554503381252289e-01 -4.9095353484153748e-01</leafValues></_>
        <_>
          <internalNodes>
            0 -1 53 2.0519223064184189e-02</internalNodes>
          <leafValues>
            -1.8149097263813019e-01 7.5329434871673584e-01</leafValues></_>
        <_>
          <internalNodes>
            0 -1 158 1.2251932639628649e-03</internalNodes>
          <leafValues>
            -5.4090631008148193e-01 2.4945627152919769e-01</leafValues></_>
        <_>
          <internalNodes>
            0 -1 62 -5.6279152631759644e-03</internalNodes>
          <leafValues>
            7.7976995706558228e-01 -1.5008376538753510e-01</leafValues></_>
        <_>
          <internalNodes>
            0 -1 11 5.6609772145748138e-03</internalNodes>
          <leafValues>
            -1.6397686302661896e-01 6.9050109386444092e-01</leafValues></_></weakClassifiers></_>
    <!-- stage 13 -->
    <_>
      <maxWeakCount>18</maxWeakCount>
      <stageThreshold>-9.3059659004211426e-01</stageThreshold>
      <weakClassifiers>
        <_>
          <internalNodes>
            0 -1 151 -1.4192054979503155e-02</internalNodes>
          <leafValues>
            6.2962961196899414e-01 -4.2857143282890320e-01</leafValues></_>
        <_>
          <internalNodes>
            0 -1 116 -4.9830120988190174e-03</internalNodes>
          <leafValues>
            1.7505100369453430e-01 -6.2208235263824463e-01</leafValues></_>
        <_>
          <internalNodes>
            0 -1 118 -5.1836708735208958e-05</internalNodes>
          <leafValues>
            -5.9218126535415649e-01 1.8814249336719513e-01</leafValues></_>
        <_>
          <internalNodes>
            0 -1 47 -2.1986354142427444e-02</internalNodes>
          <leafValues>
            -8.4212744235992432e-01 9.7058467566967010e-02</leafValues></_>
        <_>
          <internalNodes>
            0 -1 71 -4.4362468179315329e-04</internalNodes>
          <leafValues>
            3.2729411125183105e-01 -3.0839708447456360e-01</leafValues></_>
        <_>
          <internalNodes>
            0 -1 94 5.5235847830772400e-02</internalNodes>
          <leafValues>
            -2.0673124492168427e-01 5.8246088027954102e-01</leafValues></_>
        <_>
          <internalNodes>
            0 -1 163 -4.2007798328995705e-03</internalNodes>
          <leafValues>
            4.2981413006782532e-01 -2.0398391783237457e-01</leafValues></_>
        <_>
          <internalNodes>
            0 -1 83 1.6758337616920471e-02</internalNodes>
          <leafValues>
            -6.2187641859054565e-01 1.3844357430934906e-01</leafValues></_>
        <_>
          <internalNodes>
            0 -1 141 7.0280898398777936e-06</internalNodes>
          <leafValues>
            1.5919668972492218e-01 -5.3666490316390991e-01</leafValues></_>
        <_>
          <internalNodes>
            0 -1 0 -2.3173489607870579e-03</internalNodes>
          <leafValues>
            -6.5386253595352173e-01 1.3496500253677368e-01</leafValues></_>
        <_>
          <internalNodes>
            0 -1 129 -1.4254765585064888e-02</internalNodes>
          <leafValues>
            4.7501337528228760e-01 -2.0877686142921448e-01</leafValues></_>
        <_>
          <internalNodes>
            0 -1 145 5.3804495837539434e-04</internalNodes>
          <leafValues>
            -2.1513633430004120e-01 4.3495249748229980e-01</leafValues></_>
        <_>
          <internalNodes>
            0 -1 18 1.8550720997154713e-03</internalNodes>
          <leafValues>
            -2.6703077554702759e-01 3.6198073625564575e-01</leafValues></_>
        <_>
          <internalNodes>
            0 -1 85 -2.3746551014482975e-03</internalNodes>
          <leafValues>
            4.1324520111083984e-01 -2.2554427385330200e-01</leafValues></_>
        <_>
          <internalNodes>
            0 -1 173 -1.4951000921428204e-03</internalNodes>
          <leafValues>
            -6.4191633462905884e-01 1.6169300675392151e-01</leafValues></_>
        <_>
          <internalNodes>
            0 -1 170 -2.3386077955365181e-03</internalNodes>
          <leafValues>
            -7.8683322668075562e-01 9.2443682253360748e-02</leafValues></_>
        <_>
          <internalNodes>
            0 -1 143 -3.9229379035532475e-04</internalNodes>
          <leafValues>
            4.7261610627174377e-01 -2.1776762604713440e-01</leafValues></_>
        <_>
          <internalNodes>
            0 -1 39 3.8373973220586777e-03</internalNodes>
          <leafValues>
            -1.8753325939178467e-01 5.3191196918487549e-01</leafValues></_></weakClassifiers></_>
    <!-- stage 14 -->
    <_>
      <maxWeakCount>17</maxWeakCount>
      <stageThreshold>-9.1001349687576294e-01</stageThreshold>
      <weakClassifiers>
        <_>
          <internalNodes>
            0 -1 87 -1.1039014905691147e-02</internalNodes>
          <leafValues>
            5.5555555969476700e-02 -5.5208331346511841e-01</leafValues></_>
        <_>
          <internalNodes>
            0 -1 148 -4.7495926264673471e-04</internalNodes>
          <leafValues>
            1.4319601655006409e-01 -5.2878564596176147e-01</leafValues></_>
        <_>
          <internalNodes>
            0 -1 135 1.8224224448204041e-02</internalNodes>
          <leafValues>
            -1.7859815061092377e-01 4.9192085862159729e-01</leafValues></_>
        <_>
          <internalNodes>
            0 -1 172 1.5621671918779612e-03</internalNodes>
          <leafValues>
            2.1722339093685150e-01 -4.7021254897117615e-01</leafValues></_>
        <_>
          <internalNodes>
            0 -1 70 -1.1424964759498835e-04</internalNodes>
          <leafValues>
            -6.2284892797470093e-01 1.0727050900459290e-01</leafValues></_>
        <_>
          <internalNodes>
            0 -1 27 4.1995123028755188e-02</internalNodes>
          <leafValues>
            1.0362420231103897e-01 -8.3465892076492310e-01</leafValues></_>
        <_>
          <internalNodes>
            0 -1 19 -2.0816508680582047e-02</internalNodes>
          <leafValues>
            -5.9172821044921875e-01 1.4561687409877777e-01</leafValues></_>
        <_>
          <internalNodes>
            0 -1 90 -4.5786881819367409e-03</internalNodes>
          <leafValues>
            3.5035425424575806e-01 -2.5422221422195435e-01</leafValues></_>
        <_>
          <internalNodes>
            0 -1 4 -9.3551259487867355e-04</internalNodes>
          <leafValues>
            -7.0793324708938599e-01 1.1259862780570984e-01</leafValues></_>
        <_>
          <internalNodes>
            0 -1 127 -2.2805052867624909e-04</internalNodes>
          <leafValues>
            3.8640084862709045e-01 -2.4476128816604614e-01</leafValues></_>
        <_>
          <internalNodes>
            0 -1 131 -9.2256004791124724e-06</internalNodes>
          <leafValues>
            -5.3773564100265503e-01 2.1664871275424957e-01</leafValues></_>
        <_>
          <internalNodes>
            0 -1 44 7.2432649321854115e-03</internalNodes>
          <leafValues>
            1.0512530803680420e-01 -8.2010883092880249e-01</leafValues></_>
        <_>
          <internalNodes>
            0 -1 82 -6.3848914578557014e-04</internalNodes>
          <leafValues>
            3.9469510316848755e-01 -2.5844043493270874e-01</leafValues></_>
        <_>
          <internalNodes>
            0 -1 107 4.3736414227169007e-05</internalNodes>
          <leafValues>
            2.0753687620162964e-01 -5.3685033321380615e-01</leafValues></_>
        <_>
          <internalNodes>
            0 -1 75 1.0244552046060562e-02</internalNodes>
          <leafValues>
            -1.7598342895507813e-01 6.0790616273880005e-01</leafValues></_>
        <_>
          <internalNodes>
            0 -1 20 -7.7790953218936920e-03</internalNodes>
          <leafValues>
            6.0815382003784180e-01 -1.6344231367111206e-01</leafValues></_>
        <_>
          <internalNodes>
            0 -1 136 3.1034513376653194e-03</internalNodes>
          <leafValues>
            -2.0255488157272339e-01 5.2538543939590454e-01</leafValues></_></weakClassifiers></_>
    <!-- stage 15 -->
    <_>
      <maxWeakCount>16</maxWeakCount>
      <stageThreshold>-8.0842214822769165e-01</stageThreshold>
      <weakClassifiers>
        <_>
          <internalNodes>
            0 -1 36 5.4177758283913136e-03</internalNodes>
          <leafValues>
            -4.9779736995697021e-01 1.7808219790458679e-01</leafValues></_>
        <_>
          <internalNodes>
            0 -1 152 5.3648999892175198e-03</internalNodes>
          <leafValues>
            -1.3981795310974121e-01 7.5083988904953003e-01</leafValues></_>
        <_>
          <internalNodes>
            0 -1 81 -2.4455046514049172e-05</internalNodes>
          <leafValues>
            -5.5150520801544189e-01 1.5801119804382324e-01</leafValues></_>
        <_>
          <internalNodes>
            0 -1 43 3.6687694489955902e-02</internalNodes>
          <leafValues>
            1.5710589289665222e-01 -5.9560722112655640e-01</leafValues></_>
        <_>
          <internalNodes>
            0 -1 125 4.4003332732245326e-05</internalNodes>
          <leafValues>
            -2.9477137327194214e-01 3.5146200656890869e-01</leafValues></_>
        <_>
          <internalNodes>
            0 -1 176 6.6102109849452972e-03</internalNodes>
          <leafValues>
            -9.0213470160961151e-02 7.7466112375259399e-01</leafValues></_>
        <_>
          <internalNodes>
            0 -1 16 1.7463855911046267e-03</internalNodes>
          <leafValues>
            1.9140960276126862e-01 -5.6795847415924072e-01</leafValues></_>
        <_>
          <internalNodes>
            0 -1 74 8.6291425395756960e-04</internalNodes>
          <leafValues>
            -4.1436403989791870e-01 2.3646263778209686e-01</leafValues></_>
        <_>
          <internalNodes>
            0 -1 102 -1.4596721157431602e-03</internalNodes>
          <leafValues>
            -8.8383066654205322e-01 1.1479678750038147e-01</leafValues></_>
        <_>
          <internalNodes>
            0 -1 111 -4.3016654672101140e-04</internalNodes>
          <leafValues>
            2.9195168614387512e-01 -3.4484261274337769e-01</leafValues></_>
        <_>
          <internalNodes>
            0 -1 154 6.5424485364928842e-04</internalNodes>
          <leafValues>
            -1.9711899757385254e-01 5.4347217082977295e-01</leafValues></_>
        <_>
          <internalNodes>
            0 -1 23 -7.2521797847002745e-05</internalNodes>
          <leafValues>
            4.2769393324851990e-01 -2.2334317862987518e-01</leafValues></_>
        <_>
          <internalNodes>
            0 -1 57 -1.0101373307406902e-02</internalNodes>
          <leafValues>
            6.0932767391204834e-01 -1.5153110027313232e-01</leafValues></_>
        <_>
          <internalNodes>
            0 -1 76 6.1809085309505463e-03</internalNodes>
          <leafValues>
            -3.0640682578086853e-01 3.7798184156417847e-01</leafValues></_>
        <_>
          <internalNodes>
            0 -1 95 9.0112051111645997e-05</internalNodes>
          <leafValues>
            1.9138738512992859e-01 -4.9170434474945068e-01</leafValues></_>
        <_>
          <internalNodes>
            0 -1 28 7.3731853626668453e-03</internalNodes>
          <leafValues>
            -2.1168874204158783e-01 5.1076018810272217e-01</leafValues></_></weakClassifiers></_></stages>
  <features>
    <_>
      <rects>
        <_>
          0 0 9 4 -1.</_>
        <_>
          0 1 9 2 2.</_></rects>
      <tilted>0</tilted></_>
    <_>
      <rects>
        <_>
          0 1 6 26 -1.</_>
        <_>
          3 1 3 26 2.</_></rects>
      <tilted>0</tilted></_>
    <_>
      <rects>
        <_>
          0 4 28 2 -1.</_>
        <_>
          0 4 14 1 2.</_>
        <_>
          14 5 14 1 2.</_></rects>
      <tilted>0</tilted></_>
    <_>
      <rects>
        <_>
          0 5 30 15 -1.</_>
        <_>
          15 5 15 15 2.</_></rects>
      <tilted>0</tilted></_>
    <_>
      <rects>
        <_>
          0 6 1 4 -1.</_>
        <_>
          0 8 1 2 2.</_></rects>
      <tilted>0</tilted></_>
    <_>
      <rects>
        <_>
          0 6 30 24 -1.</_>
        <_>
          10 14 10 8 9.</_></rects>
      <tilted>0</tilted></_>
    <_>
      <rects>
        <_>
          0 7 4 5 -1.</_>
        <_>
          1 7 2 5 2.</_></rects>
      <tilted>0</tilted></_>
    <_>
      <rects>
        <_>
          0 10 8 16 -1.</_>
        <_>
          2 10 4 16 2.</_></rects>
      <tilted>0</tilted></_>
    <_>
      <rects>
        <_>
          0 10 20 20 -1.</_>
        <_>
          10 10 10 20 2.</_></rects>
      <tilted>0</tilted></_>
    <_>
      <rects>
        <_>
          0 12 9 2 -1.</_>
        <_>
          3 12 3 2 2.</_></rects>
      <tilted>0</tilted></_>
    <_>
      <rects>
        <_>
          0 12 12 18 -1.</_>
        <_>
          4 18 4 6 9.</_></rects>
      <tilted>0</tilted></_>
    <_>
      <rects>
        <_>
          0 15 2 10 -1.</_>
        <_>
          1 15 1 10 2.</_></rects>
      <tilted>0</tilted></_>
    <_>
      <rects>
        <_>
          0 19 8 9 -1.</_>
        <_>
          4 19 4 9 2.</_></rects>
      <tilted>0</tilted></_>
    <_>
      <rects>
        <_>
          0 24 16 3 -1.</_>
        <_>
          4 24 8 3 2.</_></rects>
      <tilted>0</tilted></_>
    <_>
      <rects>
        <_>
          0 27 28 3 -1.</_>
        <_>
          7 27 14 3 2.</_></rects>
      <tilted>0</tilted></_>
    <_>
      <rects>
        <_>
          0 27 9 2 -1.</_>
        <_>
          0 28 9 1 2.</_></rects>
      <tilted>0</tilted></_>
    <_>
      <rects>
        <_>
          1 0 17 4 -1.</_>
        <_>
          1 1 17 2 2.</_></rects>
      <tilted>0</tilted></_>
    <_>
      <rects>
        <_>
          1 1 24 1 -1.</_>
        <_>
          1 1 12 1 2.</_></rects>
      <tilted>1</tilted></_>
    <_>
      <rects>
        <_>
          1 8 12 3 -1.</_>
        <_>
          5 9 4 1 9.</_></rects>
      <tilted>0</tilted></_>
    <_>
      <rects>
        <_>
          1 10 12 1 -1.</_>
        <_>
          1 10 6 1 2.</_></rects>
      <tilted>1</tilted></_>
    <_>
      <rects>
        <_>
          1 26 8 4 -1.</_>
        <_>
          1 26 4 2 2.</_>
        <_>
          5 28 4 2 2.</_></rects>
      <tilted>0</tilted></_>
    <_>
      <rects>
        <_>
          2 2 2 20 -1.</_>
        <_>
          2 2 1 10 2.</_>
        <_>
          3 12 1 10 2.</_></rects>
      <tilted>0</tilted></_>
    <_>
      <rects>
        <_>
          2 4 4 21 -1.</_>
        <_>
          3 4 2 21 2.</_></rects>
      <tilted>0</tilted></_>
    <_>
      <rects>
        <_>
          2 5 2 1 -1.</_>
        <_>
          3 5 1 1 2.</_></rects>
      <tilted>0</tilted></_>
    <_>
      <rects>
        <_>
          2 9 4 8 -1.</_>
        <_>
          3 9 2 8 2.</_></rects>
      <tilted>0</tilted></_>
    <_>
      <rects>
        <_>
          2 11 3 3 -1.</_>
        <_>
          3 12 1 1 9.</_></rects>
      <tilted>0</tilted></_>
    <_>
      <rects>
        <_>
          2 12 24 1 -1.</_>
        <_>
          10 12 8 1 2.</_></rects>
      <tilted>0</tilted></_>
    <_>
      <rects>
        <_>
          2 12 26 10 -1.</_>
        <_>
          2 12 13 5 2.</_>
        <_>
          15 17 13 5 2.</_></rects>
      <tilted>0</tilted></_>
    <_>
      <rects>
        <_>
          2 13 27 2 -1.</_>
        <_>
          2 14 27 1 2.</_></rects>
      <tilted>0</tilted></_>
    <_>
      <rects>
        <_>
          3 0 22 3 -1.</_>
        <_>
          3 0 11 3 2.</_></rects>
      <tilted>1</tilted></_>
    <_>
      <rects>
        <_>
          3 0 21 28 -1.</_>
        <_>
          3 14 21 14 2.</_></rects>
      <tilted>0</tilted></_>
    <_>
      <rects>
        <_>
          3 9 3 1 -1.</_>
        <_>
          4 10 1 1 3.</_></rects>
      <tilted>1</tilted></_>
    <_>
      <rects>
        <_>
          3 9 2 2 -1.</_>
        <_>
          4 9 1 2 2.</_></rects>
      <tilted>0</tilted></_>
    <_>
      <rects>
        <_>
          3 9 27 4 -1.</_>
        <_>
          12 9 9 4 2.</_></rects>
      <tilted>0</tilted></_>
    <_>
      <rects>
        <_>
          3 10 3 6 -1.</_>
        <_>
          4 12 1 2 9.</_></rects>
      <tilted>0</tilted></_>
    <_>
      <rects>
        <_>
          3 11 3 1 -1.</_>
        <_>
          4 12 1 1 3.</_></rects>
      <tilted>1</tilted></_>
    <_>
      <rects>
        <_>
          3 11 6 3 -1.</_>
        <_>
          2 12 6 1 3.</_></rects>
      <tilted>1</tilted></_>
    <_>
      <rects>
        <_>
          3 12 9 3 -1.</_>
        <_>
          6 13 3 1 9.</_></rects>
      <tilted>0</tilted></_>
    <_>
      <rects>
        <_>
          3 12 21 1 -1.</_>
        <_>
          10 12 7 1 2.</_></rects>
      <tilted>0</tilted></_>
    <_>
      <rects>
        <_>
          3 21 4 3 -1.</_>
        <_>
          2 22 4 1 3.</_></rects>
      <tilted>1</tilted></_>
    <_>
      <rects>
        <_>
          3 24 14 6 -1.</_>
        <_>
          3 24 7 3 2.</_>
        <_>
          10 27 7 3 2.</_></rects>
      <tilted>0</tilted></_>
    <_>
      <rects>
        <_>
          3 25 4 4 -1.</_>
        <_>
          3 27 4 2 2.</_></rects>
      <tilted>0</tilted></_>
    <_>
      <rects>
        <_>
          4 0 22 2 -1.</_>
        <_>
          4 0 11 1 2.</_>
        <_>
          15 1 11 1 2.</_></rects>
      <tilted>0</tilted></_>
    <_>
      <rects>
        <_>
          4 0 26 22 -1.</_>
        <_>
          17 0 13 22 2.</_></rects>
      <tilted>0</tilted></_>
    <_>
      <rects>
        <_>
          4 1 23 4 -1.</_>
        <_>
          4 2 23 2 2.</_></rects>
      <tilted>0</tilted></_>
    <_>
      <rects>
        <_>
          4 8 5 4 -1.</_>
        <_>
          4 9 5 2 2.</_></rects>
      <tilted>0</tilted></_>
    <_>
      <rects>
        <_>
          4 9 26 21 -1.</_>
        <_>
          17 9 13 21 2.</_></rects>
      <tilted>0</tilted></_>
    <_>
      <rects>
        <_>
          4 14 6 1 -1.</_>
        <_>
          6 14 2 1 2.</_></rects>
      <tilted>0</tilted></_>
    <_>
      <rects>
        <_>
          4 22 6 8 -1.</_>
        <_>
          4 24 6 4 2.</_></rects>
      <tilted>0</tilted></_>
    <_>
      <rects>
        <_>
          4 28 22 2 -1.</_>
        <_>
          4 29 22 1 2.</_></rects>
      <tilted>0</tilted></_>
    <_>
      <rects>
        <_>
          5 4 3 16 -1.</_>
        <_>
          5 8 3 8 2.</_></rects>
      <tilted>0</tilted></_>
    <_>
      <rects>
        <_>
          5 7 22 22 -1.</_>
        <_>
          5 7 11 11 2.</_>
        <_>
          16 18 11 11 2.</_></rects>
      <tilted>0</tilted></_>
    <_>
      <rects>
        <_>
          5 9 3 3 -1.</_>
        <_>
          6 10 1 1 9.</_></rects>
      <tilted>0</tilted></_>
    <_>
      <rects>
        <_>
          5 9 10 18 -1.</_>
        <_>
          5 9 5 9 2.</_>
        <_>
          10 18 5 9 2.</_></rects>
      <tilted>0</tilted></_>
    <_>
      <rects>
        <_>
          5 22 18 3 -1.</_>
        <_>
          11 23 6 1 9.</_></rects>
      <tilted>0</tilted></_>
    <_>
      <rects>
        <_>
          6 6 1 4 -1.</_>
        <_>
          6 7 1 2 2.</_></rects>
      <tilted>0</tilted></_>
    <_>
      <rects>
        <_>
          6 6 3 5 -1.</_>
        <_>
          7 7 1 5 3.</_></rects>
      <tilted>1</tilted></_>
    <_>
      <rects>
        <_>
          6 8 8 16 -1.</_>
        <_>
          10 8 4 16 2.</_></rects>
      <tilted>0</tilted></_>
    <_>
      <rects>
        <_>
          6 8 10 20 -1.</_>
        <_>
          6 8 5 10 2.</_>
        <_>
          11 18 5 10 2.</_></rects>
      <tilted>0</tilted></_>
    <_>
      <rects>
        <_>
          6 8 21 6 -1.</_>
        <_>
          13 8 7 6 2.</_></rects>
      <tilted>0</tilted></_>
    <_>
      <rects>
        <_>
          6 9 3 9 -1.</_>
        <_>
          7 12 1 3 9.</_></rects>
      <tilted>0</tilted></_>
    <_>
      <rects>
        <_>
          6 10 2 2 -1.</_>
        <_>
          6 10 1 1 2.</_>
        <_>
          7 11 1 1 2.</_></rects>
      <tilted>0</tilted></_>
    <_>
      <rects>
        <_>
          6 23 3 4 -1.</_>
        <_>
          5 24 3 2 2.</_></rects>
      <tilted>1</tilted></_>
    <_>
      <rects>
        <_>
          7 7 3 1 -1.</_>
        <_>
          8 8 1 1 3.</_></rects>
      <tilted>1</tilted></_>
    <_>
      <rects>
        <_>
          7 7 6 6 -1.</_>
        <_>
          7 7 3 3 2.</_>
        <_>
          10 10 3 3 2.</_></rects>
      <tilted>0</tilted></_>
    <_>
      <rects>
        <_>
          7 10 3 3 -1.</_>
        <_>
          8 11 1 1 9.</_></rects>
      <tilted>0</tilted></_>
    <_>
      <rects>
        <_>
          7 12 3 3 -1.</_>
        <_>
          8 13 1 1 9.</_></rects>
      <tilted>0</tilted></_>
    <_>
      <rects>
        <_>
          7 12 16 2 -1.</_>
        <_>
          11 12 8 2 2.</_></rects>
      <tilted>0</tilted></_>
    <_>
      <rects>
        <_>
          7 17 3 9 -1.</_>
        <_>
          8 20 1 3 9.</_></rects>
      <tilted>0</tilted></_>
    <_>
      <rects>
        <_>
          7 20 6 3 -1.</_>
        <_>
          9 21 2 1 9.</_></rects>
      <tilted>0</tilted></_>
    <_>
      <rects>
        <_>
          7 25 3 1 -1.</_>
        <_>
          8 26 1 1 3.</_></rects>
      <tilted>1</tilted></_>
    <_>
      <rects>
        <_>
          7 25 10 3 -1.</_>
        <_>
          12 25 5 3 2.</_></rects>
      <tilted>0</tilted></_>
    <_>
      <rects>
        <_>
          7 26 3 1 -1.</_>
        <_>
          8 27 1 1 3.</_></rects>
      <tilted>1</tilted></_>
    <_>
      <rects>
        <_>
          7 27 6 3 -1.</_>
        <_>
          9 28 2 1 9.</_></rects>
      <tilted>0</tilted></_>
    <_>
      <rects>
        <_>
          7 27 9 3 -1.</_>
        <_>
          10 28 3 1 9.</_></rects>
      <tilted>0</tilted></_>
    <_>
      <rects>
        <_>
          8 3 3 6 -1.</_>
        <_>
          9 5 1 2 9.</_></rects>
      <tilted>0</tilted></_>
    <_>
      <rects>
        <_>
          8 6 8 19 -1.</_>
        <_>
          10 6 4 19 2.</_></rects>
      <tilted>0</tilted></_>
    <_>
      <rects>
        <_>
          8 8 3 3 -1.</_>
        <_>
          9 9 1 1 9.</_></rects>
      <tilted>0</tilted></_>
    <_>
      <rects>
        <_>
          8 11 4 1 -1.</_>
        <_>
          9 12 2 1 2.</_></rects>
      <tilted>1</tilted></_>
    <_>
      <rects>
        <_>
          8 20 4 2 -1.</_>
        <_>
          9 20 2 2 2.</_></rects>
      <tilted>0</tilted></_>
    <_>
      <rects>
        <_>
          8 20 3 6 -1.</_>
        <_>
          9 22 1 2 9.</_></rects>
      <tilted>0</tilted></_>
    <_>
      <rects>
        <_>
          8 23 2 1 -1.</_>
        <_>
          9 23 1 1 2.</_></rects>
      <tilted>0</tilted></_>
    <_>
      <rects>
        <_>
          9 4 2 6 -1.</_>
        <_>
          9 4 1 3 2.</_>
        <_>
          10 7 1 3 2.</_></rects>
      <tilted>0</tilted></_>
    <_>
      <rects>
        <_>
          9 4 13 18 -1.</_>
        <_>
          9 13 13 9 2.</_></rects>
      <tilted>0</tilted></_>
    <_>
      <rects>
        <_>
          9 4 16 4 -1.</_>
        <_>
          8 5 16 2 2.</_></rects>
      <tilted>1</tilted></_>
    <_>
      <rects>
        <_>
          9 6 2 4 -1.</_>
        <_>
          8 7 2 2 2.</_></rects>
      <tilted>1</tilted></_>
    <_>
      <rects>
        <_>
          9 7 7 8 -1.</_>
        <_>
          7 9 7 4 2.</_></rects>
      <tilted>1</tilted></_>
    <_>
      <rects>
        <_>
          9 10 4 3 -1.</_>
        <_>
          9 10 2 3 2.</_></rects>
      <tilted>1</tilted></_>
    <_>
      <rects>
        <_>
          9 19 9 3 -1.</_>
        <_>
          12 20 3 1 9.</_></rects>
      <tilted>0</tilted></_>
    <_>
      <rects>
        <_>
          9 26 5 3 -1.</_>
        <_>
          9 27 5 1 2.</_></rects>
      <tilted>0</tilted></_>
    <_>
      <rects>
        <_>
          10 14 2 9 -1.</_>
        <_>
          10 14 1 9 2.</_></rects>
      <tilted>1</tilted></_>
    <_>
      <rects>
        <_>
          10 14 6 3 -1.</_>
        <_>
          12 16 2 3 3.</_></rects>
      <tilted>1</tilted></_>
    <_>
      <rects>
        <_>
          10 17 12 9 -1.</_>
        <_>
          14 20 4 3 9.</_></rects>
      <tilted>0</tilted></_>
    <_>
      <rects>
        <_>
          10 26 16 4 -1.</_>
        <_>
          10 26 8 2 2.</_>
        <_>
          18 28 8 2 2.</_></rects>
      <tilted>0</tilted></_>
    <_>
      <rects>
        <_>
          11 0 7 9 -1.</_>
        <_>
          8 3 7 3 3.</_></rects>
      <tilted>1</tilted></_>
    <_>
      <rects>
        <_>
          11 14 4 1 -1.</_>
        <_>
          12 14 2 1 2.</_></rects>
      <tilted>0</tilted></_>
    <_>
      <rects>
        <_>
          11 14 6 6 -1.</_>
        <_>
          13 16 2 2 9.</_></rects>
      <tilted>0</tilted></_>
    <_>
      <rects>
        <_>
          11 19 4 1 -1.</_>
        <_>
          12 19 2 1 2.</_></rects>
      <tilted>0</tilted></_>
    <_>
      <rects>
        <_>
          11 20 2 1 -1.</_>
        <_>
          12 20 1 1 2.</_></rects>
      <tilted>0</tilted></_>
    <_>
      <rects>
        <_>
          11 22 3 3 -1.</_>
        <_>
          12 23 1 1 9.</_></rects>
      <tilted>0</tilted></_>
    <_>
      <rects>
        <_>
          11 22 6 1 -1.</_>
        <_>
          14 22 3 1 2.</_></rects>
      <tilted>0</tilted></_>
    <_>
      <rects>
        <_>
          12 16 4 3 -1.</_>
        <_>
          13 16 2 3 2.</_></rects>
      <tilted>0</tilted></_>
    <_>
      <rects>
        <_>
          12 25 4 3 -1.</_>
        <_>
          13 25 2 3 2.</_></rects>
      <tilted>0</tilted></_>
    <_>
      <rects>
        <_>
          12 26 18 3 -1.</_>
        <_>
          18 27 6 1 9.</_></rects>
      <tilted>0</tilted></_>
    <_>
      <rects>
        <_>
          13 3 9 27 -1.</_>
        <_>
          16 12 3 9 9.</_></rects>
      <tilted>0</tilted></_>
    <_>
      <rects>
        <_>
          13 10 12 12 -1.</_>
        <_>
          13 10 6 6 2.</_>
        <_>
          19 16 6 6 2.</_></rects>
      <tilted>0</tilted></_>
    <_>
      <rects>
        <_>
          13 11 3 4 -1.</_>
        <_>
          13 12 3 2 2.</_></rects>
      <tilted>0</tilted></_>
    <_>
      <rects>
        <_>
          13 14 2 1 -1.</_>
        <_>
          14 14 1 1 2.</_></rects>
      <tilted>0</tilted></_>
    <_>
      <rects>
        <_>
          13 15 2 1 -1.</_>
        <_>
          14 15 1 1 2.</_></rects>
      <tilted>0</tilted></_>
    <_>
      <rects>
        <_>
          13 18 2 12 -1.</_>
        <_>
          13 18 1 6 2.</_>
        <_>
          14 24 1 6 2.</_></rects>
      <tilted>0</tilted></_>
    <_>
      <rects>
        <_>
          13 19 4 1 -1.</_>
        <_>
          14 19 2 1 2.</_></rects>
      <tilted>0</tilted></_>
    <_>
      <rects>
        <_>
          13 22 5 8 -1.</_>
        <_>
          13 24 5 4 2.</_></rects>
      <tilted>0</tilted></_>
    <_>
      <rects>
        <_>
          14 3 4 4 -1.</_>
        <_>
          14 3 2 4 2.</_></rects>
      <tilted>1</tilted></_>
    <_>
      <rects>
        <_>
          14 13 3 3 -1.</_>
        <_>
          15 14 1 1 9.</_></rects>
      <tilted>0</tilted></_>
    <_>
      <rects>
        <_>
          14 16 2 8 -1.</_>
        <_>
          14 16 1 4 2.</_>
        <_>
          15 20 1 4 2.</_></rects>
      <tilted>0</tilted></_>
    <_>
      <rects>
        <_>
          14 22 1 8 -1.</_>
        <_>
          14 24 1 4 2.</_></rects>
      <tilted>0</tilted></_>
    <_>
      <rects>
        <_>
          14 28 16 2 -1.</_>
        <_>
          22 28 8 2 2.</_></rects>
      <tilted>0</tilted></_>
    <_>
      <rects>
        <_>
          15 14 2 2 -1.</_>
        <_>
          15 14 1 1 2.</_>
        <_>
          16 15 1 1 2.</_></rects>
      <tilted>0</tilted></_>
    <_>
      <rects>
        <_>
          15 15 2 1 -1.</_>
        <_>
          16 15 1 1 2.</_></rects>
      <tilted>0</tilted></_>
    <_>
      <rects>
        <_>
          15 18 3 3 -1.</_>
        <_>
          16 19 1 1 9.</_></rects>
      <tilted>0</tilted></_>
    <_>
      <rects>
        <_>
          15 19 2 1 -1.</_>
        <_>
          16 19 1 1 2.</_></rects>
      <tilted>0</tilted></_>
    <_>
      <rects>
        <_>
          15 22 14 8 -1.</_>
        <_>
          15 22 7 4 2.</_>
        <_>
          22 26 7 4 2.</_></rects>
      <tilted>0</tilted></_>
    <_>
      <rects>
        <_>
          15 23 1 2 -1.</_>
        <_>
          15 24 1 1 2.</_></rects>
      <tilted>0</tilted></_>
    <_>
      <rects>
        <_>
          16 2 9 3 -1.</_>
        <_>
          15 3 9 1 3.</_></rects>
      <tilted>1</tilted></_>
    <_>
      <rects>
        <_>
          16 15 2 1 -1.</_>
        <_>
          17 15 1 1 2.</_></rects>
      <tilted>0</tilted></_>
    <_>
      <rects>
        <_>
          16 15 3 4 -1.</_>
        <_>
          16 15 3 2 2.</_></rects>
      <tilted>1</tilted></_>
    <_>
      <rects>
        <_>
          16 17 1 6 -1.</_>
        <_>
          14 19 1 2 3.</_></rects>
      <tilted>1</tilted></_>
    <_>
      <rects>
        <_>
          16 24 2 4 -1.</_>
        <_>
          16 24 1 4 2.</_></rects>
      <tilted>1</tilted></_>
    <_>
      <rects>
        <_>
          16 25 4 2 -1.</_>
        <_>
          18 25 2 2 2.</_></rects>
      <tilted>0</tilted></_>
    <_>
      <rects>
        <_>
          17 9 12 9 -1.</_>
        <_>
          21 13 4 9 3.</_></rects>
      <tilted>1</tilted></_>
    <_>
      <rects>
        <_>
          17 10 9 4 -1.</_>
        <_>
          17 11 9 2 2.</_></rects>
      <tilted>0</tilted></_>
    <_>
      <rects>
        <_>
          17 17 1 3 -1.</_>
        <_>
          16 18 1 1 3.</_></rects>
      <tilted>1</tilted></_>
    <_>
      <rects>
        <_>
          17 22 3 3 -1.</_>
        <_>
          18 23 1 1 9.</_></rects>
      <tilted>0</tilted></_>
    <_>
      <rects>
        <_>
          18 9 9 9 -1.</_>
        <_>
          21 12 3 3 9.</_></rects>
      <tilted>0</tilted></_>
    <_>
      <rects>
        <_>
          18 21 2 1 -1.</_>
        <_>
          18 21 1 1 2.</_></rects>
      <tilted>1</tilted></_>
    <_>
      <rects>
        <_>
          19 4 6 5 -1.</_>
        <_>
          21 6 2 5 3.</_></rects>
      <tilted>1</tilted></_>
    <_>
      <rects>
        <_>
          19 5 3 3 -1.</_>
        <_>
          20 6 1 3 3.</_></rects>
      <tilted>1</tilted></_>
    <_>
      <rects>
        <_>
          19 7 2 6 -1.</_>
        <_>
          19 7 1 3 2.</_>
        <_>
          20 10 1 3 2.</_></rects>
      <tilted>0</tilted></_>
    <_>
      <rects>
        <_>
          19 7 4 13 -1.</_>
        <_>
          20 7 2 13 2.</_></rects>
      <tilted>0</tilted></_>
    <_>
      <rects>
        <_>
          19 14 2 14 -1.</_>
        <_>
          19 14 2 7 2.</_></rects>
      <tilted>1</tilted></_>
    <_>
      <rects>
        <_>
          19 15 9 15 -1.</_>
        <_>
          22 20 3 5 9.</_></rects>
      <tilted>0</tilted></_>
    <_>
      <rects>
        <_>
          19 21 2 1 -1.</_>
        <_>
          20 21 1 1 2.</_></rects>
      <tilted>0</tilted></_>
    <_>
      <rects>
        <_>
          20 5 4 19 -1.</_>
        <_>
          21 5 2 19 2.</_></rects>
      <tilted>0</tilted></_>
    <_>
      <rects>
        <_>
          20 5 4 2 -1.</_>
        <_>
          20 5 2 1 2.</_>
        <_>
          22 6 2 1 2.</_></rects>
      <tilted>0</tilted></_>
    <_>
      <rects>
        <_>
          20 5 10 24 -1.</_>
        <_>
          20 5 5 12 2.</_>
        <_>
          25 17 5 12 2.</_></rects>
      <tilted>0</tilted></_>
    <_>
      <rects>
        <_>
          20 8 2 5 -1.</_>
        <_>
          21 8 1 5 2.</_></rects>
      <tilted>0</tilted></_>
    <_>
      <rects>
        <_>
          20 19 3 3 -1.</_>
        <_>
          21 20 1 1 9.</_></rects>
      <tilted>0</tilted></_>
    <_>
      <rects>
        <_>
          20 20 2 2 -1.</_>
        <_>
          21 20 1 2 2.</_></rects>
      <tilted>0</tilted></_>
    <_>
      <rects>
        <_>
          20 23 10 1 -1.</_>
        <_>
          25 23 5 1 2.</_></rects>
      <tilted>0</tilted></_>
    <_>
      <rects>
        <_>
          20 25 10 3 -1.</_>
        <_>
          25 25 5 3 2.</_></rects>
      <tilted>0</tilted></_>
    <_>
      <rects>
        <_>
          20 25 10 2 -1.</_>
        <_>
          20 26 10 1 2.</_></rects>
      <tilted>0</tilted></_>
    <_>
      <rects>
        <_>
          21 7 4 4 -1.</_>
        <_>
          21 9 4 2 2.</_></rects>
      <tilted>0</tilted></_>
    <_>
      <rects>
        <_>
          21 8 4 4 -1.</_>
        <_>
          21 9 4 2 2.</_></rects>
      <tilted>0</tilted></_>
    <_>
      <rects>
        <_>
          21 8 4 12 -1.</_>
        <_>
          17 12 4 4 3.</_></rects>
      <tilted>1</tilted></_>
    <_>
      <rects>
        <_>
          22 5 3 2 -1.</_>
        <_>
          22 6 3 1 2.</_></rects>
      <tilted>0</tilted></_>
    <_>
      <rects>
        <_>
          22 6 4 2 -1.</_>
        <_>
          23 7 2 2 2.</_></rects>
      <tilted>1</tilted></_>
    <_>
      <rects>
        <_>
          22 10 1 4 -1.</_>
        <_>
          22 11 1 2 2.</_></rects>
      <tilted>0</tilted></_>
    <_>
      <rects>
        <_>
          22 12 8 12 -1.</_>
        <_>
          24 12 4 12 2.</_></rects>
      <tilted>0</tilted></_>
    <_>
      <rects>
        <_>
          22 14 3 9 -1.</_>
        <_>
          19 17 3 3 3.</_></rects>
      <tilted>1</tilted></_>
    <_>
      <rects>
        <_>
          22 19 8 9 -1.</_>
        <_>
          26 19 4 9 2.</_></rects>
      <tilted>0</tilted></_>
    <_>
      <rects>
        <_>
          23 10 3 20 -1.</_>
        <_>
          23 15 3 10 2.</_></rects>
      <tilted>0</tilted></_>
    <_>
      <rects>
        <_>
          24 7 6 16 -1.</_>
        <_>
          26 9 2 16 3.</_></rects>
      <tilted>1</tilted></_>
    <_>
      <rects>
        <_>
          24 17 2 11 -1.</_>
        <_>
          24 17 1 11 2.</_></rects>
      <tilted>1</tilted></_>
    <_>
      <rects>
        <_>
          24 17 4 5 -1.</_>
        <_>
          26 17 2 5 2.</_></rects>
      <tilted>0</tilted></_>
    <_>
      <rects>
        <_>
          24 23 2 4 -1.</_>
        <_>
          23 24 2 2 2.</_></rects>
      <tilted>1</tilted></_>
    <_>
      <rects>
        <_>
          25 9 3 7 -1.</_>
        <_>
          26 10 1 7 3.</_></rects>
      <tilted>1</tilted></_>
    <_>
      <rects>
        <_>
          25 12 3 3 -1.</_>
        <_>
          26 13 1 1 9.</_></rects>
      <tilted>0</tilted></_>
    <_>
      <rects>
        <_>
          25 13 4 4 -1.</_>
        <_>
          26 13 2 4 2.</_></rects>
      <tilted>0</tilted></_>
    <_>
      <rects>
        <_>
          26 7 4 9 -1.</_>
        <_>
          27 7 2 9 2.</_></rects>
      <tilted>0</tilted></_>
    <_>
      <rects>
        <_>
          26 12 2 2 -1.</_>
        <_>
          26 12 1 1 2.</_>
        <_>
          27 13 1 1 2.</_></rects>
      <tilted>0</tilted></_>
    <_>
      <rects>
        <_>
          26 21 4 3 -1.</_>
        <_>
          25 22 4 1 3.</_></rects>
      <tilted>1</tilted></_>
    <_>
      <rects>
        <_>
          27 21 3 6 -1.</_>
        <_>
          28 22 1 6 3.</_></rects>
      <tilted>1</tilted></_>
    <_>
      <rects>
        <_>
          27 24 3 3 -1.</_>
        <_>
          26 25 3 1 3.</_></rects>
      <tilted>1</tilted></_>
    <_>
      <rects>
        <_>
          27 25 2 3 -1.</_>
        <_>
          26 26 2 1 3.</_></rects>
      <tilted>1</tilted></_>
    <_>
      <rects>
        <_>
          28 1 1 3 -1.</_>
        <_>
          28 2 1 1 2.</_></rects>
      <tilted>0</tilted></_>
    <_>
      <rects>
        <_>
          28 4 2 14 -1.</_>
        <_>
          29 4 1 14 2.</_></rects>
      <tilted>0</tilted></_>
    <_>
      <rects>
        <_>
          28 5 2 4 -1.</_>
        <_>
          27 6 2 2 2.</_></rects>
      <tilted>1</tilted></_></features></cascade>
</opencv_storage>
