<?xml version="1.0"?>
<opencv_storage>
<cascade>
  <stageType>BOOST</stageType>
  <featureType>HAAR</featureType>
  <height>30</height>
  <width>30</width>
  <stageParams>
    <boostType>GAB</boostType>
    <minHitRate>9.9500000476837158e-01</minHitRate>
    <maxFalseAlarm>4.0000000596046448e-01</maxFalseAlarm>
    <weightTrimRate>9.4999999999999996e-01</weightTrimRate>
    <maxDepth>1</maxDepth>
    <maxWeakCount>100</maxWeakCount></stageParams>
  <featureParams>
    <maxCatCount>0</maxCatCount>
    <featSize>1</featSize>
    <mode>ALL</mode></featureParams>
  <stageNum>18</stageNum>
  <stages>
    <!-- stage 0 -->
    <_>
      <maxWeakCount>5</maxWeakCount>
      <stageThreshold>-1.4654575586318970e+00</stageThreshold>
      <weakClassifiers>
        <_>
          <internalNodes>
            0 -1 88 -5.8190476149320602e-02</internalNodes>
          <leafValues>
            6.6433566808700562e-01 -8.1039756536483765e-01</leafValues></_>
        <_>
          <internalNodes>
            0 -1 37 -4.9604684114456177e-02</internalNodes>
          <leafValues>
            4.3775662779808044e-01 -8.9928048849105835e-01</leafValues></_>
        <_>
          <internalNodes>
            0 -1 125 -9.8860152065753937e-03</internalNodes>
          <leafValues>
            5.4034072160720825e-01 -7.4356848001480103e-01</leafValues></_>
        <_>
          <internalNodes>
            0 -1 132 -1.0997605510056019e-02</internalNodes>
          <leafValues>
            6.2853324413299561e-01 -6.9649785757064819e-01</leafValues></_>
        <_>
          <internalNodes>
            0 -1 11 -3.7653202889487147e-04</internalNodes>
          <leafValues>
            -8.8778322935104370e-01 4.0037760138511658e-01</leafValues></_></weakClassifiers></_>
    <!-- stage 1 -->
    <_>
      <maxWeakCount>5</maxWeakCount>
      <stageThreshold>-7.2335922718048096e-01</stageThreshold>
      <weakClassifiers>
        <_>
          <internalNodes>
            0 -1 43 2.0698517560958862e-02</internalNodes>
          <leafValues>
            -6.9800567626953125e-01 6.3025212287902832e-01</leafValues></_>
        <_>
          <internalNodes>
            0 -1 12 4.5402955263853073e-02</internalNodes>
          <leafValues>
            -7.6489555835723877e-01 5.0116282701492310e-01</leafValues></_>
        <_>
          <internalNodes>
            0 -1 3 1.3978937640786171e-02</internalNodes>
          <leafValues>
            -6.1425763368606567e-01 7.0148879289627075e-01</leafValues></_>
        <_>
          <internalNodes>
            0 -1 131 -1.4551574364304543e-02</internalNodes>
          <leafValues>
            6.6710525751113892e-01 -3.9268046617507935e-01</leafValues></_>
        <_>
          <internalNodes>
            0 -1 34 -1.0710209608078003e-02</internalNodes>
          <leafValues>
            5.3086817264556885e-01 -5.7936400175094604e-01</leafValues></_></weakClassifiers></_>
    <!-- stage 2 -->
    <_>
      <maxWeakCount>6</maxWeakCount>
      <stageThreshold>-9.9567878246307373e-01</stageThreshold>
      <weakClassifiers>
        <_>
          <internalNodes>
            0 -1 51 1.3009208254516125e-02</internalNodes>
          <leafValues>
            -6.2234044075012207e-01 6.8085104227066040e-01</leafValues></_>
        <_>
          <internalNodes>
            0 -1 20 7.1678948588669300e-03</internalNodes>
          <leafValues>
            -5.9385162591934204e-01 4.7233569622039795e-01</leafValues></_>
        <_>
          <internalNodes>
            0 -1 89 3.1997382640838623e-02</internalNodes>
          <leafValues>
            -7.1011054515838623e-01 3.8893234729766846e-01</leafValues></_>
        <_>
          <internalNodes>
            0 -1 104 4.6797627874184400e-05</internalNodes>
          <leafValues>
            3.1716185808181763e-01 -7.5391602516174316e-01</leafValues></_>
        <_>
          <internalNodes>
            0 -1 92 -1.5662713849451393e-04</internalNodes>
          <leafValues>
            -8.1393235921859741e-01 2.7951976656913757e-01</leafValues></_>
        <_>
          <internalNodes>
            0 -1 57 -4.3386564357206225e-04</internalNodes>
          <leafValues>
            -7.1082466840744019e-01 3.3883276581764221e-01</leafValues></_></weakClassifiers></_>
    <!-- stage 3 -->
    <_>
      <maxWeakCount>6</maxWeakCount>
      <stageThreshold>-6.6884207725524902e-01</stageThreshold>
      <weakClassifiers>
        <_>
          <internalNodes>
            0 -1 52 -2.5368703529238701e-02</internalNodes>
          <leafValues>
            7.5609755516052246e-01 -5.9793812036514282e-01</leafValues></_>
        <_>
          <internalNodes>
            0 -1 4 2.3150559514760971e-02</internalNodes>
          <leafValues>
            -3.8511496782302856e-01 7.9321724176406860e-01</leafValues></_>
        <_>
          <internalNodes>
            0 -1 78 -1.7649352550506592e-02</internalNodes>
          <leafValues>
            3.5509890317916870e-01 -6.9030767679214478e-01</leafValues></_>
        <_>
          <internalNodes>
            0 -1 25 5.7918265461921692e-02</internalNodes>
          <leafValues>
            -5.9215724468231201e-01 3.7230378389358521e-01</leafValues></_>
        <_>
          <internalNodes>
            0 -1 91 -2.9167451430112123e-04</internalNodes>
          <leafValues>
            -7.4733251333236694e-01 3.5109987854957581e-01</leafValues></_>
        <_>
          <internalNodes>
            0 -1 55 -5.9932404838036746e-05</internalNodes>
          <leafValues>
            -7.5887483358383179e-01 3.3414083719253540e-01</leafValues></_></weakClassifiers></_>
    <!-- stage 4 -->
    <_>
      <maxWeakCount>6</maxWeakCount>
      <stageThreshold>-1.1896815299987793e+00</stageThreshold>
      <weakClassifiers>
        <_>
          <internalNodes>
            0 -1 120 -2.5262072682380676e-02</internalNodes>
          <leafValues>
            3.0487805604934692e-01 -7.1895426511764526e-01</leafValues></_>
        <_>
          <internalNodes>
            0 -1 86 -3.9955037645995617e-03</internalNodes>
          <leafValues>
            4.3339070677757263e-01 -4.8697876930236816e-01</leafValues></_>
        <_>
          <internalNodes>
            0 -1 58 -1.1712487321346998e-04</internalNodes>
          <leafValues>
            -7.0767521858215332e-01 3.3449593186378479e-01</leafValues></_>
        <_>
          <internalNodes>
            0 -1 124 1.5631318092346191e-02</internalNodes>
          <leafValues>
            -3.0345275998115540e-01 7.2185516357421875e-01</leafValues></_>
        <_>
          <internalNodes>
            0 -1 65 -8.8507458713138476e-06</internalNodes>
          <leafValues>
            -6.8127828836441040e-01 3.6576032638549805e-01</leafValues></_>
        <_>
          <internalNodes>
            0 -1 81 -6.5499776974320412e-03</internalNodes>
          <leafValues>
            6.8439233303070068e-01 -3.6368885636329651e-01</leafValues></_></weakClassifiers></_>
    <!-- stage 5 -->
    <_>
      <maxWeakCount>5</maxWeakCount>
      <stageThreshold>-7.0651894807815552e-01</stageThreshold>
      <weakClassifiers>
        <_>
          <internalNodes>
            0 -1 29 -1.4807468652725220e-01</internalNodes>
          <leafValues>
            -9.4011974334716797e-01 -4.2904291301965714e-02</leafValues></_>
        <_>
          <internalNodes>
            0 -1 18 2.3552267812192440e-03</internalNodes>
          <leafValues>
            -5.6895285844802856e-01 3.5806459188461304e-01</leafValues></_>
        <_>
          <internalNodes>
            0 -1 72 -1.1083688877988607e-04</internalNodes>
          <leafValues>
            -6.7697644233703613e-01 3.4671708941459656e-01</leafValues></_>
        <_>
          <internalNodes>
            0 -1 10 1.2772637419402599e-03</internalNodes>
          <leafValues>
            -6.6268587112426758e-01 3.0605259537696838e-01</leafValues></_>
        <_>
          <internalNodes>
            0 -1 48 6.1885954346507788e-04</internalNodes>
          <leafValues>
            -6.5075540542602539e-01 3.2851704955101013e-01</leafValues></_></weakClassifiers></_>
    <!-- stage 6 -->
    <_>
      <maxWeakCount>3</maxWeakCount>
      <stageThreshold>-1.0700305700302124e+00</stageThreshold>
      <weakClassifiers>
        <_>
          <internalNodes>
            0 -1 53 -1.0042732208967209e-01</internalNodes>
          <leafValues>
            -9.2857140302658081e-01 2.9357796907424927e-01</leafValues></_>
        <_>
          <internalNodes>
            0 -1 42 5.2167259156703949e-02</internalNodes>
          <leafValues>
            -4.1530168056488037e-01 8.5392141342163086e-01</leafValues></_>
        <_>
          <internalNodes>
            0 -1 87 -7.5648590922355652e-02</internalNodes>
          <leafValues>
            -9.2817264795303345e-01 2.7384260296821594e-01</leafValues></_></weakClassifiers></_>
    <!-- stage 7 -->
    <_>
      <maxWeakCount>6</maxWeakCount>
      <stageThreshold>-8.2384717464447021e-01</stageThreshold>
      <weakClassifiers>
        <_>
          <internalNodes>
            0 -1 15 1.8948036013171077e-03</internalNodes>
          <leafValues>
            -5.7178843021392822e-01 7.8082191944122314e-01</leafValues></_>
        <_>
          <internalNodes>
            0 -1 129 8.2563571631908417e-03</internalNodes>
          <leafValues>
            -4.2353585362434387e-01 6.8270903825759888e-01</leafValues></_>
        <_>
          <internalNodes>
            0 -1 24 -1.2431605719029903e-03</internalNodes>
          <leafValues>
            6.3329708576202393e-01 -3.7432301044464111e-01</leafValues></_>
        <_>
          <internalNodes>
            0 -1 93 5.3385691717267036e-03</internalNodes>
          <leafValues>
            -6.0185945034027100e-01 4.2685508728027344e-01</leafValues></_>
        <_>
          <internalNodes>
            0 -1 116 -2.0788954570889473e-03</internalNodes>
          <leafValues>
            8.6971789598464966e-01 -2.6618146896362305e-01</leafValues></_>
        <_>
          <internalNodes>
            0 -1 0 2.9217114672064781e-02</internalNodes>
          <leafValues>
            -5.8310759067535400e-01 4.0622094273567200e-01</leafValues></_></weakClassifiers></_>
    <!-- stage 8 -->
    <_>
      <maxWeakCount>8</maxWeakCount>
      <stageThreshold>-9.9482822418212891e-01</stageThreshold>
      <weakClassifiers>
        <_>
          <internalNodes>
            0 -1 26 -3.0997365713119507e-02</internalNodes>
          <leafValues>
            8.5714286565780640e-01 -5.2657002210617065e-01</leafValues></_>
        <_>
          <internalNodes>
            0 -1 8 -8.3884704113006592e-01</internalNodes>
          <leafValues>
            -5.7108849287033081e-01 4.6251598000526428e-01</leafValues></_>
        <_>
          <internalNodes>
            0 -1 70 1.9061355851590633e-04</internalNodes>
          <leafValues>
            3.4238225221633911e-01 -6.9183343648910522e-01</leafValues></_>
        <_>
          <internalNodes>
            0 -1 47 3.1929763499647379e-03</internalNodes>
          <leafValues>
            -2.3400644958019257e-01 7.2792351245880127e-01</leafValues></_>
        <_>
          <internalNodes>
            0 -1 1 1.5013389289379120e-02</internalNodes>
          <leafValues>
            -2.2357885539531708e-01 7.6788508892059326e-01</leafValues></_>
        <_>
          <internalNodes>
            0 -1 75 -3.3367960713803768e-04</internalNodes>
          <leafValues>
            -6.6953277587890625e-01 3.3165627717971802e-01</leafValues></_>
        <_>
          <internalNodes>
            0 -1 101 1.7195979598909616e-03</internalNodes>
          <leafValues>
            -3.3216205239295959e-01 5.9334880113601685e-01</leafValues></_>
        <_>
          <internalNodes>
            0 -1 90 3.2770365942269564e-04</internalNodes>
          <leafValues>
            3.3574965596199036e-01 -7.0636051893234253e-01</leafValues></_></weakClassifiers></_>
    <!-- stage 9 -->
    <_>
      <maxWeakCount>7</maxWeakCount>
      <stageThreshold>-9.7091132402420044e-01</stageThreshold>
      <weakClassifiers>
        <_>
          <internalNodes>
            0 -1 16 6.0016594827175140e-02</internalNodes>
          <leafValues>
            -7.6470589637756348e-01 5.1724139600992203e-02</leafValues></_>
        <_>
          <internalNodes>
            0 -1 30 -5.1824823021888733e-02</internalNodes>
          <leafValues>
            -6.1168980598449707e-01 2.3264573514461517e-01</leafValues></_>
        <_>
          <internalNodes>
            0 -1 23 3.5171424970030785e-03</internalNodes>
          <leafValues>
            -2.9738488793373108e-01 6.6478562355041504e-01</leafValues></_>
        <_>
          <internalNodes>
            0 -1 59 -2.3087246518116444e-05</internalNodes>
          <leafValues>
            5.8736670017242432e-01 -3.5476434230804443e-01</leafValues></_>
        <_>
          <internalNodes>
            0 -1 80 -2.3791071726009250e-04</internalNodes>
          <leafValues>
            4.2909115552902222e-01 -4.8647841811180115e-01</leafValues></_>
        <_>
          <internalNodes>
            0 -1 107 -1.1738308239728212e-03</internalNodes>
          <leafValues>
            -7.3081386089324951e-01 2.6821568608283997e-01</leafValues></_>
        <_>
          <internalNodes>
            0 -1 14 1.0367164388298988e-02</internalNodes>
          <leafValues>
            -3.8486924767494202e-01 5.3625690937042236e-01</leafValues></_></weakClassifiers></_>
    <!-- stage 10 -->
    <_>
      <maxWeakCount>9</maxWeakCount>
      <stageThreshold>-1.4452092647552490e+00</stageThreshold>
      <weakClassifiers>
        <_>
          <internalNodes>
            0 -1 138 7.1122557856142521e-03</internalNodes>
          <leafValues>
            -5.0357997417449951e-01 8.0392158031463623e-01</leafValues></_>
        <_>
          <internalNodes>
            0 -1 136 3.1468141824007034e-03</internalNodes>
          <leafValues>
            -2.7335491776466370e-01 6.9290977716445923e-01</leafValues></_>
        <_>
          <internalNodes>
            0 -1 97 -5.5924803018569946e-04</internalNodes>
          <leafValues>
            -8.6607128381729126e-01 2.1517373621463776e-01</leafValues></_>
        <_>
          <internalNodes>
            0 -1 33 3.9353040046989918e-03</internalNodes>
          <leafValues>
            -2.5666928291320801e-01 8.0531924962997437e-01</leafValues></_>
        <_>
          <internalNodes>
            0 -1 106 2.4839821271598339e-03</internalNodes>
          <leafValues>
            -3.8573116064071655e-01 4.7987776994705200e-01</leafValues></_>
        <_>
          <internalNodes>
            0 -1 68 4.4558821246027946e-03</internalNodes>
          <leafValues>
            -3.9602401852607727e-01 5.0773876905441284e-01</leafValues></_>
        <_>
          <internalNodes>
            0 -1 111 3.4229340963065624e-03</internalNodes>
          <leafValues>
            3.1895092129707336e-01 -6.5812492370605469e-01</leafValues></_>
        <_>
          <internalNodes>
            0 -1 109 1.6763807798270136e-04</internalNodes>
          <leafValues>
            2.6034963130950928e-01 -7.7105343341827393e-01</leafValues></_>
        <_>
          <internalNodes>
            0 -1 13 4.0812438237480819e-04</internalNodes>
          <leafValues>
            -4.5490965247154236e-01 4.3184411525726318e-01</leafValues></_></weakClassifiers></_>
    <!-- stage 11 -->
    <_>
      <maxWeakCount>10</maxWeakCount>
      <stageThreshold>-9.7381615638732910e-01</stageThreshold>
      <weakClassifiers>
        <_>
          <internalNodes>
            0 -1 41 4.0385000407695770e-02</internalNodes>
          <leafValues>
            -5.1456308364868164e-01 7.2413790225982666e-01</leafValues></_>
        <_>
          <internalNodes>
            0 -1 45 1.3487329706549644e-03</internalNodes>
          <leafValues>
            -6.1012130975723267e-01 3.2205361127853394e-01</leafValues></_>
        <_>
          <internalNodes>
            0 -1 118 1.8196083605289459e-02</internalNodes>
          <leafValues>
            -4.3226191401481628e-01 3.7958362698554993e-01</leafValues></_>
        <_>
          <internalNodes>
            0 -1 79 -3.5871315049007535e-05</internalNodes>
          <leafValues>
            -7.1399343013763428e-01 2.3922659456729889e-01</leafValues></_>
        <_>
          <internalNodes>
            0 -1 40 3.3822949044406414e-03</internalNodes>
          <leafValues>
            -3.6343404650688171e-01 5.3330755233764648e-01</leafValues></_>
        <_>
          <internalNodes>
            0 -1 74 5.2219284698367119e-03</internalNodes>
          <leafValues>
            -6.0766375064849854e-01 3.2206520438194275e-01</leafValues></_>
        <_>
          <internalNodes>
            0 -1 126 -8.9635308540891856e-05</internalNodes>
          <leafValues>
            -6.7956387996673584e-01 2.6380866765975952e-01</leafValues></_>
        <_>
          <internalNodes>
            0 -1 28 2.6745004579424858e-03</internalNodes>
          <leafValues>
            -5.6501585245132446e-01 3.0408561229705811e-01</leafValues></_>
        <_>
          <internalNodes>
            0 -1 77 -2.2508655674755573e-03</internalNodes>
          <leafValues>
            -7.5986230373382568e-01 2.0842397212982178e-01</leafValues></_>
        <_>
          <internalNodes>
            0 -1 110 2.2026062943041325e-03</internalNodes>
          <leafValues>
            -2.9767856001853943e-01 6.5570032596588135e-01</leafValues></_></weakClassifiers></_>
    <!-- stage 12 -->
    <_>
      <maxWeakCount>10</maxWeakCount>
      <stageThreshold>-8.9838063716888428e-01</stageThreshold>
      <weakClassifiers>
        <_>
          <internalNodes>
            0 -1 121 9.0559583622962236e-04</internalNodes>
          <leafValues>
            -5.3846156597137451e-01 5.0000000000000000e-01</leafValues></_>
        <_>
          <internalNodes>
            0 -1 83 2.3141986457630992e-04</internalNodes>
          <leafValues>
            2.0693258941173553e-01 -6.7967802286148071e-01</leafValues></_>
        <_>
          <internalNodes>
            0 -1 60 5.3875165758654475e-04</internalNodes>
          <leafValues>
            -2.4633547663688660e-01 6.4723122119903564e-01</leafValues></_>
        <_>
          <internalNodes>
            0 -1 61 -9.5409566711168736e-05</internalNodes>
          <leafValues>
            -5.9623348712921143e-01 2.8544840216636658e-01</leafValues></_>
        <_>
          <internalNodes>
            0 -1 19 1.7263200134038925e-02</internalNodes>
          <leafValues>
            -2.4238097667694092e-01 7.0498627424240112e-01</leafValues></_>
        <_>
          <internalNodes>
            0 -1 6 7.6155154965817928e-03</internalNodes>
          <leafValues>
            -1.7024245858192444e-01 7.5594490766525269e-01</leafValues></_>
        <_>
          <internalNodes>
            0 -1 98 -3.8135153590701520e-04</internalNodes>
          <leafValues>
            -8.3717703819274902e-01 2.3566143214702606e-01</leafValues></_>
        <_>
          <internalNodes>
            0 -1 63 -6.7784294486045837e-02</internalNodes>
          <leafValues>
            7.8726989030838013e-01 -1.9997736811637878e-01</leafValues></_>
        <_>
          <internalNodes>
            0 -1 127 9.5823907759040594e-04</internalNodes>
          <leafValues>
            1.9868944585323334e-01 -7.8014612197875977e-01</leafValues></_>
        <_>
          <internalNodes>
            0 -1 117 2.5795478723011911e-04</internalNodes>
          <leafValues>
            -3.2510545849800110e-01 4.5889595150947571e-01</leafValues></_></weakClassifiers></_>
    <!-- stage 13 -->
    <_>
      <maxWeakCount>11</maxWeakCount>
      <stageThreshold>-9.7661870718002319e-01</stageThreshold>
      <weakClassifiers>
        <_>
          <internalNodes>
            0 -1 108 -1.7745929956436157e-01</internalNodes>
          <leafValues>
            7.9487180709838867e-01 -4.6635732054710388e-01</leafValues></_>
        <_>
          <internalNodes>
            0 -1 96 -5.5706470448058099e-05</internalNodes>
          <leafValues>
            -7.6500833034515381e-01 1.2469138205051422e-01</leafValues></_>
        <_>
          <internalNodes>
            0 -1 119 1.1628919746726751e-03</internalNodes>
          <leafValues>
            -2.8437310457229614e-01 5.0484204292297363e-01</leafValues></_>
        <_>
          <internalNodes>
            0 -1 62 -8.5458967078011483e-05</internalNodes>
          <leafValues>
            3.9312121272087097e-01 -3.7737989425659180e-01</leafValues></_>
        <_>
          <internalNodes>
            0 -1 35 1.3403763063251972e-02</internalNodes>
          <leafValues>
            -5.8265447616577148e-01 2.2007256746292114e-01</leafValues></_>
        <_>
          <internalNodes>
            0 -1 84 2.5892560370266438e-04</internalNodes>
          <leafValues>
            1.6472133994102478e-01 -8.0227565765380859e-01</leafValues></_>
        <_>
          <internalNodes>
            0 -1 135 3.0631339177489281e-03</internalNodes>
          <leafValues>
            -2.2634407877922058e-01 7.1732866764068604e-01</leafValues></_>
        <_>
          <internalNodes>
            0 -1 73 -3.6470819031819701e-04</internalNodes>
          <leafValues>
            3.0458718538284302e-01 -4.9682006239891052e-01</leafValues></_>
        <_>
          <internalNodes>
            0 -1 32 -3.7266649305820465e-03</internalNodes>
          <leafValues>
            6.1805266141891479e-01 -2.4814850091934204e-01</leafValues></_>
        <_>
          <internalNodes>
            0 -1 27 6.3136117532849312e-03</internalNodes>
          <leafValues>
            -2.5559163093566895e-01 5.3955966234207153e-01</leafValues></_>
        <_>
          <internalNodes>
            0 -1 115 3.6904551088809967e-03</internalNodes>
          <leafValues>
            1.8670193850994110e-01 -9.8124408721923828e-01</leafValues></_></weakClassifiers></_>
    <!-- stage 14 -->
    <_>
      <maxWeakCount>10</maxWeakCount>
      <stageThreshold>-1.2294554710388184e+00</stageThreshold>
      <weakClassifiers>
        <_>
          <internalNodes>
            0 -1 123 2.4320827797055244e-03</internalNodes>
          <leafValues>
            -4.9261084198951721e-01 4.6875000000000000e-01</leafValues></_>
        <_>
          <internalNodes>
            0 -1 66 -2.8672246844507754e-04</internalNodes>
          <leafValues>
            -6.3447988033294678e-01 2.3049330711364746e-01</leafValues></_>
        <_>
          <internalNodes>
            0 -1 122 -7.3147267103195190e-03</internalNodes>
          <leafValues>
            8.3196836709976196e-01 -2.1036432683467865e-01</leafValues></_>
        <_>
          <internalNodes>
            0 -1 102 4.9748653545975685e-03</internalNodes>
          <leafValues>
            -4.5371139049530029e-01 3.1651249527931213e-01</leafValues></_>
        <_>
          <internalNodes>
            0 -1 76 -5.0703261513262987e-04</internalNodes>
          <leafValues>
            -6.2898266315460205e-01 2.4586239457130432e-01</leafValues></_>
        <_>
          <internalNodes>
            0 -1 36 2.9981150291860104e-03</internalNodes>
          <leafValues>
            -4.1682878136634827e-01 4.0660071372985840e-01</leafValues></_>
        <_>
          <internalNodes>
            0 -1 69 -3.2028034329414368e-03</internalNodes>
          <leafValues>
            7.1202802658081055e-01 -1.9068093597888947e-01</leafValues></_>
        <_>
          <internalNodes>
            0 -1 85 -3.7625448312610388e-03</internalNodes>
          <leafValues>
            -9.8473763465881348e-01 1.6570179164409637e-01</leafValues></_>
        <_>
          <internalNodes>
            0 -1 17 4.1193533688783646e-03</internalNodes>
          <leafValues>
            -2.5479832291603088e-01 6.2545949220657349e-01</leafValues></_>
        <_>
          <internalNodes>
            0 -1 44 1.2240773066878319e-03</internalNodes>
          <leafValues>
            1.8902522325515747e-01 -7.5909543037414551e-01</leafValues></_></weakClassifiers></_>
    <!-- stage 15 -->
    <_>
      <maxWeakCount>9</maxWeakCount>
      <stageThreshold>-1.2302901744842529e+00</stageThreshold>
      <weakClassifiers>
        <_>
          <internalNodes>
            0 -1 41 3.7517935037612915e-02</internalNodes>
          <leafValues>
            -5.1392406225204468e-01 4.3999999761581421e-01</leafValues></_>
        <_>
          <internalNodes>
            0 -1 105 -3.1478782184422016e-03</internalNodes>
          <leafValues>
            3.6612293124198914e-01 -3.7319043278694153e-01</leafValues></_>
        <_>
          <internalNodes>
            0 -1 54 7.8172699431888759e-05</internalNodes>
          <leafValues>
            2.0479582250118256e-01 -5.9056162834167480e-01</leafValues></_>
        <_>
          <internalNodes>
            0 -1 7 7.3011345230042934e-03</internalNodes>
          <leafValues>
            -2.6062875986099243e-01 5.1958245038986206e-01</leafValues></_>
        <_>
          <internalNodes>
            0 -1 49 1.5051630325615406e-03</internalNodes>
          <leafValues>
            -2.9782935976982117e-01 4.3360143899917603e-01</leafValues></_>
        <_>
          <internalNodes>
            0 -1 67 -4.1942832467611879e-05</internalNodes>
          <leafValues>
            -7.7158707380294800e-01 1.5558208525180817e-01</leafValues></_>
        <_>
          <internalNodes>
            0 -1 128 3.0650596600025892e-03</internalNodes>
          <leafValues>
            -2.4947206676006317e-01 6.1133849620819092e-01</leafValues></_>
        <_>
          <internalNodes>
            0 -1 9 -7.6863016001880169e-03</internalNodes>
          <leafValues>
            7.8857195377349854e-01 -1.6231583058834076e-01</leafValues></_>
        <_>
          <internalNodes>
            0 -1 39 5.8669824153184891e-02</internalNodes>
          <leafValues>
            2.1971492469310760e-01 -6.8419539928436279e-01</leafValues></_></weakClassifiers></_>
    <!-- stage 16 -->
    <_>
      <maxWeakCount>13</maxWeakCount>
      <stageThreshold>-8.5769248008728027e-01</stageThreshold>
      <weakClassifiers>
        <_>
          <internalNodes>
            0 -1 46 1.2979011517018080e-03</internalNodes>
          <leafValues>
            -6.3018870353698730e-01 -1.4634146355092525e-02</leafValues></_>
        <_>
          <internalNodes>
            0 -1 82 3.8038438651710749e-03</internalNodes>
          <leafValues>
            -5.6946730613708496e-01 1.8761299550533295e-01</leafValues></_>
        <_>
          <internalNodes>
            0 -1 99 3.4881965257227421e-04</internalNodes>
          <leafValues>
            -4.9484890699386597e-01 2.3515182733535767e-01</leafValues></_>
        <_>
          <internalNodes>
            0 -1 100 3.1030227546580136e-05</internalNodes>
          <leafValues>
            2.4160546064376831e-01 -6.3666284084320068e-01</leafValues></_>
        <_>
          <internalNodes>
            0 -1 137 6.5898639149963856e-05</internalNodes>
          <leafValues>
            1.8142554163932800e-01 -6.5788024663925171e-01</leafValues></_>
        <_>
          <internalNodes>
            0 -1 103 2.1362688130466267e-05</internalNodes>
          <leafValues>
            2.5675386190414429e-01 -4.6341454982757568e-01</leafValues></_>
        <_>
          <internalNodes>
            0 -1 31 2.0067837613169104e-04</internalNodes>
          <leafValues>
            -4.0819722414016724e-01 3.2968822121620178e-01</leafValues></_>
        <_>
          <internalNodes>
            0 -1 64 9.7078888211399317e-04</internalNodes>
          <leafValues>
            -3.6761277914047241e-01 3.7996307015419006e-01</leafValues></_>
        <_>
          <internalNodes>
            0 -1 71 4.4440460624173284e-04</internalNodes>
          <leafValues>
            -5.0590151548385620e-01 2.6053056120872498e-01</leafValues></_>
        <_>
          <internalNodes>
            0 -1 47 4.2737126350402832e-03</internalNodes>
          <leafValues>
            -2.2423018515110016e-01 5.8087658882141113e-01</leafValues></_>
        <_>
          <internalNodes>
            0 -1 56 -4.8992078518494964e-05</internalNodes>
          <leafValues>
            -7.1549928188323975e-01 1.8634870648384094e-01</leafValues></_>
        <_>
          <internalNodes>
            0 -1 114 -2.2009150125086308e-03</internalNodes>
          <leafValues>
            4.2209514975547791e-01 -3.1829845905303955e-01</leafValues></_>
        <_>
          <internalNodes>
            0 -1 113 1.9230390898883343e-04</internalNodes>
          <leafValues>
            -2.9378357529640198e-01 4.2917868494987488e-01</leafValues></_></weakClassifiers></_>
    <!-- stage 17 -->
    <_>
      <maxWeakCount>12</maxWeakCount>
      <stageThreshold>-9.3763065338134766e-01</stageThreshold>
      <weakClassifiers>
        <_>
          <internalNodes>
            0 -1 112 1.3643146492540836e-02</internalNodes>
          <leafValues>
            -4.6046510338783264e-01 6.9999998807907104e-01</leafValues></_>
        <_>
          <internalNodes>
            0 -1 130 -2.2210430353879929e-02</internalNodes>
          <leafValues>
            3.4420156478881836e-01 -3.7064546346664429e-01</leafValues></_>
        <_>
          <internalNodes>
            0 -1 94 9.1570131480693817e-03</internalNodes>
          <leafValues>
            -3.0909407138824463e-01 4.1924396157264709e-01</leafValues></_>
        <_>
          <internalNodes>
            0 -1 50 2.5671468392829411e-05</internalNodes>
          <leafValues>
            2.3431555926799774e-01 -5.6597399711608887e-01</leafValues></_>
        <_>
          <internalNodes>
            0 -1 2 2.2468715906143188e-02</internalNodes>
          <leafValues>
            -4.2724636197090149e-01 3.2447680830955505e-01</leafValues></_>
        <_>
          <internalNodes>
            0 -1 134 -2.6367472019046545e-03</internalNodes>
          <leafValues>
            6.0922485589981079e-01 -2.0226418972015381e-01</leafValues></_>
        <_>
          <internalNodes>
            0 -1 21 3.1572137959301472e-03</internalNodes>
          <leafValues>
            -1.5485262870788574e-01 7.3006391525268555e-01</leafValues></_>
        <_>
          <internalNodes>
            0 -1 5 3.3603701740503311e-02</internalNodes>
          <leafValues>
            -3.8280716538429260e-01 3.5198488831520081e-01</leafValues></_>
        <_>
          <internalNodes>
            0 -1 95 -3.5769880923908204e-05</internalNodes>
          <leafValues>
            -5.3697055578231812e-01 2.1207439899444580e-01</leafValues></_>
        <_>
          <internalNodes>
            0 -1 22 6.9557125680148602e-03</internalNodes>
          <leafValues>
            -2.2890053689479828e-01 4.9759086966514587e-01</leafValues></_>
        <_>
          <internalNodes>
            0 -1 38 1.2599734589457512e-02</internalNodes>
          <leafValues>
            -1.3808298110961914e-01 8.2542520761489868e-01</leafValues></_>
        <_>
          <internalNodes>
            0 -1 133 6.1231479048728943e-03</internalNodes>
          <leafValues>
            -1.7279216647148132e-01 6.4791625738143921e-01</leafValues></_></weakClassifiers></_></stages>
  <features>
    <_>
      <rects>
        <_>
          0 9 9 18 -1.</_>
        <_>
          3 15 3 6 9.</_></rects>
      <tilted>0</tilted></_>
    <_>
      <rects>
        <_>
          0 11 8 6 -1.</_>
        <_>
          2 11 4 6 2.</_></rects>
      <tilted>0</tilted></_>
    <_>
      <rects>
        <_>
          0 14 30 12 -1.</_>
        <_>
          0 17 30 6 2.</_></rects>
      <tilted>0</tilted></_>
    <_>
      <rects>
        <_>
          0 24 10 5 -1.</_>
        <_>
          5 24 5 5 2.</_></rects>
      <tilted>0</tilted></_>
    <_>
      <rects>
        <_>
          1 4 4 23 -1.</_>
        <_>
          3 4 2 23 2.</_></rects>
      <tilted>0</tilted></_>
    <_>
      <rects>
        <_>
          1 5 6 21 -1.</_>
        <_>
          3 12 2 7 9.</_></rects>
      <tilted>0</tilted></_>
    <_>
      <rects>
        <_>
          1 6 4 10 -1.</_>
        <_>
          2 6 2 10 2.</_></rects>
      <tilted>0</tilted></_>
    <_>
      <rects>
        <_>
          1 7 4 18 -1.</_>
        <_>
          2 7 2 18 2.</_></rects>
      <tilted>0</tilted></_>
    <_>
      <rects>
        <_>
          1 10 24 16 -1.</_>
        <_>
          9 10 8 16 2.</_></rects>
      <tilted>0</tilted></_>
    <_>
      <rects>
        <_>
          1 13 4 12 -1.</_>
        <_>
          2 13 2 12 2.</_></rects>
      <tilted>0</tilted></_>
    <_>
      <rects>
        <_>
          1 21 12 6 -1.</_>
        <_>
          5 23 4 2 9.</_></rects>
      <tilted>0</tilted></_>
    <_>
      <rects>
        <_>
          1 25 15 3 -1.</_>
        <_>
          6 26 5 1 9.</_></rects>
      <tilted>0</tilted></_>
    <_>
      <rects>
        <_>
          2 0 9 28 -1.</_>
        <_>
          2 14 9 14 2.</_></rects>
      <tilted>0</tilted></_>
    <_>
      <rects>
        <_>
          2 1 4 4 -1.</_>
        <_>
          3 1 2 4 2.</_></rects>
      <tilted>0</tilted></_>
    <_>
      <rects>
        <_>
          2 4 6 6 -1.</_>
        <_>
          4 6 2 2 9.</_></rects>
      <tilted>0</tilted></_>
    <_>
      <rects>
        <_>
          2 8 3 1 -1.</_>
        <_>
          3 9 1 1 3.</_></rects>
      <tilted>1</tilted></_>
    <_>
      <rects>
        <_>
          2 9 24 21 -1.</_>
        <_>
          8 9 12 21 2.</_></rects>
      <tilted>0</tilted></_>
    <_>
      <rects>
        <_>
          2 12 3 3 -1.</_>
        <_>
          3 13 1 1 9.</_></rects>
      <tilted>0</tilted></_>
    <_>
      <rects>
        <_>
          2 25 12 4 -1.</_>
        <_>
          2 25 6 2 2.</_>
        <_>
          8 27 6 2 2.</_></rects>
      <tilted>0</tilted></_>
    <_>
      <rects>
        <_>
          2 29 24 1 -1.</_>
        <_>
          8 29 12 1 2.</_></rects>
      <tilted>0</tilted></_>
    <_>
      <rects>
        <_>
          2 29 28 1 -1.</_>
        <_>
          9 29 14 1 2.</_></rects>
      <tilted>0</tilted></_>
    <_>
      <rects>
        <_>
          3 6 3 1 -1.</_>
        <_>
          4 7 1 1 3.</_></rects>
      <tilted>1</tilted></_>
    <_>
      <rects>
        <_>
          3 7 6 3 -1.</_>
        <_>
          5 8 2 1 9.</_></rects>
      <tilted>0</tilted></_>
    <_>
      <rects>
        <_>
          3 8 8 4 -1.</_>
        <_>
          3 9 8 2 2.</_></rects>
      <tilted>0</tilted></_>
    <_>
      <rects>
        <_>
          3 9 4 4 -1.</_>
        <_>
          3 9 2 2 2.</_>
        <_>
          5 11 2 2 2.</_></rects>
      <tilted>0</tilted></_>
    <_>
      <rects>
        <_>
          3 9 23 14 -1.</_>
        <_>
          3 16 23 7 2.</_></rects>
      <tilted>0</tilted></_>
    <_>
      <rects>
        <_>
          3 11 9 3 -1.</_>
        <_>
          6 12 3 1 9.</_></rects>
      <tilted>0</tilted></_>
    <_>
      <rects>
        <_>
          3 19 8 3 -1.</_>
        <_>
          2 20 8 1 3.</_></rects>
      <tilted>1</tilted></_>
    <_>
      <rects>
        <_>
          3 24 18 6 -1.</_>
        <_>
          3 24 9 3 2.</_>
        <_>
          12 27 9 3 2.</_></rects>
      <tilted>0</tilted></_>
    <_>
      <rects>
        <_>
          3 26 15 3 -1.</_>
        <_>
          8 26 5 3 2.</_></rects>
      <tilted>0</tilted></_>
    <_>
      <rects>
        <_>
          3 29 24 1 -1.</_>
        <_>
          11 29 8 1 2.</_></rects>
      <tilted>0</tilted></_>
    <_>
      <rects>
        <_>
          4 4 6 2 -1.</_>
        <_>
          4 5 6 1 2.</_></rects>
      <tilted>0</tilted></_>
    <_>
      <rects>
        <_>
          4 8 2 3 -1.</_>
        <_>
          4 8 1 3 2.</_></rects>
      <tilted>1</tilted></_>
    <_>
      <rects>
        <_>
          4 11 3 3 -1.</_>
        <_>
          5 12 1 1 9.</_></rects>
      <tilted>0</tilted></_>
    <_>
      <rects>
        <_>
          4 11 12 16 -1.</_>
        <_>
          4 11 6 8 2.</_>
        <_>
          10 19 6 8 2.</_></rects>
      <tilted>0</tilted></_>
    <_>
      <rects>
        <_>
          4 11 17 10 -1.</_>
        <_>
          4 16 17 5 2.</_></rects>
      <tilted>0</tilted></_>
    <_>
      <rects>
        <_>
          4 12 5 4 -1.</_>
        <_>
          3 13 5 2 2.</_></rects>
      <tilted>1</tilted></_>
    <_>
      <rects>
        <_>
          4 15 9 4 -1.</_>
        <_>
          7 15 3 4 2.</_></rects>
      <tilted>0</tilted></_>
    <_>
      <rects>
        <_>
          4 21 6 3 -1.</_>
        <_>
          3 22 6 1 3.</_></rects>
      <tilted>1</tilted></_>
    <_>
      <rects>
        <_>
          5 5 20 20 -1.</_>
        <_>
          15 5 10 20 2.</_></rects>
      <tilted>0</tilted></_>
    <_>
      <rects>
        <_>
          5 9 3 6 -1.</_>
        <_>
          6 11 1 2 9.</_></rects>
      <tilted>0</tilted></_>
    <_>
      <rects>
        <_>
          5 11 20 2 -1.</_>
        <_>
          10 11 10 2 2.</_></rects>
      <tilted>0</tilted></_>
    <_>
      <rects>
        <_>
          5 11 20 3 -1.</_>
        <_>
          10 11 10 3 2.</_></rects>
      <tilted>0</tilted></_>
    <_>
      <rects>
        <_>
          5 12 20 3 -1.</_>
        <_>
          10 12 10 3 2.</_></rects>
      <tilted>0</tilted></_>
    <_>
      <rects>
        <_>
          5 19 4 2 -1.</_>
        <_>
          7 19 2 2 2.</_></rects>
      <tilted>0</tilted></_>
    <_>
      <rects>
        <_>
          5 27 12 3 -1.</_>
        <_>
          9 28 4 1 9.</_></rects>
      <tilted>0</tilted></_>
    <_>
      <rects>
        <_>
          5 28 12 2 -1.</_>
        <_>
          5 28 6 1 2.</_>
        <_>
          11 29 6 1 2.</_></rects>
      <tilted>0</tilted></_>
    <_>
      <rects>
        <_>
          6 9 3 3 -1.</_>
        <_>
          7 10 1 1 9.</_></rects>
      <tilted>0</tilted></_>
    <_>
      <rects>
        <_>
          6 16 6 9 -1.</_>
        <_>
          8 19 2 3 9.</_></rects>
      <tilted>0</tilted></_>
    <_>
      <rects>
        <_>
          6 17 9 6 -1.</_>
        <_>
          9 19 3 2 9.</_></rects>
      <tilted>0</tilted></_>
    <_>
      <rects>
        <_>
          6 23 2 1 -1.</_>
        <_>
          6 23 1 1 2.</_></rects>
      <tilted>1</tilted></_>
    <_>
      <rects>
        <_>
          7 3 6 10 -1.</_>
        <_>
          7 3 3 5 2.</_>
        <_>
          10 8 3 5 2.</_></rects>
      <tilted>0</tilted></_>
    <_>
      <rects>
        <_>
          7 5 7 6 -1.</_>
        <_>
          5 7 7 2 3.</_></rects>
      <tilted>1</tilted></_>
    <_>
      <rects>
        <_>
          7 12 3 12 -1.</_>
        <_>
          7 16 3 4 2.</_></rects>
      <tilted>0</tilted></_>
    <_>
      <rects>
        <_>
          7 19 2 4 -1.</_>
        <_>
          7 19 1 4 2.</_></rects>
      <tilted>1</tilted></_>
    <_>
      <rects>
        <_>
          7 19 2 4 -1.</_>
        <_>
          7 20 2 2 2.</_></rects>
      <tilted>0</tilted></_>
    <_>
      <rects>
        <_>
          7 21 4 1 -1.</_>
        <_>
          8 21 2 1 2.</_></rects>
      <tilted>0</tilted></_>
    <_>
      <rects>
        <_>
          7 22 3 3 -1.</_>
        <_>
          8 23 1 3 3.</_></rects>
      <tilted>1</tilted></_>
    <_>
      <rects>
        <_>
          7 24 3 6 -1.</_>
        <_>
          8 26 1 2 9.</_></rects>
      <tilted>0</tilted></_>
    <_>
      <rects>
        <_>
          8 7 1 2 -1.</_>
        <_>
          8 8 1 1 2.</_></rects>
      <tilted>0</tilted></_>
    <_>
      <rects>
        <_>
          8 8 2 2 -1.</_>
        <_>
          8 8 1 1 2.</_>
        <_>
          9 9 1 1 2.</_></rects>
      <tilted>0</tilted></_>
    <_>
      <rects>
        <_>
          8 25 3 2 -1.</_>
        <_>
          9 26 1 2 3.</_></rects>
      <tilted>1</tilted></_>
    <_>
      <rects>
        <_>
          8 25 10 4 -1.</_>
        <_>
          13 25 5 4 2.</_></rects>
      <tilted>0</tilted></_>
    <_>
      <rects>
        <_>
          9 5 5 9 -1.</_>
        <_>
          6 8 5 3 3.</_></rects>
      <tilted>1</tilted></_>
    <_>
      <rects>
        <_>
          9 8 4 10 -1.</_>
        <_>
          10 8 2 10 2.</_></rects>
      <tilted>0</tilted></_>
    <_>
      <rects>
        <_>
          9 18 6 3 -1.</_>
        <_>
          11 19 2 1 9.</_></rects>
      <tilted>0</tilted></_>
    <_>
      <rects>
        <_>
          9 20 6 3 -1.</_>
        <_>
          11 21 2 1 9.</_></rects>
      <tilted>0</tilted></_>
    <_>
      <rects>
        <_>
          9 29 2 1 -1.</_>
        <_>
          10 29 1 1 2.</_></rects>
      <tilted>0</tilted></_>
    <_>
      <rects>
        <_>
          10 3 15 3 -1.</_>
        <_>
          9 4 15 1 3.</_></rects>
      <tilted>1</tilted></_>
    <_>
      <rects>
        <_>
          10 7 1 3 -1.</_>
        <_>
          9 8 1 1 3.</_></rects>
      <tilted>1</tilted></_>
    <_>
      <rects>
        <_>
          10 16 1 6 -1.</_>
        <_>
          10 19 1 3 2.</_></rects>
      <tilted>0</tilted></_>
    <_>
      <rects>
        <_>
          10 19 20 1 -1.</_>
        <_>
          15 19 10 1 2.</_></rects>
      <tilted>0</tilted></_>
    <_>
      <rects>
        <_>
          10 20 3 2 -1.</_>
        <_>
          10 21 3 1 2.</_></rects>
      <tilted>0</tilted></_>
    <_>
      <rects>
        <_>
          10 27 16 2 -1.</_>
        <_>
          10 27 8 1 2.</_>
        <_>
          18 28 8 1 2.</_></rects>
      <tilted>0</tilted></_>
    <_>
      <rects>
        <_>
          11 0 7 16 -1.</_>
        <_>
          11 8 7 8 2.</_></rects>
      <tilted>0</tilted></_>
    <_>
      <rects>
        <_>
          11 15 8 1 -1.</_>
        <_>
          15 15 4 1 2.</_></rects>
      <tilted>0</tilted></_>
    <_>
      <rects>
        <_>
          11 18 6 3 -1.</_>
        <_>
          13 19 2 1 9.</_></rects>
      <tilted>0</tilted></_>
    <_>
      <rects>
        <_>
          11 26 8 2 -1.</_>
        <_>
          15 26 4 2 2.</_></rects>
      <tilted>0</tilted></_>
    <_>
      <rects>
        <_>
          12 7 18 9 -1.</_>
        <_>
          21 7 9 9 2.</_></rects>
      <tilted>0</tilted></_>
    <_>
      <rects>
        <_>
          12 23 4 1 -1.</_>
        <_>
          13 23 2 1 2.</_></rects>
      <tilted>0</tilted></_>
    <_>
      <rects>
        <_>
          12 28 12 2 -1.</_>
        <_>
          12 28 6 1 2.</_>
        <_>
          18 29 6 1 2.</_></rects>
      <tilted>0</tilted></_>
    <_>
      <rects>
        <_>
          13 5 3 10 -1.</_>
        <_>
          14 6 1 10 3.</_></rects>
      <tilted>1</tilted></_>
    <_>
      <rects>
        <_>
          13 9 6 13 -1.</_>
        <_>
          15 11 2 13 3.</_></rects>
      <tilted>1</tilted></_>
    <_>
      <rects>
        <_>
          13 12 4 1 -1.</_>
        <_>
          14 13 2 1 2.</_></rects>
      <tilted>1</tilted></_>
    <_>
      <rects>
        <_>
          13 13 2 3 -1.</_>
        <_>
          14 13 1 3 2.</_></rects>
      <tilted>0</tilted></_>
    <_>
      <rects>
        <_>
          13 16 4 5 -1.</_>
        <_>
          15 16 2 5 2.</_></rects>
      <tilted>0</tilted></_>
    <_>
      <rects>
        <_>
          13 26 14 4 -1.</_>
        <_>
          13 26 7 2 2.</_>
        <_>
          20 28 7 2 2.</_></rects>
      <tilted>0</tilted></_>
    <_>
      <rects>
        <_>
          14 1 2 9 -1.</_>
        <_>
          14 4 2 3 2.</_></rects>
      <tilted>0</tilted></_>
    <_>
      <rects>
        <_>
          14 2 8 14 -1.</_>
        <_>
          14 2 4 14 2.</_></rects>
      <tilted>1</tilted></_>
    <_>
      <rects>
        <_>
          14 12 15 18 -1.</_>
        <_>
          19 18 5 6 9.</_></rects>
      <tilted>0</tilted></_>
    <_>
      <rects>
        <_>
          14 14 4 3 -1.</_>
        <_>
          16 14 2 3 2.</_></rects>
      <tilted>0</tilted></_>
    <_>
      <rects>
        <_>
          14 18 2 2 -1.</_>
        <_>
          14 18 2 1 2.</_></rects>
      <tilted>1</tilted></_>
    <_>
      <rects>
        <_>
          14 18 2 3 -1.</_>
        <_>
          13 19 2 1 3.</_></rects>
      <tilted>1</tilted></_>
    <_>
      <rects>
        <_>
          14 23 16 6 -1.</_>
        <_>
          18 23 8 6 2.</_></rects>
      <tilted>0</tilted></_>
    <_>
      <rects>
        <_>
          15 5 8 19 -1.</_>
        <_>
          17 5 4 19 2.</_></rects>
      <tilted>0</tilted></_>
    <_>
      <rects>
        <_>
          15 11 3 1 -1.</_>
        <_>
          16 12 1 1 3.</_></rects>
      <tilted>1</tilted></_>
    <_>
      <rects>
        <_>
          15 12 1 4 -1.</_>
        <_>
          15 13 1 2 2.</_></rects>
      <tilted>0</tilted></_>
    <_>
      <rects>
        <_>
          15 12 2 4 -1.</_>
        <_>
          15 14 2 2 2.</_></rects>
      <tilted>0</tilted></_>
    <_>
      <rects>
        <_>
          15 13 3 3 -1.</_>
        <_>
          16 14 1 1 9.</_></rects>
      <tilted>0</tilted></_>
    <_>
      <rects>
        <_>
          15 16 7 6 -1.</_>
        <_>
          15 16 7 3 2.</_></rects>
      <tilted>1</tilted></_>
    <_>
      <rects>
        <_>
          15 22 2 1 -1.</_>
        <_>
          16 22 1 1 2.</_></rects>
      <tilted>0</tilted></_>
    <_>
      <rects>
        <_>
          16 4 4 7 -1.</_>
        <_>
          17 4 2 7 2.</_></rects>
      <tilted>0</tilted></_>
    <_>
      <rects>
        <_>
          16 9 6 12 -1.</_>
        <_>
          18 13 2 4 9.</_></rects>
      <tilted>0</tilted></_>
    <_>
      <rects>
        <_>
          16 12 1 2 -1.</_>
        <_>
          16 13 1 1 2.</_></rects>
      <tilted>0</tilted></_>
    <_>
      <rects>
        <_>
          16 15 2 4 -1.</_>
        <_>
          16 15 1 2 2.</_>
        <_>
          17 17 1 2 2.</_></rects>
      <tilted>0</tilted></_>
    <_>
      <rects>
        <_>
          16 25 10 4 -1.</_>
        <_>
          16 25 5 2 2.</_>
        <_>
          21 27 5 2 2.</_></rects>
      <tilted>0</tilted></_>
    <_>
      <rects>
        <_>
          17 3 3 15 -1.</_>
        <_>
          18 8 1 5 9.</_></rects>
      <tilted>0</tilted></_>
    <_>
      <rects>
        <_>
          17 19 6 1 -1.</_>
        <_>
          17 19 3 1 2.</_></rects>
      <tilted>1</tilted></_>
    <_>
      <rects>
        <_>
          18 6 9 12 -1.</_>
        <_>
          21 10 3 4 9.</_></rects>
      <tilted>0</tilted></_>
    <_>
      <rects>
        <_>
          18 14 2 1 -1.</_>
        <_>
          18 14 1 1 2.</_></rects>
      <tilted>1</tilted></_>
    <_>
      <rects>
        <_>
          19 10 7 2 -1.</_>
        <_>
          19 11 7 1 2.</_></rects>
      <tilted>0</tilted></_>
    <_>
      <rects>
        <_>
          19 11 10 18 -1.</_>
        <_>
          19 11 5 9 2.</_>
        <_>
          24 20 5 9 2.</_></rects>
      <tilted>0</tilted></_>
    <_>
      <rects>
        <_>
          20 4 3 8 -1.</_>
        <_>
          20 6 3 4 2.</_></rects>
      <tilted>0</tilted></_>
    <_>
      <rects>
        <_>
          20 9 2 2 -1.</_>
        <_>
          20 10 2 1 2.</_></rects>
      <tilted>0</tilted></_>
    <_>
      <rects>
        <_>
          20 15 6 7 -1.</_>
        <_>
          22 17 2 7 3.</_></rects>
      <tilted>1</tilted></_>
    <_>
      <rects>
        <_>
          20 24 6 4 -1.</_>
        <_>
          20 25 6 2 2.</_></rects>
      <tilted>0</tilted></_>
    <_>
      <rects>
        <_>
          21 8 3 4 -1.</_>
        <_>
          21 9 3 2 2.</_></rects>
      <tilted>0</tilted></_>
    <_>
      <rects>
        <_>
          21 9 1 4 -1.</_>
        <_>
          21 10 1 2 2.</_></rects>
      <tilted>0</tilted></_>
    <_>
      <rects>
        <_>
          21 14 9 16 -1.</_>
        <_>
          21 18 9 8 2.</_></rects>
      <tilted>0</tilted></_>
    <_>
      <rects>
        <_>
          22 5 3 3 -1.</_>
        <_>
          23 6 1 3 3.</_></rects>
      <tilted>1</tilted></_>
    <_>
      <rects>
        <_>
          22 6 8 22 -1.</_>
        <_>
          22 6 4 11 2.</_>
        <_>
          26 17 4 11 2.</_></rects>
      <tilted>0</tilted></_>
    <_>
      <rects>
        <_>
          22 8 1 4 -1.</_>
        <_>
          22 9 1 2 2.</_></rects>
      <tilted>0</tilted></_>
    <_>
      <rects>
        <_>
          22 8 3 3 -1.</_>
        <_>
          23 9 1 1 9.</_></rects>
      <tilted>0</tilted></_>
    <_>
      <rects>
        <_>
          22 8 2 4 -1.</_>
        <_>
          22 9 2 2 2.</_></rects>
      <tilted>0</tilted></_>
    <_>
      <rects>
        <_>
          22 10 8 13 -1.</_>
        <_>
          24 10 4 13 2.</_></rects>
      <tilted>0</tilted></_>
    <_>
      <rects>
        <_>
          22 20 8 8 -1.</_>
        <_>
          26 20 4 8 2.</_></rects>
      <tilted>0</tilted></_>
    <_>
      <rects>
        <_>
          22 23 1 3 -1.</_>
        <_>
          21 24 1 1 3.</_></rects>
      <tilted>1</tilted></_>
    <_>
      <rects>
        <_>
          23 15 2 14 -1.</_>
        <_>
          23 15 1 7 2.</_>
        <_>
          24 22 1 7 2.</_></rects>
      <tilted>0</tilted></_>
    <_>
      <rects>
        <_>
          24 11 3 3 -1.</_>
        <_>
          25 12 1 1 9.</_></rects>
      <tilted>0</tilted></_>
    <_>
      <rects>
        <_>
          24 13 6 2 -1.</_>
        <_>
          26 15 2 2 3.</_></rects>
      <tilted>1</tilted></_>
    <_>
      <rects>
        <_>
          24 15 6 11 -1.</_>
        <_>
          27 15 3 11 2.</_></rects>
      <tilted>0</tilted></_>
    <_>
      <rects>
        <_>
          24 18 6 8 -1.</_>
        <_>
          27 18 3 8 2.</_></rects>
      <tilted>0</tilted></_>
    <_>
      <rects>
        <_>
          25 5 2 12 -1.</_>
        <_>
          25 5 2 6 2.</_></rects>
      <tilted>1</tilted></_>
    <_>
      <rects>
        <_>
          25 7 3 12 -1.</_>
        <_>
          26 8 1 12 3.</_></rects>
      <tilted>1</tilted></_>
    <_>
      <rects>
        <_>
          25 11 3 3 -1.</_>
        <_>
          26 12 1 1 9.</_></rects>
      <tilted>0</tilted></_>
    <_>
      <rects>
        <_>
          26 1 2 10 -1.</_>
        <_>
          26 1 1 5 2.</_>
        <_>
          27 6 1 5 2.</_></rects>
      <tilted>0</tilted></_>
    <_>
      <rects>
        <_>
          26 7 2 3 -1.</_>
        <_>
          25 8 2 1 3.</_></rects>
      <tilted>1</tilted></_>
    <_>
      <rects>
        <_>
          26 20 1 2 -1.</_>
        <_>
          26 20 1 1 2.</_></rects>
      <tilted>1</tilted></_>
    <_>
      <rects>
        <_>
          27 4 3 4 -1.</_>
        <_>
          26 5 3 2 2.</_></rects>
      <tilted>1</tilted></_></features></cascade>
</opencv_storage>
