<?xml version="1.0"?>
<opencv_storage>
<cascade>
  <stageType>BOOST</stageType>
  <featureType>HAAR</featureType>
  <height>30</height>
  <width>30</width>
  <stageParams>
    <boostType>GAB</boostType>
    <minHitRate>9.9900001287460327e-01</minHitRate>
    <maxFalseAlarm>3.0000001192092896e-01</maxFalseAlarm>
    <weightTrimRate>9.4999999999999996e-01</weightTrimRate>
    <maxDepth>1</maxDepth>
    <maxWeakCount>100</maxWeakCount></stageParams>
  <featureParams>
    <maxCatCount>0</maxCatCount>
    <featSize>1</featSize>
    <mode>ALL</mode></featureParams>
  <stageNum>17</stageNum>
  <stages>
    <!-- stage 0 -->
    <_>
      <maxWeakCount>8</maxWeakCount>
      <stageThreshold>-1.2169464826583862e+00</stageThreshold>
      <weakClassifiers>
        <_>
          <internalNodes>
            0 -1 3 3.8340532779693604e-01</internalNodes>
          <leafValues>
            -8.2870370149612427e-01 4.9541285634040833e-01</leafValues></_>
        <_>
          <internalNodes>
            0 -1 171 -2.2174442186951637e-02</internalNodes>
          <leafValues>
            6.0667878389358521e-01 -6.6153907775878906e-01</leafValues></_>
        <_>
          <internalNodes>
            0 -1 15 7.4140299111604691e-03</internalNodes>
          <leafValues>
            -6.4585363864898682e-01 4.8958376049995422e-01</leafValues></_>
        <_>
          <internalNodes>
            0 -1 119 5.1158462883904576e-04</internalNodes>
          <leafValues>
            3.3197858929634094e-01 -8.2755470275878906e-01</leafValues></_>
        <_>
          <internalNodes>
            0 -1 73 1.0697493329644203e-02</internalNodes>
          <leafValues>
            -3.8557398319244385e-01 7.8437185287475586e-01</leafValues></_>
        <_>
          <internalNodes>
            0 -1 105 -7.9385703429579735e-05</internalNodes>
          <leafValues>
            -8.7588143348693848e-01 3.5048344731330872e-01</leafValues></_>
        <_>
          <internalNodes>
            0 -1 94 -1.4072863850742579e-03</internalNodes>
          <leafValues>
            -9.0765774250030518e-01 2.5979599356651306e-01</leafValues></_>
        <_>
          <internalNodes>
            0 -1 177 -2.1062577143311501e-03</internalNodes>
          <leafValues>
            3.8656181097030640e-01 -7.1234196424484253e-01</leafValues></_></weakClassifiers></_>
    <!-- stage 1 -->
    <_>
      <maxWeakCount>8</maxWeakCount>
      <stageThreshold>-1.5817586183547974e+00</stageThreshold>
      <weakClassifiers>
        <_>
          <internalNodes>
            0 -1 44 -3.2539865374565125e-01</internalNodes>
          <leafValues>
            -8.5945945978164673e-01 2.4285714328289032e-01</leafValues></_>
        <_>
          <internalNodes>
            0 -1 4 3.4396097064018250e-02</internalNodes>
          <leafValues>
            -5.1983863115310669e-01 6.2525051832199097e-01</leafValues></_>
        <_>
          <internalNodes>
            0 -1 93 -7.8995799412950873e-05</internalNodes>
          <leafValues>
            -8.3139115571975708e-01 3.3285078406333923e-01</leafValues></_>
        <_>
          <internalNodes>
            0 -1 189 -2.0609088242053986e-02</internalNodes>
          <leafValues>
            5.2294594049453735e-01 -4.7309330105781555e-01</leafValues></_>
        <_>
          <internalNodes>
            0 -1 134 4.3751912016887218e-05</internalNodes>
          <leafValues>
            4.3161809444427490e-01 -7.2828292846679688e-01</leafValues></_>
        <_>
          <internalNodes>
            0 -1 123 -3.0688242986798286e-05</internalNodes>
          <leafValues>
            -7.4782609939575195e-01 3.4089389443397522e-01</leafValues></_>
        <_>
          <internalNodes>
            0 -1 2 5.2812911570072174e-02</internalNodes>
          <leafValues>
            -3.6165124177932739e-01 8.1625795364379883e-01</leafValues></_>
        <_>
          <internalNodes>
            0 -1 121 6.1721666716039181e-03</internalNodes>
          <leafValues>
            -4.7307872772216797e-01 5.7150417566299438e-01</leafValues></_></weakClassifiers></_>
    <!-- stage 2 -->
    <_>
      <maxWeakCount>7</maxWeakCount>
      <stageThreshold>-8.7384575605392456e-01</stageThreshold>
      <weakClassifiers>
        <_>
          <internalNodes>
            0 -1 7 -2.6931151747703552e-01</internalNodes>
          <leafValues>
            -8.6982250213623047e-01 1.4102564752101898e-01</leafValues></_>
        <_>
          <internalNodes>
            0 -1 28 3.2403767108917236e-02</internalNodes>
          <leafValues>
            -6.2695455551147461e-01 4.4532194733619690e-01</leafValues></_>
        <_>
          <internalNodes>
            0 -1 182 6.2872413545846939e-03</internalNodes>
          <leafValues>
            -3.4640854597091675e-01 6.8885958194732666e-01</leafValues></_>
        <_>
          <internalNodes>
            0 -1 124 -1.2222747318446636e-04</internalNodes>
          <leafValues>
            -6.9458556175231934e-01 3.5137504339218140e-01</leafValues></_>
        <_>
          <internalNodes>
            0 -1 41 4.4048659503459930e-02</internalNodes>
          <leafValues>
            2.7628287672996521e-01 -8.5316663980484009e-01</leafValues></_>
        <_>
          <internalNodes>
            0 -1 97 -1.8224697560071945e-02</internalNodes>
          <leafValues>
            -9.3983507156372070e-01 2.3652480542659760e-01</leafValues></_>
        <_>
          <internalNodes>
            0 -1 106 -4.8452915507368743e-05</internalNodes>
          <leafValues>
            -7.7336478233337402e-01 2.2375848889350891e-01</leafValues></_></weakClassifiers></_>
    <!-- stage 3 -->
    <_>
      <maxWeakCount>6</maxWeakCount>
      <stageThreshold>-8.0568170547485352e-01</stageThreshold>
      <weakClassifiers>
        <_>
          <internalNodes>
            0 -1 64 -9.0697631239891052e-02</internalNodes>
          <leafValues>
            -7.3305082321166992e-01 5.3932583332061768e-01</leafValues></_>
        <_>
          <internalNodes>
            0 -1 149 -1.3869583606719971e-02</internalNodes>
          <leafValues>
            -9.3086677789688110e-01 1.5756741166114807e-01</leafValues></_>
        <_>
          <internalNodes>
            0 -1 132 -2.2964300587773323e-03</internalNodes>
          <leafValues>
            4.4966521859169006e-01 -5.7316303253173828e-01</leafValues></_>
        <_>
          <internalNodes>
            0 -1 183 3.0401281546801329e-03</internalNodes>
          <leafValues>
            -2.6966696977615356e-01 8.8452321290969849e-01</leafValues></_>
        <_>
          <internalNodes>
            0 -1 16 1.8025814788416028e-03</internalNodes>
          <leafValues>
            -6.8418633937835693e-01 3.5743334889411926e-01</leafValues></_>
        <_>
          <internalNodes>
            0 -1 140 -1.1841642844956368e-04</internalNodes>
          <leafValues>
            -7.6762992143630981e-01 2.9196175932884216e-01</leafValues></_></weakClassifiers></_>
    <!-- stage 4 -->
    <_>
      <maxWeakCount>9</maxWeakCount>
      <stageThreshold>-9.6668380498886108e-01</stageThreshold>
      <weakClassifiers>
        <_>
          <internalNodes>
            0 -1 37 -1.5795916318893433e-02</internalNodes>
          <leafValues>
            7.3109245300292969e-01 -6.3465160131454468e-01</leafValues></_>
        <_>
          <internalNodes>
            0 -1 117 9.3734031543135643e-03</internalNodes>
          <leafValues>
            -5.8935594558715820e-01 3.9725914597511292e-01</leafValues></_>
        <_>
          <internalNodes>
            0 -1 69 1.3062197249382734e-03</internalNodes>
          <leafValues>
            -3.9636406302452087e-01 5.6273454427719116e-01</leafValues></_>
        <_>
          <internalNodes>
            0 -1 103 5.8721919776871800e-04</internalNodes>
          <leafValues>
            -3.4862440824508667e-01 6.1938989162445068e-01</leafValues></_>
        <_>
          <internalNodes>
            0 -1 174 1.5853527933359146e-02</internalNodes>
          <leafValues>
            -3.1248086690902710e-01 6.9485747814178467e-01</leafValues></_>
        <_>
          <internalNodes>
            0 -1 6 3.8233395665884018e-02</internalNodes>
          <leafValues>
            -6.9034123420715332e-01 3.5371187329292297e-01</leafValues></_>
        <_>
          <internalNodes>
            0 -1 43 3.8633146323263645e-03</internalNodes>
          <leafValues>
            -3.4706363081932068e-01 6.2632286548614502e-01</leafValues></_>
        <_>
          <internalNodes>
            0 -1 80 4.9855331890285015e-03</internalNodes>
          <leafValues>
            -2.4831736087799072e-01 7.7908903360366821e-01</leafValues></_>
        <_>
          <internalNodes>
            0 -1 22 2.5183553807437420e-03</internalNodes>
          <leafValues>
            -3.1858485937118530e-01 8.3214408159255981e-01</leafValues></_></weakClassifiers></_>
    <!-- stage 5 -->
    <_>
      <maxWeakCount>8</maxWeakCount>
      <stageThreshold>-7.1495240926742554e-01</stageThreshold>
      <weakClassifiers>
        <_>
          <internalNodes>
            0 -1 56 3.6727845668792725e-02</internalNodes>
          <leafValues>
            -5.6766253709793091e-01 9.0123456716537476e-01</leafValues></_>
        <_>
          <internalNodes>
            0 -1 70 1.4042542316019535e-02</internalNodes>
          <leafValues>
            -7.8807586431503296e-01 3.1830647587776184e-01</leafValues></_>
        <_>
          <internalNodes>
            0 -1 26 -6.1208635568618774e-02</internalNodes>
          <leafValues>
            -7.4055624008178711e-01 2.3022828996181488e-01</leafValues></_>
        <_>
          <internalNodes>
            0 -1 31 8.0792582593858242e-04</internalNodes>
          <leafValues>
            -5.4417294263839722e-01 4.0063628554344177e-01</leafValues></_>
        <_>
          <internalNodes>
            0 -1 13 3.5264291800558567e-03</internalNodes>
          <leafValues>
            -3.8379815220832825e-01 5.7352983951568604e-01</leafValues></_>
        <_>
          <internalNodes>
            0 -1 99 -5.4512587375938892e-03</internalNodes>
          <leafValues>
            4.1078805923461914e-01 -4.5377063751220703e-01</leafValues></_>
        <_>
          <internalNodes>
            0 -1 87 -1.2989412061870098e-04</internalNodes>
          <leafValues>
            -6.1230403184890747e-01 3.1082552671432495e-01</leafValues></_>
        <_>
          <internalNodes>
            0 -1 51 1.0501773795112967e-03</internalNodes>
          <leafValues>
            -3.2789391279220581e-01 6.7356222867965698e-01</leafValues></_></weakClassifiers></_>
    <!-- stage 6 -->
    <_>
      <maxWeakCount>9</maxWeakCount>
      <stageThreshold>-7.3354125022888184e-01</stageThreshold>
      <weakClassifiers>
        <_>
          <internalNodes>
            0 -1 158 -8.0721098929643631e-03</internalNodes>
          <leafValues>
            5.7575756311416626e-01 -5.5716878175735474e-01</leafValues></_>
        <_>
          <internalNodes>
            0 -1 90 2.5752470828592777e-03</internalNodes>
          <leafValues>
            -7.0765733718872070e-01 1.9644506275653839e-01</leafValues></_>
        <_>
          <internalNodes>
            0 -1 54 6.5131596056744456e-04</internalNodes>
          <leafValues>
            -2.6402226090431213e-01 6.5131956338882446e-01</leafValues></_>
        <_>
          <internalNodes>
            0 -1 45 2.7892768848687410e-03</internalNodes>
          <leafValues>
            -2.4851082265377045e-01 7.6115411520004272e-01</leafValues></_>
        <_>
          <internalNodes>
            0 -1 108 -7.2417629417032003e-04</internalNodes>
          <leafValues>
            -7.4890238046646118e-01 2.6763957738876343e-01</leafValues></_>
        <_>
          <internalNodes>
            0 -1 96 2.4123427283484489e-04</internalNodes>
          <leafValues>
            3.0849069356918335e-01 -7.5204908847808838e-01</leafValues></_>
        <_>
          <internalNodes>
            0 -1 21 6.6363206133246422e-03</internalNodes>
          <leafValues>
            -2.8320428729057312e-01 6.7628026008605957e-01</leafValues></_>
        <_>
          <internalNodes>
            0 -1 19 -7.1774832904338837e-03</internalNodes>
          <leafValues>
            7.5166970491409302e-01 -2.5349476933479309e-01</leafValues></_>
        <_>
          <internalNodes>
            0 -1 129 -8.5152301471680403e-04</internalNodes>
          <leafValues>
            -7.9582619667053223e-01 2.4548226594924927e-01</leafValues></_></weakClassifiers></_>
    <!-- stage 7 -->
    <_>
      <maxWeakCount>10</maxWeakCount>
      <stageThreshold>-1.3581258058547974e+00</stageThreshold>
      <weakClassifiers>
        <_>
          <internalNodes>
            0 -1 56 4.1993808001279831e-02</internalNodes>
          <leafValues>
            -5.2595156431198120e-01 7.5000000000000000e-01</leafValues></_>
        <_>
          <internalNodes>
            0 -1 115 -3.9144528273027390e-05</internalNodes>
          <leafValues>
            -6.9736355543136597e-01 2.3547042906284332e-01</leafValues></_>
        <_>
          <internalNodes>
            0 -1 49 1.6485053300857544e-01</internalNodes>
          <leafValues>
            -4.3365314602851868e-01 4.3183526396751404e-01</leafValues></_>
        <_>
          <internalNodes>
            0 -1 75 -6.7720934748649597e-04</internalNodes>
          <leafValues>
            -8.4669625759124756e-01 2.2612883150577545e-01</leafValues></_>
        <_>
          <internalNodes>
            0 -1 17 2.2311508655548096e-02</internalNodes>
          <leafValues>
            -3.4179404377937317e-01 5.3095161914825439e-01</leafValues></_>
        <_>
          <internalNodes>
            0 -1 130 -8.1566115841269493e-04</internalNodes>
          <leafValues>
            -6.6544610261917114e-01 2.7533823251724243e-01</leafValues></_>
        <_>
          <internalNodes>
            0 -1 203 -7.7008368680253625e-04</internalNodes>
          <leafValues>
            -8.8801157474517822e-01 1.8115347623825073e-01</leafValues></_>
        <_>
          <internalNodes>
            0 -1 86 -9.0601254487410188e-04</internalNodes>
          <leafValues>
            -7.2032469511032104e-01 1.9927617907524109e-01</leafValues></_>
        <_>
          <internalNodes>
            0 -1 187 -3.2752142287790775e-03</internalNodes>
          <leafValues>
            4.7576576471328735e-01 -3.8743895292282104e-01</leafValues></_>
        <_>
          <internalNodes>
            0 -1 125 -3.3454727963544428e-04</internalNodes>
          <leafValues>
            -8.2765465974807739e-01 2.0029120147228241e-01</leafValues></_></weakClassifiers></_>
    <!-- stage 8 -->
    <_>
      <maxWeakCount>14</maxWeakCount>
      <stageThreshold>-1.5045288801193237e+00</stageThreshold>
      <weakClassifiers>
        <_>
          <internalNodes>
            0 -1 101 6.8520754575729370e-02</internalNodes>
          <leafValues>
            -6.0808080434799194e-01 3.2903227210044861e-01</leafValues></_>
        <_>
          <internalNodes>
            0 -1 66 2.6361439377069473e-03</internalNodes>
          <leafValues>
            1.4309184253215790e-01 -7.9607212543487549e-01</leafValues></_>
        <_>
          <internalNodes>
            0 -1 139 2.2188484668731689e-02</internalNodes>
          <leafValues>
            -4.7855097055435181e-01 3.1349250674247742e-01</leafValues></_>
        <_>
          <internalNodes>
            0 -1 111 2.2994700819253922e-02</internalNodes>
          <leafValues>
            -3.5955920815467834e-01 4.3309968709945679e-01</leafValues></_>
        <_>
          <internalNodes>
            0 -1 191 -2.4151732213795185e-03</internalNodes>
          <leafValues>
            3.0480781197547913e-01 -4.5762452483177185e-01</leafValues></_>
        <_>
          <internalNodes>
            0 -1 88 5.4185942281037569e-04</internalNodes>
          <leafValues>
            -2.6249489188194275e-01 5.7416272163391113e-01</leafValues></_>
        <_>
          <internalNodes>
            0 -1 180 9.5220701768994331e-04</internalNodes>
          <leafValues>
            1.8783436715602875e-01 -7.7187395095825195e-01</leafValues></_>
        <_>
          <internalNodes>
            0 -1 109 -2.8256024961592630e-05</internalNodes>
          <leafValues>
            -5.1686394214630127e-01 2.6030302047729492e-01</leafValues></_>
        <_>
          <internalNodes>
            0 -1 179 1.5394829097203910e-04</internalNodes>
          <leafValues>
            -2.5699728727340698e-01 6.0553187131881714e-01</leafValues></_>
        <_>
          <internalNodes>
            0 -1 173 3.4264510031789541e-04</internalNodes>
          <leafValues>
            -2.2555214166641235e-01 6.4693546295166016e-01</leafValues></_>
        <_>
          <internalNodes>
            0 -1 71 -1.8405411392450333e-02</internalNodes>
          <leafValues>
            4.4006365537643433e-01 -3.4212774038314819e-01</leafValues></_>
        <_>
          <internalNodes>
            0 -1 168 2.9649254865944386e-03</internalNodes>
          <leafValues>
            -1.8621444702148438e-01 7.3778080940246582e-01</leafValues></_>
        <_>
          <internalNodes>
            0 -1 206 2.3312456905841827e-03</internalNodes>
          <leafValues>
            -1.9225423038005829e-01 6.5746754407882690e-01</leafValues></_>
        <_>
          <internalNodes>
            0 -1 112 1.3778638094663620e-03</internalNodes>
          <leafValues>
            -4.4851115345954895e-01 3.4135037660598755e-01</leafValues></_></weakClassifiers></_>
    <!-- stage 9 -->
    <_>
      <maxWeakCount>15</maxWeakCount>
      <stageThreshold>-1.0081677436828613e+00</stageThreshold>
      <weakClassifiers>
        <_>
          <internalNodes>
            0 -1 63 -8.7030651047825813e-03</internalNodes>
          <leafValues>
            7.9166668653488159e-01 -4.7840532660484314e-01</leafValues></_>
        <_>
          <internalNodes>
            0 -1 76 -1.2072280049324036e-01</internalNodes>
          <leafValues>
            1.2518893182277679e-01 -8.7264531850814819e-01</leafValues></_>
        <_>
          <internalNodes>
            0 -1 150 -4.8749803681857884e-05</internalNodes>
          <leafValues>
            -6.2746053934097290e-01 2.2716149687767029e-01</leafValues></_>
        <_>
          <internalNodes>
            0 -1 30 9.7416285425424576e-03</internalNodes>
          <leafValues>
            -4.1336271166801453e-01 3.5774171352386475e-01</leafValues></_>
        <_>
          <internalNodes>
            0 -1 175 -1.0169479064643383e-03</internalNodes>
          <leafValues>
            2.1151210367679596e-01 -6.9745397567749023e-01</leafValues></_>
        <_>
          <internalNodes>
            0 -1 136 4.8822585085872561e-05</internalNodes>
          <leafValues>
            2.2083467245101929e-01 -5.9483832120895386e-01</leafValues></_>
        <_>
          <internalNodes>
            0 -1 82 -5.8223437517881393e-03</internalNodes>
          <leafValues>
            7.5867885351181030e-01 -1.7235451936721802e-01</leafValues></_>
        <_>
          <internalNodes>
            0 -1 141 -2.7010485064238310e-04</internalNodes>
          <leafValues>
            -7.3292279243469238e-01 2.2299714386463165e-01</leafValues></_>
        <_>
          <internalNodes>
            0 -1 167 -3.9466662565246224e-04</internalNodes>
          <leafValues>
            6.2171107530593872e-01 -2.5858762860298157e-01</leafValues></_>
        <_>
          <internalNodes>
            0 -1 107 2.7090213261544704e-03</internalNodes>
          <leafValues>
            2.7434107661247253e-01 -5.2181529998779297e-01</leafValues></_>
        <_>
          <internalNodes>
            0 -1 24 -7.1336928522214293e-04</internalNodes>
          <leafValues>
            5.8008539676666260e-01 -2.2957442700862885e-01</leafValues></_>
        <_>
          <internalNodes>
            0 -1 91 -7.3454284574836493e-05</internalNodes>
          <leafValues>
            -6.0436373949050903e-01 2.2862491011619568e-01</leafValues></_>
        <_>
          <internalNodes>
            0 -1 181 4.0532355196774006e-03</internalNodes>
          <leafValues>
            -2.9487895965576172e-01 4.9651983380317688e-01</leafValues></_>
        <_>
          <internalNodes>
            0 -1 160 -9.9534797482192516e-04</internalNodes>
          <leafValues>
            -5.5771279335021973e-01 2.6541978120803833e-01</leafValues></_>
        <_>
          <internalNodes>
            0 -1 178 1.4174308162182570e-03</internalNodes>
          <leafValues>
            1.6810502111911774e-01 -7.9382705688476563e-01</leafValues></_></weakClassifiers></_>
    <!-- stage 10 -->
    <_>
      <maxWeakCount>17</maxWeakCount>
      <stageThreshold>-1.0128898620605469e+00</stageThreshold>
      <weakClassifiers>
        <_>
          <internalNodes>
            0 -1 62 7.5772598385810852e-02</internalNodes>
          <leafValues>
            -5.0694441795349121e-01 5.6756758689880371e-01</leafValues></_>
        <_>
          <internalNodes>
            0 -1 127 -4.7650948166847229e-02</internalNodes>
          <leafValues>
            3.0971047282218933e-01 -4.3403545022010803e-01</leafValues></_>
        <_>
          <internalNodes>
            0 -1 151 2.6695330234360881e-05</internalNodes>
          <leafValues>
            1.7916937172412872e-01 -6.4015394449234009e-01</leafValues></_>
        <_>
          <internalNodes>
            0 -1 205 -9.6839815378189087e-03</internalNodes>
          <leafValues>
            6.9311809539794922e-01 -1.7456200718879700e-01</leafValues></_>
        <_>
          <internalNodes>
            0 -1 33 6.8121531512588263e-04</internalNodes>
          <leafValues>
            -5.1686573028564453e-01 2.6677778363227844e-01</leafValues></_>
        <_>
          <internalNodes>
            0 -1 198 -4.3332483619451523e-03</internalNodes>
          <leafValues>
            7.2089278697967529e-01 -1.9769804179668427e-01</leafValues></_>
        <_>
          <internalNodes>
            0 -1 156 2.5340258143842220e-03</internalNodes>
          <leafValues>
            -2.2109599411487579e-01 5.7682585716247559e-01</leafValues></_>
        <_>
          <internalNodes>
            0 -1 72 4.3138401815667748e-04</internalNodes>
          <leafValues>
            -1.8202583491802216e-01 6.2111449241638184e-01</leafValues></_>
        <_>
          <internalNodes>
            0 -1 131 -2.8141381335444748e-05</internalNodes>
          <leafValues>
            -4.4754552841186523e-01 2.6933673024177551e-01</leafValues></_>
        <_>
          <internalNodes>
            0 -1 154 -5.0554256886243820e-03</internalNodes>
          <leafValues>
            5.4848968982696533e-01 -2.4523466825485229e-01</leafValues></_>
        <_>
          <internalNodes>
            0 -1 84 1.2778525706380606e-04</internalNodes>
          <leafValues>
            -2.6252061128616333e-01 3.7931838631629944e-01</leafValues></_>
        <_>
          <internalNodes>
            0 -1 197 1.8201223574578762e-03</internalNodes>
          <leafValues>
            -1.6808722913265228e-01 6.2130790948867798e-01</leafValues></_>
        <_>
          <internalNodes>
            0 -1 79 6.1928997747600079e-03</internalNodes>
          <leafValues>
            -3.2973185181617737e-01 3.6064648628234863e-01</leafValues></_>
        <_>
          <internalNodes>
            0 -1 48 -3.5446122637949884e-05</internalNodes>
          <leafValues>
            -5.4888725280761719e-01 2.1282081305980682e-01</leafValues></_>
        <_>
          <internalNodes>
            0 -1 120 -1.1275045108050108e-03</internalNodes>
          <leafValues>
            -8.1367933750152588e-01 1.3989903032779694e-01</leafValues></_>
        <_>
          <internalNodes>
            0 -1 74 -4.5227975351735950e-04</internalNodes>
          <leafValues>
            4.5453777909278870e-01 -2.6964777708053589e-01</leafValues></_>
        <_>
          <internalNodes>
            0 -1 118 -1.5162106137722731e-03</internalNodes>
          <leafValues>
            3.4579828381538391e-01 -3.3175987005233765e-01</leafValues></_></weakClassifiers></_>
    <!-- stage 11 -->
    <_>
      <maxWeakCount>18</maxWeakCount>
      <stageThreshold>-7.4964427947998047e-01</stageThreshold>
      <weakClassifiers>
        <_>
          <internalNodes>
            0 -1 55 9.0968877077102661e-02</internalNodes>
          <leafValues>
            -5.0976908206939697e-01 4.2528736591339111e-01</leafValues></_>
        <_>
          <internalNodes>
            0 -1 92 -3.9387907600030303e-04</internalNodes>
          <leafValues>
            -7.2587788105010986e-01 1.1382777988910675e-01</leafValues></_>
        <_>
          <internalNodes>
            0 -1 39 -2.9901764355599880e-04</internalNodes>
          <leafValues>
            2.3219965398311615e-01 -4.6225541830062866e-01</leafValues></_>
        <_>
          <internalNodes>
            0 -1 152 -1.0884396033361554e-04</internalNodes>
          <leafValues>
            -5.0612807273864746e-01 2.2250467538833618e-01</leafValues></_>
        <_>
          <internalNodes>
            0 -1 98 -2.8819078579545021e-04</internalNodes>
          <leafValues>
            3.2108268141746521e-01 -3.3982822299003601e-01</leafValues></_>
        <_>
          <internalNodes>
            0 -1 46 1.8677494954317808e-03</internalNodes>
          <leafValues>
            1.3802343606948853e-01 -6.8789649009704590e-01</leafValues></_>
        <_>
          <internalNodes>
            0 -1 85 1.7747388919815421e-03</internalNodes>
          <leafValues>
            -2.5423577427864075e-01 4.1795220971107483e-01</leafValues></_>
        <_>
          <internalNodes>
            0 -1 52 1.8654564395546913e-02</internalNodes>
          <leafValues>
            -1.6634240746498108e-01 7.1502017974853516e-01</leafValues></_>
        <_>
          <internalNodes>
            0 -1 34 2.7193822897970676e-03</internalNodes>
          <leafValues>
            -2.3949806392192841e-01 4.4398319721221924e-01</leafValues></_>
        <_>
          <internalNodes>
            0 -1 113 -2.8045091312378645e-05</internalNodes>
          <leafValues>
            -4.9048069119453430e-01 2.5301343202590942e-01</leafValues></_>
        <_>
          <internalNodes>
            0 -1 60 -3.6464985460042953e-02</internalNodes>
          <leafValues>
            8.6170029640197754e-01 -1.5395934879779816e-01</leafValues></_>
        <_>
          <internalNodes>
            0 -1 164 -3.3460542908869684e-04</internalNodes>
          <leafValues>
            2.9590660333633423e-01 -4.4239217042922974e-01</leafValues></_>
        <_>
          <internalNodes>
            0 -1 169 3.4660222008824348e-03</internalNodes>
          <leafValues>
            -5.5144977569580078e-01 2.1203422546386719e-01</leafValues></_>
        <_>
          <internalNodes>
            0 -1 53 1.1569939088076353e-03</internalNodes>
          <leafValues>
            -2.7217549085617065e-01 4.3496701121330261e-01</leafValues></_>
        <_>
          <internalNodes>
            0 -1 142 7.6432610512711108e-05</internalNodes>
          <leafValues>
            1.9738203287124634e-01 -6.8079543113708496e-01</leafValues></_>
        <_>
          <internalNodes>
            0 -1 61 -2.8333254158496857e-02</internalNodes>
          <leafValues>
            6.1277264356613159e-01 -2.1466167271137238e-01</leafValues></_>
        <_>
          <internalNodes>
            0 -1 194 1.4433395699597895e-04</internalNodes>
          <leafValues>
            2.2055463492870331e-01 -6.4910292625427246e-01</leafValues></_>
        <_>
          <internalNodes>
            0 -1 193 3.7360412534326315e-03</internalNodes>
          <leafValues>
            -2.4199959635734558e-01 5.5928570032119751e-01</leafValues></_></weakClassifiers></_>
    <!-- stage 12 -->
    <_>
      <maxWeakCount>15</maxWeakCount>
      <stageThreshold>-1.0368274450302124e+00</stageThreshold>
      <weakClassifiers>
        <_>
          <internalNodes>
            0 -1 29 5.5129863321781158e-03</internalNodes>
          <leafValues>
            -5.0268334150314331e-01 3.4065935015678406e-01</leafValues></_>
        <_>
          <internalNodes>
            0 -1 12 9.1355224139988422e-04</internalNodes>
          <leafValues>
            -2.5525569915771484e-01 4.3533480167388916e-01</leafValues></_>
        <_>
          <internalNodes>
            0 -1 142 -4.5056614908389747e-05</internalNodes>
          <leafValues>
            -6.0887497663497925e-01 1.6750031709671021e-01</leafValues></_>
        <_>
          <internalNodes>
            0 -1 10 3.1574156600981951e-03</internalNodes>
          <leafValues>
            -1.8233248591423035e-01 5.6529170274734497e-01</leafValues></_>
        <_>
          <internalNodes>
            0 -1 192 2.2564586251974106e-03</internalNodes>
          <leafValues>
            1.7054125666618347e-01 -8.3986365795135498e-01</leafValues></_>
        <_>
          <internalNodes>
            0 -1 170 -2.9820140451192856e-02</internalNodes>
          <leafValues>
            3.4753823280334473e-01 -3.3956548571586609e-01</leafValues></_>
        <_>
          <internalNodes>
            0 -1 100 4.9822749570012093e-03</internalNodes>
          <leafValues>
            -6.7345333099365234e-01 1.3815258443355560e-01</leafValues></_>
        <_>
          <internalNodes>
            0 -1 67 2.4776090867817402e-03</internalNodes>
          <leafValues>
            1.2143455445766449e-01 -8.2648932933807373e-01</leafValues></_>
        <_>
          <internalNodes>
            0 -1 65 -8.7505788542330265e-04</internalNodes>
          <leafValues>
            3.2637247443199158e-01 -3.3217075467109680e-01</leafValues></_>
        <_>
          <internalNodes>
            0 -1 35 4.5199505984783173e-02</internalNodes>
          <leafValues>
            1.7951029539108276e-01 -6.2308102846145630e-01</leafValues></_>
        <_>
          <internalNodes>
            0 -1 23 -3.6938488483428955e-02</internalNodes>
          <leafValues>
            -5.5685693025588989e-01 1.7404244840145111e-01</leafValues></_>
        <_>
          <internalNodes>
            0 -1 89 2.0121078938245773e-02</internalNodes>
          <leafValues>
            -2.0340313017368317e-01 6.2737506628036499e-01</leafValues></_>
        <_>
          <internalNodes>
            0 -1 116 1.2450091890059412e-04</internalNodes>
          <leafValues>
            -3.0247583985328674e-01 3.5469478368759155e-01</leafValues></_>
        <_>
          <internalNodes>
            0 -1 114 2.4467581170029007e-05</internalNodes>
          <leafValues>
            1.7535643279552460e-01 -6.3707166910171509e-01</leafValues></_>
        <_>
          <internalNodes>
            0 -1 18 7.1033835411071777e-04</internalNodes>
          <leafValues>
            -3.8395318388938904e-01 3.0150735378265381e-01</leafValues></_></weakClassifiers></_>
    <!-- stage 13 -->
    <_>
      <maxWeakCount>15</maxWeakCount>
      <stageThreshold>-9.4299507141113281e-01</stageThreshold>
      <weakClassifiers>
        <_>
          <internalNodes>
            0 -1 172 4.1612088680267334e-03</internalNodes>
          <leafValues>
            -4.9562171101570129e-01 4.1772150993347168e-01</leafValues></_>
        <_>
          <internalNodes>
            0 -1 162 3.6988456849940121e-04</internalNodes>
          <leafValues>
            -3.8274413347244263e-01 2.2819311916828156e-01</leafValues></_>
        <_>
          <internalNodes>
            0 -1 122 -5.9599336236715317e-04</internalNodes>
          <leafValues>
            -7.4999934434890747e-01 1.1355724185705185e-01</leafValues></_>
        <_>
          <internalNodes>
            0 -1 95 -7.9616513103246689e-03</internalNodes>
          <leafValues>
            -8.0923306941986084e-01 1.1687549203634262e-01</leafValues></_>
        <_>
          <internalNodes>
            0 -1 59 6.3978601247072220e-03</internalNodes>
          <leafValues>
            -1.9059325754642487e-01 5.8801138401031494e-01</leafValues></_>
        <_>
          <internalNodes>
            0 -1 81 -4.3463066220283508e-02</internalNodes>
          <leafValues>
            6.1460071802139282e-01 -1.5238197147846222e-01</leafValues></_>
        <_>
          <internalNodes>
            0 -1 32 1.1741524562239647e-02</internalNodes>
          <leafValues>
            1.5576231479644775e-01 -7.6260417699813843e-01</leafValues></_>
        <_>
          <internalNodes>
            0 -1 38 1.3149708975106478e-03</internalNodes>
          <leafValues>
            -2.2379678487777710e-01 4.8679426312446594e-01</leafValues></_>
        <_>
          <internalNodes>
            0 -1 195 1.3810130767524242e-03</internalNodes>
          <leafValues>
            1.5574082732200623e-01 -6.4647394418716431e-01</leafValues></_>
        <_>
          <internalNodes>
            0 -1 184 1.2707357294857502e-02</internalNodes>
          <leafValues>
            -1.3114707171916962e-01 8.2652652263641357e-01</leafValues></_>
        <_>
          <internalNodes>
            0 -1 51 2.0410777069628239e-03</internalNodes>
          <leafValues>
            -1.6146568953990936e-01 6.2260293960571289e-01</leafValues></_>
        <_>
          <internalNodes>
            0 -1 50 4.9049444496631622e-03</internalNodes>
          <leafValues>
            -1.3927930593490601e-01 7.0154881477355957e-01</leafValues></_>
        <_>
          <internalNodes>
            0 -1 207 3.3211585832759738e-04</internalNodes>
          <leafValues>
            1.4609156548976898e-01 -8.0036371946334839e-01</leafValues></_>
        <_>
          <internalNodes>
            0 -1 14 1.3134717009961605e-03</internalNodes>
          <leafValues>
            -4.9177774786949158e-01 2.0129896700382233e-01</leafValues></_>
        <_>
          <internalNodes>
            0 -1 57 4.6068437397480011e-02</internalNodes>
          <leafValues>
            -4.0018683671951294e-01 2.5248390436172485e-01</leafValues></_></weakClassifiers></_>
    <!-- stage 14 -->
    <_>
      <maxWeakCount>17</maxWeakCount>
      <stageThreshold>-1.1204556226730347e+00</stageThreshold>
      <weakClassifiers>
        <_>
          <internalNodes>
            0 -1 153 -7.3873717337846756e-03</internalNodes>
          <leafValues>
            4.0845069289207458e-01 -4.8186528682708740e-01</leafValues></_>
        <_>
          <internalNodes>
            0 -1 176 -2.1576861036010087e-04</internalNodes>
          <leafValues>
            1.3891008496284485e-01 -5.5724525451660156e-01</leafValues></_>
        <_>
          <internalNodes>
            0 -1 143 7.8912007666076533e-06</internalNodes>
          <leafValues>
            1.9685120880603790e-01 -3.8876172900199890e-01</leafValues></_>
        <_>
          <internalNodes>
            0 -1 104 -1.3430078979581594e-03</internalNodes>
          <leafValues>
            -6.9209742546081543e-01 1.5045566856861115e-01</leafValues></_>
        <_>
          <internalNodes>
            0 -1 199 -5.9514511376619339e-03</internalNodes>
          <leafValues>
            6.0259020328521729e-01 -1.6393209993839264e-01</leafValues></_>
        <_>
          <internalNodes>
            0 -1 1 -4.4416934251785278e-03</internalNodes>
          <leafValues>
            -6.6019707918167114e-01 1.3038805127143860e-01</leafValues></_>
        <_>
          <internalNodes>
            0 -1 202 2.0353094441816211e-05</internalNodes>
          <leafValues>
            -3.0892351269721985e-01 2.7063947916030884e-01</leafValues></_>
        <_>
          <internalNodes>
            0 -1 147 -3.1542662327410653e-05</internalNodes>
          <leafValues>
            -5.6026303768157959e-01 1.7598788440227509e-01</leafValues></_>
        <_>
          <internalNodes>
            0 -1 8 1.1093631386756897e-01</internalNodes>
          <leafValues>
            1.0544163733720779e-01 -8.7714779376983643e-01</leafValues></_>
        <_>
          <internalNodes>
            0 -1 9 -8.6861312389373779e-02</internalNodes>
          <leafValues>
            -6.5848034620285034e-01 1.0313676297664642e-01</leafValues></_>
        <_>
          <internalNodes>
            0 -1 144 3.4742281422950327e-04</internalNodes>
          <leafValues>
            -3.1033200025558472e-01 2.8861787915229797e-01</leafValues></_>
        <_>
          <internalNodes>
            0 -1 68 -8.3057297160848975e-04</internalNodes>
          <leafValues>
            -6.3582569360733032e-01 1.4033770561218262e-01</leafValues></_>
        <_>
          <internalNodes>
            0 -1 126 -2.6687168428907171e-05</internalNodes>
          <leafValues>
            -5.4867398738861084e-01 1.6452088952064514e-01</leafValues></_>
        <_>
          <internalNodes>
            0 -1 200 1.6018088907003403e-02</internalNodes>
          <leafValues>
            -1.5710479021072388e-01 7.8025269508361816e-01</leafValues></_>
        <_>
          <internalNodes>
            0 -1 165 2.8871838003396988e-03</internalNodes>
          <leafValues>
            -1.6478376090526581e-01 5.2589124441146851e-01</leafValues></_>
        <_>
          <internalNodes>
            0 -1 196 -2.0350413396954536e-03</internalNodes>
          <leafValues>
            -9.1557514667510986e-01 1.1607328802347183e-01</leafValues></_>
        <_>
          <internalNodes>
            0 -1 190 -4.0792039362713695e-04</internalNodes>
          <leafValues>
            3.2615086436271667e-01 -3.2907626032829285e-01</leafValues></_></weakClassifiers></_>
    <!-- stage 15 -->
    <_>
      <maxWeakCount>17</maxWeakCount>
      <stageThreshold>-8.4439945220947266e-01</stageThreshold>
      <weakClassifiers>
        <_>
          <internalNodes>
            0 -1 157 4.5318402349948883e-02</internalNodes>
          <leafValues>
            -5.6085920333862305e-01 -2.0746888592839241e-02</leafValues></_>
        <_>
          <internalNodes>
            0 -1 78 -1.6316154506057501e-04</internalNodes>
          <leafValues>
            -5.9859693050384521e-01 1.0221765190362930e-01</leafValues></_>
        <_>
          <internalNodes>
            0 -1 102 3.1107901595532894e-03</internalNodes>
          <leafValues>
            1.5096539258956909e-01 -4.9302294850349426e-01</leafValues></_>
        <_>
          <internalNodes>
            0 -1 5 4.6793823130428791e-03</internalNodes>
          <leafValues>
            -1.3893625140190125e-01 5.8028429746627808e-01</leafValues></_>
        <_>
          <internalNodes>
            0 -1 25 3.3904323354363441e-03</internalNodes>
          <leafValues>
            1.5021951496601105e-01 -5.7143491506576538e-01</leafValues></_>
        <_>
          <internalNodes>
            0 -1 133 -2.1011466160416603e-03</internalNodes>
          <leafValues>
            3.7336468696594238e-01 -2.3123563826084137e-01</leafValues></_>
        <_>
          <internalNodes>
            0 -1 155 7.0788245648145676e-04</internalNodes>
          <leafValues>
            -1.3802963495254517e-01 6.7515605688095093e-01</leafValues></_>
        <_>
          <internalNodes>
            0 -1 161 -2.5543577066855505e-05</internalNodes>
          <leafValues>
            -4.8197457194328308e-01 1.9192208349704742e-01</leafValues></_>
        <_>
          <internalNodes>
            0 -1 36 8.1146329641342163e-02</internalNodes>
          <leafValues>
            9.5383629202842712e-02 -7.6012945175170898e-01</leafValues></_>
        <_>
          <internalNodes>
            0 -1 188 6.2165008857846260e-03</internalNodes>
          <leafValues>
            -1.3271754980087280e-01 7.9274481534957886e-01</leafValues></_>
        <_>
          <internalNodes>
            0 -1 47 8.2879029214382172e-03</internalNodes>
          <leafValues>
            -1.4835697412490845e-01 5.8211910724639893e-01</leafValues></_>
        <_>
          <internalNodes>
            0 -1 201 -4.2705129832029343e-02</internalNodes>
          <leafValues>
            -7.6871782541275024e-01 1.2276220321655273e-01</leafValues></_>
        <_>
          <internalNodes>
            0 -1 186 -9.8200817592442036e-04</internalNodes>
          <leafValues>
            4.4901970028877258e-01 -2.1407450735569000e-01</leafValues></_>
        <_>
          <internalNodes>
            0 -1 138 5.1916565280407667e-04</internalNodes>
          <leafValues>
            -2.9266637563705444e-01 3.2390055060386658e-01</leafValues></_>
        <_>
          <internalNodes>
            0 -1 20 2.4549383670091629e-02</internalNodes>
          <leafValues>
            1.1739969998598099e-01 -7.7648192644119263e-01</leafValues></_>
        <_>
          <internalNodes>
            0 -1 11 3.9328145794570446e-04</internalNodes>
          <leafValues>
            -2.8482744097709656e-01 3.1118556857109070e-01</leafValues></_>
        <_>
          <internalNodes>
            0 -1 77 2.7609970420598984e-03</internalNodes>
          <leafValues>
            1.0268278419971466e-01 -8.0633622407913208e-01</leafValues></_></weakClassifiers></_>
    <!-- stage 16 -->
    <_>
      <maxWeakCount>18</maxWeakCount>
      <stageThreshold>-8.3772820234298706e-01</stageThreshold>
      <weakClassifiers>
        <_>
          <internalNodes>
            0 -1 166 8.2052256911993027e-03</internalNodes>
          <leafValues>
            -4.3831169605255127e-01 6.8181818723678589e-01</leafValues></_>
        <_>
          <internalNodes>
            0 -1 58 5.4811814334243536e-04</internalNodes>
          <leafValues>
            -4.2687064409255981e-01 1.8265703320503235e-01</leafValues></_>
        <_>
          <internalNodes>
            0 -1 0 1.1262671323493123e-03</internalNodes>
          <leafValues>
            1.6732932627201080e-01 -5.7604491710662842e-01</leafValues></_>
        <_>
          <internalNodes>
            0 -1 148 1.5336372889578342e-03</internalNodes>
          <leafValues>
            -3.6916124820709229e-01 2.5138333439826965e-01</leafValues></_>
        <_>
          <internalNodes>
            0 -1 110 3.5924408584833145e-03</internalNodes>
          <leafValues>
            -3.0809494853019714e-01 2.8132405877113342e-01</leafValues></_>
        <_>
          <internalNodes>
            0 -1 128 -3.9674006984569132e-05</internalNodes>
          <leafValues>
            -5.6808149814605713e-01 1.5717154741287231e-01</leafValues></_>
        <_>
          <internalNodes>
            0 -1 83 1.7171021550893784e-02</internalNodes>
          <leafValues>
            -1.1638673394918442e-01 7.5460243225097656e-01</leafValues></_>
        <_>
          <internalNodes>
            0 -1 204 2.5487679522484541e-03</internalNodes>
          <leafValues>
            1.2988789379596710e-01 -7.5953918695449829e-01</leafValues></_>
        <_>
          <internalNodes>
            0 -1 185 -1.0537006892263889e-03</internalNodes>
          <leafValues>
            3.6436578631401062e-01 -2.5280311703681946e-01</leafValues></_>
        <_>
          <internalNodes>
            0 -1 145 -1.1868045839946717e-04</internalNodes>
          <leafValues>
            -5.4864764213562012e-01 1.6766963899135590e-01</leafValues></_>
        <_>
          <internalNodes>
            0 -1 159 -2.2585307306144387e-04</internalNodes>
          <leafValues>
            2.8769028186798096e-01 -3.0948254466056824e-01</leafValues></_>
        <_>
          <internalNodes>
            0 -1 135 2.2167889401316643e-03</internalNodes>
          <leafValues>
            1.3208396732807159e-01 -6.8858551979064941e-01</leafValues></_>
        <_>
          <internalNodes>
            0 -1 40 4.2631151154637337e-04</internalNodes>
          <leafValues>
            -2.9143050312995911e-01 3.3609271049499512e-01</leafValues></_>
        <_>
          <internalNodes>
            0 -1 163 -6.3101804698817432e-05</internalNodes>
          <leafValues>
            2.1995310485363007e-01 -4.5935782790184021e-01</leafValues></_>
        <_>
          <internalNodes>
            0 -1 137 -3.3331842860206962e-04</internalNodes>
          <leafValues>
            3.1186166405677795e-01 -3.3762055635452271e-01</leafValues></_>
        <_>
          <internalNodes>
            0 -1 146 8.0806865298654884e-05</internalNodes>
          <leafValues>
            2.0496997237205505e-01 -5.5947738885879517e-01</leafValues></_>
        <_>
          <internalNodes>
            0 -1 42 5.3486134856939316e-03</internalNodes>
          <leafValues>
            -1.3764894008636475e-01 9.4929414987564087e-01</leafValues></_>
        <_>
          <internalNodes>
            0 -1 27 1.8113462720066309e-03</internalNodes>
          <leafValues>
            -2.2675037384033203e-01 4.1261476278305054e-01</leafValues></_></weakClassifiers></_></stages>
  <features>
    <_>
      <rects>
        <_>
          0 0 1 8 -1.</_>
        <_>
          0 2 1 4 2.</_></rects>
      <tilted>0</tilted></_>
    <_>
      <rects>
        <_>
          0 0 19 4 -1.</_>
        <_>
          0 1 19 2 2.</_></rects>
      <tilted>0</tilted></_>
    <_>
      <rects>
        <_>
          0 3 8 25 -1.</_>
        <_>
          4 3 4 25 2.</_></rects>
      <tilted>0</tilted></_>
    <_>
      <rects>
        <_>
          0 3 30 27 -1.</_>
        <_>
          10 12 10 9 9.</_></rects>
      <tilted>0</tilted></_>
    <_>
      <rects>
        <_>
          0 5 8 24 -1.</_>
        <_>
          0 5 4 12 2.</_>
        <_>
          4 17 4 12 2.</_></rects>
      <tilted>0</tilted></_>
    <_>
      <rects>
        <_>
          0 6 4 6 -1.</_>
        <_>
          1 6 2 6 2.</_></rects>
      <tilted>0</tilted></_>
    <_>
      <rects>
        <_>
          0 9 28 21 -1.</_>
        <_>
          7 9 14 21 2.</_></rects>
      <tilted>0</tilted></_>
    <_>
      <rects>
        <_>
          0 10 30 4 -1.</_>
        <_>
          10 10 10 4 2.</_></rects>
      <tilted>0</tilted></_>
    <_>
      <rects>
        <_>
          0 10 26 20 -1.</_>
        <_>
          0 10 13 10 2.</_>
        <_>
          13 20 13 10 2.</_></rects>
      <tilted>0</tilted></_>
    <_>
      <rects>
        <_>
          0 10 28 18 -1.</_>
        <_>
          0 10 14 9 2.</_>
        <_>
          14 19 14 9 2.</_></rects>
      <tilted>0</tilted></_>
    <_>
      <rects>
        <_>
          0 11 2 8 -1.</_>
        <_>
          0 11 1 4 2.</_>
        <_>
          1 15 1 4 2.</_></rects>
      <tilted>0</tilted></_>
    <_>
      <rects>
        <_>
          0 12 2 4 -1.</_>
        <_>
          0 12 1 2 2.</_>
        <_>
          1 14 1 2 2.</_></rects>
      <tilted>0</tilted></_>
    <_>
      <rects>
        <_>
          0 13 4 1 -1.</_>
        <_>
          1 13 2 1 2.</_></rects>
      <tilted>0</tilted></_>
    <_>
      <rects>
        <_>
          0 13 2 15 -1.</_>
        <_>
          1 13 1 15 2.</_></rects>
      <tilted>0</tilted></_>
    <_>
      <rects>
        <_>
          0 21 6 4 -1.</_>
        <_>
          3 21 3 4 2.</_></rects>
      <tilted>0</tilted></_>
    <_>
      <rects>
        <_>
          0 22 16 7 -1.</_>
        <_>
          4 22 8 7 2.</_></rects>
      <tilted>0</tilted></_>
    <_>
      <rects>
        <_>
          0 25 16 4 -1.</_>
        <_>
          4 25 8 4 2.</_></rects>
      <tilted>0</tilted></_>
    <_>
      <rects>
        <_>
          0 26 12 4 -1.</_>
        <_>
          6 26 6 4 2.</_></rects>
      <tilted>0</tilted></_>
    <_>
      <rects>
        <_>
          0 26 14 2 -1.</_>
        <_>
          0 26 7 1 2.</_>
        <_>
          7 27 7 1 2.</_></rects>
      <tilted>0</tilted></_>
    <_>
      <rects>
        <_>
          1 0 4 19 -1.</_>
        <_>
          2 0 2 19 2.</_></rects>
      <tilted>0</tilted></_>
    <_>
      <rects>
        <_>
          1 0 28 6 -1.</_>
        <_>
          1 0 14 3 2.</_>
        <_>
          15 3 14 3 2.</_></rects>
      <tilted>0</tilted></_>
    <_>
      <rects>
        <_>
          1 2 4 18 -1.</_>
        <_>
          2 2 2 18 2.</_></rects>
      <tilted>0</tilted></_>
    <_>
      <rects>
        <_>
          1 5 2 12 -1.</_>
        <_>
          1 5 1 6 2.</_>
        <_>
          2 11 1 6 2.</_></rects>
      <tilted>0</tilted></_>
    <_>
      <rects>
        <_>
          1 8 28 7 -1.</_>
        <_>
          15 8 14 7 2.</_></rects>
      <tilted>0</tilted></_>
    <_>
      <rects>
        <_>
          1 11 2 4 -1.</_>
        <_>
          1 11 1 2 2.</_>
        <_>
          2 13 1 2 2.</_></rects>
      <tilted>0</tilted></_>
    <_>
      <rects>
        <_>
          2 0 16 4 -1.</_>
        <_>
          2 1 16 2 2.</_></rects>
      <tilted>0</tilted></_>
    <_>
      <rects>
        <_>
          2 2 2 12 -1.</_>
        <_>
          2 6 2 4 2.</_></rects>
      <tilted>0</tilted></_>
    <_>
      <rects>
        <_>
          2 9 10 4 -1.</_>
        <_>
          2 10 10 2 2.</_></rects>
      <tilted>0</tilted></_>
    <_>
      <rects>
        <_>
          2 10 8 20 -1.</_>
        <_>
          2 15 8 10 2.</_></rects>
      <tilted>0</tilted></_>
    <_>
      <rects>
        <_>
          2 11 4 5 -1.</_>
        <_>
          3 11 2 5 2.</_></rects>
      <tilted>0</tilted></_>
    <_>
      <rects>
        <_>
          2 12 6 18 -1.</_>
        <_>
          2 12 3 9 2.</_>
        <_>
          5 21 3 9 2.</_></rects>
      <tilted>0</tilted></_>
    <_>
      <rects>
        <_>
          2 26 12 4 -1.</_>
        <_>
          2 26 6 2 2.</_>
        <_>
          8 28 6 2 2.</_></rects>
      <tilted>0</tilted></_>
    <_>
      <rects>
        <_>
          2 28 28 2 -1.</_>
        <_>
          16 28 14 2 2.</_></rects>
      <tilted>0</tilted></_>
    <_>
      <rects>
        <_>
          2 29 12 1 -1.</_>
        <_>
          8 29 6 1 2.</_></rects>
      <tilted>0</tilted></_>
    <_>
      <rects>
        <_>
          3 3 7 4 -1.</_>
        <_>
          3 5 7 2 2.</_></rects>
      <tilted>0</tilted></_>
    <_>
      <rects>
        <_>
          3 4 26 13 -1.</_>
        <_>
          16 4 13 13 2.</_></rects>
      <tilted>0</tilted></_>
    <_>
      <rects>
        <_>
          3 6 26 24 -1.</_>
        <_>
          3 6 13 12 2.</_>
        <_>
          16 18 13 12 2.</_></rects>
      <tilted>0</tilted></_>
    <_>
      <rects>
        <_>
          3 9 8 7 -1.</_>
        <_>
          5 9 4 7 2.</_></rects>
      <tilted>0</tilted></_>
    <_>
      <rects>
        <_>
          3 21 1 3 -1.</_>
        <_>
          2 22 1 1 3.</_></rects>
      <tilted>1</tilted></_>
    <_>
      <rects>
        <_>
          3 28 7 2 -1.</_>
        <_>
          3 29 7 1 2.</_></rects>
      <tilted>0</tilted></_>
    <_>
      <rects>
        <_>
          4 5 3 4 -1.</_>
        <_>
          4 6 3 2 2.</_></rects>
      <tilted>0</tilted></_>
    <_>
      <rects>
        <_>
          4 6 26 24 -1.</_>
        <_>
          17 6 13 24 2.</_></rects>
      <tilted>0</tilted></_>
    <_>
      <rects>
        <_>
          4 7 2 4 -1.</_>
        <_>
          4 8 2 2 2.</_></rects>
      <tilted>0</tilted></_>
    <_>
      <rects>
        <_>
          4 7 25 4 -1.</_>
        <_>
          4 8 25 2 2.</_></rects>
      <tilted>0</tilted></_>
    <_>
      <rects>
        <_>
          4 8 21 7 -1.</_>
        <_>
          11 8 7 7 2.</_></rects>
      <tilted>0</tilted></_>
    <_>
      <rects>
        <_>
          4 9 6 4 -1.</_>
        <_>
          4 10 6 2 2.</_></rects>
      <tilted>0</tilted></_>
    <_>
      <rects>
        <_>
          4 19 8 1 -1.</_>
        <_>
          8 19 4 1 2.</_></rects>
      <tilted>0</tilted></_>
    <_>
      <rects>
        <_>
          4 22 5 3 -1.</_>
        <_>
          3 23 5 1 3.</_></rects>
      <tilted>1</tilted></_>
    <_>
      <rects>
        <_>
          4 23 3 3 -1.</_>
        <_>
          5 24 1 1 9.</_></rects>
      <tilted>0</tilted></_>
    <_>
      <rects>
        <_>
          5 0 22 22 -1.</_>
        <_>
          5 11 22 11 2.</_></rects>
      <tilted>0</tilted></_>
    <_>
      <rects>
        <_>
          5 6 3 3 -1.</_>
        <_>
          6 7 1 1 9.</_></rects>
      <tilted>0</tilted></_>
    <_>
      <rects>
        <_>
          5 7 2 4 -1.</_>
        <_>
          5 8 2 2 2.</_></rects>
      <tilted>0</tilted></_>
    <_>
      <rects>
        <_>
          5 8 6 4 -1.</_>
        <_>
          7 10 2 4 3.</_></rects>
      <tilted>1</tilted></_>
    <_>
      <rects>
        <_>
          5 9 3 4 -1.</_>
        <_>
          5 10 3 2 2.</_></rects>
      <tilted>0</tilted></_>
    <_>
      <rects>
        <_>
          5 11 1 4 -1.</_>
        <_>
          5 12 1 2 2.</_></rects>
      <tilted>0</tilted></_>
    <_>
      <rects>
        <_>
          5 11 20 5 -1.</_>
        <_>
          10 11 10 5 2.</_></rects>
      <tilted>0</tilted></_>
    <_>
      <rects>
        <_>
          5 12 20 2 -1.</_>
        <_>
          10 12 10 2 2.</_></rects>
      <tilted>0</tilted></_>
    <_>
      <rects>
        <_>
          5 13 18 12 -1.</_>
        <_>
          11 17 6 4 9.</_></rects>
      <tilted>0</tilted></_>
    <_>
      <rects>
        <_>
          5 20 4 10 -1.</_>
        <_>
          7 20 2 10 2.</_></rects>
      <tilted>0</tilted></_>
    <_>
      <rects>
        <_>
          5 23 4 3 -1.</_>
        <_>
          4 24 4 1 3.</_></rects>
      <tilted>1</tilted></_>
    <_>
      <rects>
        <_>
          6 2 16 16 -1.</_>
        <_>
          10 2 8 16 2.</_></rects>
      <tilted>0</tilted></_>
    <_>
      <rects>
        <_>
          6 4 19 6 -1.</_>
        <_>
          4 6 19 2 3.</_></rects>
      <tilted>1</tilted></_>
    <_>
      <rects>
        <_>
          6 9 16 7 -1.</_>
        <_>
          10 9 8 7 2.</_></rects>
      <tilted>0</tilted></_>
    <_>
      <rects>
        <_>
          6 10 3 3 -1.</_>
        <_>
          7 11 1 1 9.</_></rects>
      <tilted>0</tilted></_>
    <_>
      <rects>
        <_>
          6 11 18 3 -1.</_>
        <_>
          12 11 6 3 2.</_></rects>
      <tilted>0</tilted></_>
    <_>
      <rects>
        <_>
          6 14 9 2 -1.</_>
        <_>
          6 14 9 1 2.</_></rects>
      <tilted>1</tilted></_>
    <_>
      <rects>
        <_>
          6 19 8 3 -1.</_>
        <_>
          8 19 4 3 2.</_></rects>
      <tilted>0</tilted></_>
    <_>
      <rects>
        <_>
          6 23 3 3 -1.</_>
        <_>
          7 24 1 3 3.</_></rects>
      <tilted>1</tilted></_>
    <_>
      <rects>
        <_>
          6 26 2 2 -1.</_>
        <_>
          6 26 1 2 2.</_></rects>
      <tilted>1</tilted></_>
    <_>
      <rects>
        <_>
          6 28 12 2 -1.</_>
        <_>
          6 28 6 1 2.</_>
        <_>
          12 29 6 1 2.</_></rects>
      <tilted>0</tilted></_>
    <_>
      <rects>
        <_>
          7 3 15 20 -1.</_>
        <_>
          7 13 15 10 2.</_></rects>
      <tilted>0</tilted></_>
    <_>
      <rects>
        <_>
          7 8 8 20 -1.</_>
        <_>
          7 8 4 10 2.</_>
        <_>
          11 18 4 10 2.</_></rects>
      <tilted>0</tilted></_>
    <_>
      <rects>
        <_>
          7 9 2 2 -1.</_>
        <_>
          7 9 1 1 2.</_>
        <_>
          8 10 1 1 2.</_></rects>
      <tilted>0</tilted></_>
    <_>
      <rects>
        <_>
          7 9 6 6 -1.</_>
        <_>
          10 9 3 6 2.</_></rects>
      <tilted>0</tilted></_>
    <_>
      <rects>
        <_>
          7 12 4 2 -1.</_>
        <_>
          7 12 2 1 2.</_>
        <_>
          9 13 2 1 2.</_></rects>
      <tilted>0</tilted></_>
    <_>
      <rects>
        <_>
          7 20 3 3 -1.</_>
        <_>
          8 21 1 1 9.</_></rects>
      <tilted>0</tilted></_>
    <_>
      <rects>
        <_>
          7 20 18 5 -1.</_>
        <_>
          13 20 6 5 2.</_></rects>
      <tilted>0</tilted></_>
    <_>
      <rects>
        <_>
          7 25 2 3 -1.</_>
        <_>
          7 25 1 3 2.</_></rects>
      <tilted>1</tilted></_>
    <_>
      <rects>
        <_>
          7 26 3 3 -1.</_>
        <_>
          8 27 1 1 9.</_></rects>
      <tilted>0</tilted></_>
    <_>
      <rects>
        <_>
          8 1 8 22 -1.</_>
        <_>
          10 1 4 22 2.</_></rects>
      <tilted>0</tilted></_>
    <_>
      <rects>
        <_>
          8 2 3 8 -1.</_>
        <_>
          9 3 1 8 3.</_></rects>
      <tilted>1</tilted></_>
    <_>
      <rects>
        <_>
          8 5 6 8 -1.</_>
        <_>
          6 7 6 4 2.</_></rects>
      <tilted>1</tilted></_>
    <_>
      <rects>
        <_>
          8 7 3 3 -1.</_>
        <_>
          7 8 3 1 3.</_></rects>
      <tilted>1</tilted></_>
    <_>
      <rects>
        <_>
          8 7 14 7 -1.</_>
        <_>
          8 7 7 7 2.</_></rects>
      <tilted>1</tilted></_>
    <_>
      <rects>
        <_>
          8 10 1 3 -1.</_>
        <_>
          7 11 1 1 3.</_></rects>
      <tilted>1</tilted></_>
    <_>
      <rects>
        <_>
          8 10 4 11 -1.</_>
        <_>
          9 10 2 11 2.</_></rects>
      <tilted>0</tilted></_>
    <_>
      <rects>
        <_>
          8 20 6 3 -1.</_>
        <_>
          10 21 2 1 9.</_></rects>
      <tilted>0</tilted></_>
    <_>
      <rects>
        <_>
          8 20 12 3 -1.</_>
        <_>
          12 21 4 1 9.</_></rects>
      <tilted>0</tilted></_>
    <_>
      <rects>
        <_>
          9 8 1 4 -1.</_>
        <_>
          9 9 1 2 2.</_></rects>
      <tilted>0</tilted></_>
    <_>
      <rects>
        <_>
          9 9 12 6 -1.</_>
        <_>
          7 11 12 2 3.</_></rects>
      <tilted>1</tilted></_>
    <_>
      <rects>
        <_>
          9 10 9 9 -1.</_>
        <_>
          12 13 3 9 3.</_></rects>
      <tilted>1</tilted></_>
    <_>
      <rects>
        <_>
          9 18 3 1 -1.</_>
        <_>
          10 19 1 1 3.</_></rects>
      <tilted>1</tilted></_>
    <_>
      <rects>
        <_>
          9 19 3 3 -1.</_>
        <_>
          10 20 1 1 9.</_></rects>
      <tilted>0</tilted></_>
    <_>
      <rects>
        <_>
          9 20 4 1 -1.</_>
        <_>
          10 20 2 1 2.</_></rects>
      <tilted>0</tilted></_>
    <_>
      <rects>
        <_>
          9 20 2 4 -1.</_>
        <_>
          9 20 1 4 2.</_></rects>
      <tilted>1</tilted></_>
    <_>
      <rects>
        <_>
          9 28 10 2 -1.</_>
        <_>
          14 28 5 2 2.</_></rects>
      <tilted>0</tilted></_>
    <_>
      <rects>
        <_>
          10 20 8 1 -1.</_>
        <_>
          14 20 4 1 2.</_></rects>
      <tilted>0</tilted></_>
    <_>
      <rects>
        <_>
          10 21 14 5 -1.</_>
        <_>
          17 21 7 5 2.</_></rects>
      <tilted>0</tilted></_>
    <_>
      <rects>
        <_>
          10 22 7 8 -1.</_>
        <_>
          10 24 7 4 2.</_></rects>
      <tilted>0</tilted></_>
    <_>
      <rects>
        <_>
          10 29 20 1 -1.</_>
        <_>
          20 29 10 1 2.</_></rects>
      <tilted>0</tilted></_>
    <_>
      <rects>
        <_>
          11 0 5 22 -1.</_>
        <_>
          11 11 5 11 2.</_></rects>
      <tilted>0</tilted></_>
    <_>
      <rects>
        <_>
          11 0 15 9 -1.</_>
        <_>
          8 3 15 3 3.</_></rects>
      <tilted>1</tilted></_>
    <_>
      <rects>
        <_>
          11 3 4 8 -1.</_>
        <_>
          11 5 4 4 2.</_></rects>
      <tilted>0</tilted></_>
    <_>
      <rects>
        <_>
          11 4 1 3 -1.</_>
        <_>
          10 5 1 1 3.</_></rects>
      <tilted>1</tilted></_>
    <_>
      <rects>
        <_>
          11 4 5 2 -1.</_>
        <_>
          11 5 5 1 2.</_></rects>
      <tilted>0</tilted></_>
    <_>
      <rects>
        <_>
          11 17 4 1 -1.</_>
        <_>
          12 17 2 1 2.</_></rects>
      <tilted>0</tilted></_>
    <_>
      <rects>
        <_>
          11 18 2 2 -1.</_>
        <_>
          11 18 1 1 2.</_>
        <_>
          12 19 1 1 2.</_></rects>
      <tilted>0</tilted></_>
    <_>
      <rects>
        <_>
          11 19 3 6 -1.</_>
        <_>
          11 19 3 3 2.</_></rects>
      <tilted>1</tilted></_>
    <_>
      <rects>
        <_>
          11 20 6 1 -1.</_>
        <_>
          14 20 3 1 2.</_></rects>
      <tilted>0</tilted></_>
    <_>
      <rects>
        <_>
          11 24 6 3 -1.</_>
        <_>
          13 25 2 1 9.</_></rects>
      <tilted>0</tilted></_>
    <_>
      <rects>
        <_>
          12 4 11 4 -1.</_>
        <_>
          11 5 11 2 2.</_></rects>
      <tilted>1</tilted></_>
    <_>
      <rects>
        <_>
          12 5 12 12 -1.</_>
        <_>
          16 9 4 4 9.</_></rects>
      <tilted>0</tilted></_>
    <_>
      <rects>
        <_>
          12 16 6 12 -1.</_>
        <_>
          14 20 2 4 9.</_></rects>
      <tilted>0</tilted></_>
    <_>
      <rects>
        <_>
          12 18 2 2 -1.</_>
        <_>
          13 18 1 2 2.</_></rects>
      <tilted>0</tilted></_>
    <_>
      <rects>
        <_>
          12 20 2 1 -1.</_>
        <_>
          13 20 1 1 2.</_></rects>
      <tilted>0</tilted></_>
    <_>
      <rects>
        <_>
          12 22 4 1 -1.</_>
        <_>
          13 22 2 1 2.</_></rects>
      <tilted>0</tilted></_>
    <_>
      <rects>
        <_>
          12 25 6 3 -1.</_>
        <_>
          14 26 2 1 9.</_></rects>
      <tilted>0</tilted></_>
    <_>
      <rects>
        <_>
          12 26 18 3 -1.</_>
        <_>
          18 27 6 1 9.</_></rects>
      <tilted>0</tilted></_>
    <_>
      <rects>
        <_>
          12 28 14 2 -1.</_>
        <_>
          12 28 7 1 2.</_>
        <_>
          19 29 7 1 2.</_></rects>
      <tilted>0</tilted></_>
    <_>
      <rects>
        <_>
          12 29 18 1 -1.</_>
        <_>
          21 29 9 1 2.</_></rects>
      <tilted>0</tilted></_>
    <_>
      <rects>
        <_>
          13 1 4 2 -1.</_>
        <_>
          13 2 4 1 2.</_></rects>
      <tilted>0</tilted></_>
    <_>
      <rects>
        <_>
          13 7 6 7 -1.</_>
        <_>
          15 9 2 7 3.</_></rects>
      <tilted>1</tilted></_>
    <_>
      <rects>
        <_>
          13 13 1 3 -1.</_>
        <_>
          12 14 1 1 3.</_></rects>
      <tilted>1</tilted></_>
    <_>
      <rects>
        <_>
          13 14 2 1 -1.</_>
        <_>
          14 14 1 1 2.</_></rects>
      <tilted>0</tilted></_>
    <_>
      <rects>
        <_>
          13 16 4 1 -1.</_>
        <_>
          15 16 2 1 2.</_></rects>
      <tilted>0</tilted></_>
    <_>
      <rects>
        <_>
          13 18 2 1 -1.</_>
        <_>
          13 18 1 1 2.</_></rects>
      <tilted>1</tilted></_>
    <_>
      <rects>
        <_>
          13 23 2 2 -1.</_>
        <_>
          13 23 1 1 2.</_>
        <_>
          14 24 1 1 2.</_></rects>
      <tilted>0</tilted></_>
    <_>
      <rects>
        <_>
          14 1 16 21 -1.</_>
        <_>
          22 1 8 21 2.</_></rects>
      <tilted>0</tilted></_>
    <_>
      <rects>
        <_>
          14 12 3 2 -1.</_>
        <_>
          14 13 3 1 2.</_></rects>
      <tilted>0</tilted></_>
    <_>
      <rects>
        <_>
          14 12 4 4 -1.</_>
        <_>
          14 14 4 2 2.</_></rects>
      <tilted>0</tilted></_>
    <_>
      <rects>
        <_>
          14 18 6 6 -1.</_>
        <_>
          16 20 2 2 9.</_></rects>
      <tilted>0</tilted></_>
    <_>
      <rects>
        <_>
          14 22 1 3 -1.</_>
        <_>
          13 23 1 1 3.</_></rects>
      <tilted>1</tilted></_>
    <_>
      <rects>
        <_>
          14 26 14 4 -1.</_>
        <_>
          14 26 7 2 2.</_>
        <_>
          21 28 7 2 2.</_></rects>
      <tilted>0</tilted></_>
    <_>
      <rects>
        <_>
          14 27 14 2 -1.</_>
        <_>
          14 27 7 1 2.</_>
        <_>
          21 28 7 1 2.</_></rects>
      <tilted>0</tilted></_>
    <_>
      <rects>
        <_>
          14 29 2 1 -1.</_>
        <_>
          15 29 1 1 2.</_></rects>
      <tilted>0</tilted></_>
    <_>
      <rects>
        <_>
          15 0 12 2 -1.</_>
        <_>
          15 0 6 1 2.</_>
        <_>
          21 1 6 1 2.</_></rects>
      <tilted>0</tilted></_>
    <_>
      <rects>
        <_>
          15 16 2 3 -1.</_>
        <_>
          16 16 1 3 2.</_></rects>
      <tilted>0</tilted></_>
    <_>
      <rects>
        <_>
          15 22 6 8 -1.</_>
        <_>
          15 24 6 4 2.</_></rects>
      <tilted>0</tilted></_>
    <_>
      <rects>
        <_>
          16 1 4 10 -1.</_>
        <_>
          17 1 2 10 2.</_></rects>
      <tilted>0</tilted></_>
    <_>
      <rects>
        <_>
          16 9 8 14 -1.</_>
        <_>
          16 16 8 7 2.</_></rects>
      <tilted>0</tilted></_>
    <_>
      <rects>
        <_>
          16 13 2 2 -1.</_>
        <_>
          17 13 1 2 2.</_></rects>
      <tilted>0</tilted></_>
    <_>
      <rects>
        <_>
          16 14 2 3 -1.</_>
        <_>
          17 14 1 3 2.</_></rects>
      <tilted>0</tilted></_>
    <_>
      <rects>
        <_>
          16 15 2 2 -1.</_>
        <_>
          16 15 1 1 2.</_>
        <_>
          17 16 1 1 2.</_></rects>
      <tilted>0</tilted></_>
    <_>
      <rects>
        <_>
          16 16 1 6 -1.</_>
        <_>
          16 19 1 3 2.</_></rects>
      <tilted>0</tilted></_>
    <_>
      <rects>
        <_>
          16 21 6 8 -1.</_>
        <_>
          16 21 3 4 2.</_>
        <_>
          19 25 3 4 2.</_></rects>
      <tilted>0</tilted></_>
    <_>
      <rects>
        <_>
          16 23 3 3 -1.</_>
        <_>
          17 24 1 1 9.</_></rects>
      <tilted>0</tilted></_>
    <_>
      <rects>
        <_>
          16 23 2 3 -1.</_>
        <_>
          17 23 1 3 2.</_></rects>
      <tilted>0</tilted></_>
    <_>
      <rects>
        <_>
          16 29 4 1 -1.</_>
        <_>
          17 29 2 1 2.</_></rects>
      <tilted>0</tilted></_>
    <_>
      <rects>
        <_>
          17 16 6 12 -1.</_>
        <_>
          19 20 2 4 9.</_></rects>
      <tilted>0</tilted></_>
    <_>
      <rects>
        <_>
          18 13 3 1 -1.</_>
        <_>
          19 13 1 1 2.</_></rects>
      <tilted>0</tilted></_>
    <_>
      <rects>
        <_>
          18 17 3 1 -1.</_>
        <_>
          19 18 1 1 3.</_></rects>
      <tilted>1</tilted></_>
    <_>
      <rects>
        <_>
          18 22 2 1 -1.</_>
        <_>
          19 22 1 1 2.</_></rects>
      <tilted>0</tilted></_>
    <_>
      <rects>
        <_>
          18 27 3 3 -1.</_>
        <_>
          19 28 1 1 9.</_></rects>
      <tilted>0</tilted></_>
    <_>
      <rects>
        <_>
          19 2 2 14 -1.</_>
        <_>
          19 2 1 7 2.</_>
        <_>
          20 9 1 7 2.</_></rects>
      <tilted>0</tilted></_>
    <_>
      <rects>
        <_>
          19 2 4 14 -1.</_>
        <_>
          20 2 2 14 2.</_></rects>
      <tilted>0</tilted></_>
    <_>
      <rects>
        <_>
          19 10 2 2 -1.</_>
        <_>
          19 10 1 1 2.</_>
        <_>
          20 11 1 1 2.</_></rects>
      <tilted>0</tilted></_>
    <_>
      <rects>
        <_>
          19 12 3 3 -1.</_>
        <_>
          20 13 1 1 9.</_></rects>
      <tilted>0</tilted></_>
    <_>
      <rects>
        <_>
          20 2 8 20 -1.</_>
        <_>
          22 4 4 20 2.</_></rects>
      <tilted>1</tilted></_>
    <_>
      <rects>
        <_>
          20 8 8 1 -1.</_>
        <_>
          22 10 4 1 2.</_></rects>
      <tilted>1</tilted></_>
    <_>
      <rects>
        <_>
          20 17 4 7 -1.</_>
        <_>
          21 18 2 7 2.</_></rects>
      <tilted>1</tilted></_>
    <_>
      <rects>
        <_>
          20 19 6 1 -1.</_>
        <_>
          23 19 3 1 2.</_></rects>
      <tilted>0</tilted></_>
    <_>
      <rects>
        <_>
          20 21 2 2 -1.</_>
        <_>
          20 21 1 1 2.</_>
        <_>
          21 22 1 1 2.</_></rects>
      <tilted>0</tilted></_>
    <_>
      <rects>
        <_>
          20 21 2 6 -1.</_>
        <_>
          20 21 2 3 2.</_></rects>
      <tilted>1</tilted></_>
    <_>
      <rects>
        <_>
          20 25 10 2 -1.</_>
        <_>
          20 26 10 1 2.</_></rects>
      <tilted>0</tilted></_>
    <_>
      <rects>
        <_>
          20 26 9 2 -1.</_>
        <_>
          20 27 9 1 2.</_></rects>
      <tilted>0</tilted></_>
    <_>
      <rects>
        <_>
          21 6 3 3 -1.</_>
        <_>
          22 7 1 1 9.</_></rects>
      <tilted>0</tilted></_>
    <_>
      <rects>
        <_>
          21 6 5 4 -1.</_>
        <_>
          21 7 5 2 2.</_></rects>
      <tilted>0</tilted></_>
    <_>
      <rects>
        <_>
          21 8 2 2 -1.</_>
        <_>
          21 8 1 1 2.</_>
        <_>
          22 9 1 1 2.</_></rects>
      <tilted>0</tilted></_>
    <_>
      <rects>
        <_>
          21 8 3 4 -1.</_>
        <_>
          21 9 3 2 2.</_></rects>
      <tilted>0</tilted></_>
    <_>
      <rects>
        <_>
          21 12 4 12 -1.</_>
        <_>
          17 16 4 4 3.</_></rects>
      <tilted>1</tilted></_>
    <_>
      <rects>
        <_>
          22 7 8 20 -1.</_>
        <_>
          22 7 4 10 2.</_>
        <_>
          26 17 4 10 2.</_></rects>
      <tilted>0</tilted></_>
    <_>
      <rects>
        <_>
          22 7 8 22 -1.</_>
        <_>
          22 7 4 11 2.</_>
        <_>
          26 18 4 11 2.</_></rects>
      <tilted>0</tilted></_>
    <_>
      <rects>
        <_>
          22 8 3 4 -1.</_>
        <_>
          22 9 3 2 2.</_></rects>
      <tilted>0</tilted></_>
    <_>
      <rects>
        <_>
          22 10 1 4 -1.</_>
        <_>
          22 11 1 2 2.</_></rects>
      <tilted>0</tilted></_>
    <_>
      <rects>
        <_>
          22 10 8 15 -1.</_>
        <_>
          24 10 4 15 2.</_></rects>
      <tilted>0</tilted></_>
    <_>
      <rects>
        <_>
          22 22 8 7 -1.</_>
        <_>
          26 22 4 7 2.</_></rects>
      <tilted>0</tilted></_>
    <_>
      <rects>
        <_>
          22 24 8 1 -1.</_>
        <_>
          26 24 4 1 2.</_></rects>
      <tilted>0</tilted></_>
    <_>
      <rects>
        <_>
          22 24 8 3 -1.</_>
        <_>
          26 24 4 3 2.</_></rects>
      <tilted>0</tilted></_>
    <_>
      <rects>
        <_>
          23 0 5 4 -1.</_>
        <_>
          23 1 5 2 2.</_></rects>
      <tilted>0</tilted></_>
    <_>
      <rects>
        <_>
          23 2 2 2 -1.</_>
        <_>
          23 2 1 1 2.</_>
        <_>
          24 3 1 1 2.</_></rects>
      <tilted>0</tilted></_>
    <_>
      <rects>
        <_>
          23 24 2 2 -1.</_>
        <_>
          23 24 2 1 2.</_></rects>
      <tilted>1</tilted></_>
    <_>
      <rects>
        <_>
          24 3 3 9 -1.</_>
        <_>
          25 4 1 9 3.</_></rects>
      <tilted>1</tilted></_>
    <_>
      <rects>
        <_>
          24 6 4 16 -1.</_>
        <_>
          25 6 2 16 2.</_></rects>
      <tilted>0</tilted></_>
    <_>
      <rects>
        <_>
          24 10 3 3 -1.</_>
        <_>
          25 11 1 1 9.</_></rects>
      <tilted>0</tilted></_>
    <_>
      <rects>
        <_>
          24 10 4 12 -1.</_>
        <_>
          25 10 2 12 2.</_></rects>
      <tilted>0</tilted></_>
    <_>
      <rects>
        <_>
          24 11 2 15 -1.</_>
        <_>
          24 11 1 15 2.</_></rects>
      <tilted>1</tilted></_>
    <_>
      <rects>
        <_>
          24 13 3 1 -1.</_>
        <_>
          25 14 1 1 3.</_></rects>
      <tilted>1</tilted></_>
    <_>
      <rects>
        <_>
          24 13 4 10 -1.</_>
        <_>
          24 13 2 10 2.</_></rects>
      <tilted>1</tilted></_>
    <_>
      <rects>
        <_>
          24 15 4 3 -1.</_>
        <_>
          25 15 2 3 2.</_></rects>
      <tilted>0</tilted></_>
    <_>
      <rects>
        <_>
          24 16 6 13 -1.</_>
        <_>
          27 16 3 13 2.</_></rects>
      <tilted>0</tilted></_>
    <_>
      <rects>
        <_>
          24 17 2 8 -1.</_>
        <_>
          24 17 1 8 2.</_></rects>
      <tilted>1</tilted></_>
    <_>
      <rects>
        <_>
          24 22 5 8 -1.</_>
        <_>
          24 26 5 4 2.</_></rects>
      <tilted>0</tilted></_>
    <_>
      <rects>
        <_>
          24 25 2 3 -1.</_>
        <_>
          23 26 2 1 3.</_></rects>
      <tilted>1</tilted></_>
    <_>
      <rects>
        <_>
          25 7 4 6 -1.</_>
        <_>
          25 7 2 3 2.</_>
        <_>
          27 10 2 3 2.</_></rects>
      <tilted>0</tilted></_>
    <_>
      <rects>
        <_>
          25 24 1 2 -1.</_>
        <_>
          25 24 1 1 2.</_></rects>
      <tilted>1</tilted></_>
    <_>
      <rects>
        <_>
          25 25 3 2 -1.</_>
        <_>
          25 25 3 1 2.</_></rects>
      <tilted>1</tilted></_>
    <_>
      <rects>
        <_>
          26 4 4 2 -1.</_>
        <_>
          26 5 4 1 2.</_></rects>
      <tilted>0</tilted></_>
    <_>
      <rects>
        <_>
          26 7 1 3 -1.</_>
        <_>
          25 8 1 1 3.</_></rects>
      <tilted>1</tilted></_>
    <_>
      <rects>
        <_>
          26 11 4 6 -1.</_>
        <_>
          27 11 2 6 2.</_></rects>
      <tilted>0</tilted></_>
    <_>
      <rects>
        <_>
          26 13 4 6 -1.</_>
        <_>
          27 13 2 6 2.</_></rects>
      <tilted>0</tilted></_>
    <_>
      <rects>
        <_>
          27 0 1 28 -1.</_>
        <_>
          27 7 1 14 2.</_></rects>
      <tilted>0</tilted></_>
    <_>
      <rects>
        <_>
          27 1 3 26 -1.</_>
        <_>
          27 14 3 13 2.</_></rects>
      <tilted>0</tilted></_>
    <_>
      <rects>
        <_>
          27 13 1 4 -1.</_>
        <_>
          27 14 1 2 2.</_></rects>
      <tilted>0</tilted></_>
    <_>
      <rects>
        <_>
          27 23 1 4 -1.</_>
        <_>
          26 24 1 2 2.</_></rects>
      <tilted>1</tilted></_>
    <_>
      <rects>
        <_>
          28 0 2 2 -1.</_>
        <_>
          28 0 1 2 2.</_></rects>
      <tilted>1</tilted></_>
    <_>
      <rects>
        <_>
          28 2 2 23 -1.</_>
        <_>
          29 2 1 23 2.</_></rects>
      <tilted>0</tilted></_>
    <_>
      <rects>
        <_>
          28 22 2 8 -1.</_>
        <_>
          28 22 1 4 2.</_>
        <_>
          29 26 1 4 2.</_></rects>
      <tilted>0</tilted></_>
    <_>
      <rects>
        <_>
          29 24 1 2 -1.</_>
        <_>
          29 25 1 1 2.</_></rects>
      <tilted>0</tilted></_></features></cascade>
</opencv_storage>
