<?xml version="1.0"?>
<opencv_storage>
<stage4>
  <maxWeakCount>9</maxWeakCount>
  <stageThreshold>-9.6668380498886108e-01</stageThreshold>
  <weakClassifiers>
    <_>
      <internalNodes>
        0 -1 116149 -1.5795916318893433e-02</internalNodes>
      <leafValues>
        7.3109245300292969e-01 -6.3465160131454468e-01</leafValues></_>
    <_>
      <internalNodes>
        0 -1 396574 9.3734031543135643e-03</internalNodes>
      <leafValues>
        -5.8935594558715820e-01 3.9725914597511292e-01</leafValues></_>
    <_>
      <internalNodes>
        0 -1 226436 1.3062197249382734e-03</internalNodes>
      <leafValues>
        -3.9636406302452087e-01 5.6273454427719116e-01</leafValues></_>
    <_>
      <internalNodes>
        0 -1 350052 5.8721919776871800e-04</internalNodes>
      <leafValues>
        -3.4862440824508667e-01 6.1938989162445068e-01</leafValues></_>
    <_>
      <internalNodes>
        0 -1 590459 1.5853527933359146e-02</internalNodes>
      <leafValues>
        -3.1248086690902710e-01 6.9485747814178467e-01</leafValues></_>
    <_>
      <internalNodes>
        0 -1 18026 3.8233395665884018e-02</internalNodes>
      <leafValues>
        -6.9034123420715332e-01 3.5371187329292297e-01</leafValues></_>
    <_>
      <internalNodes>
        0 -1 146513 3.8633146323263645e-03</internalNodes>
      <leafValues>
        -3.4706363081932068e-01 6.2632286548614502e-01</leafValues></_>
    <_>
      <internalNodes>
        0 -1 260061 4.9855331890285015e-03</internalNodes>
      <leafValues>
        -2.4831736087799072e-01 7.7908903360366821e-01</leafValues></_>
    <_>
      <internalNodes>
        0 -1 43979 2.5183553807437420e-03</internalNodes>
      <leafValues>
        -3.1858485937118530e-01 8.3214408159255981e-01</leafValues></_></weakClassifiers></stage4>
</opencv_storage>
