<?xml version="1.0"?>
<opencv_storage>
<stage13>
  <maxWeakCount>5</maxWeakCount>
  <stageThreshold>-8.8906484842300415e-01</stageThreshold>
  <weakClassifiers>
    <_>
      <internalNodes>
        0 -1 10390 -1.5741437673568726e-02</internalNodes>
      <leafValues>
        8.6666667461395264e-01 -6.6480445861816406e-01</leafValues></_>
    <_>
      <internalNodes>
        0 -1 78593 2.3855976760387421e-03</internalNodes>
      <leafValues>
        -4.0461617708206177e-01 7.7400785684585571e-01</leafValues></_>
    <_>
      <internalNodes>
        0 -1 413948 -6.5223796991631389e-04</internalNodes>
      <leafValues>
        -8.9991486072540283e-01 3.5688698291778564e-01</leafValues></_>
    <_>
      <internalNodes>
        0 -1 553563 -6.0549178160727024e-03</internalNodes>
      <leafValues>
        7.3735862970352173e-01 -3.5079607367515564e-01</leafValues></_>
    <_>
      <internalNodes>
        0 -1 581268 4.0928112866822630e-05</internalNodes>
      <leafValues>
        2.7816084027290344e-01 -9.1388988494873047e-01</leafValues></_></weakClassifiers></stage13>
</opencv_storage>
