<?xml version="1.0"?>
<opencv_storage>
<stage2>
  <maxWeakCount>7</maxWeakCount>
  <stageThreshold>-8.7384575605392456e-01</stageThreshold>
  <weakClassifiers>
    <_>
      <internalNodes>
        0 -1 19721 -2.6931151747703552e-01</internalNodes>
      <leafValues>
        -8.6982250213623047e-01 1.4102564752101898e-01</leafValues></_>
    <_>
      <internalNodes>
        0 -1 85683 3.2403767108917236e-02</internalNodes>
      <leafValues>
        -6.2695455551147461e-01 4.4532194733619690e-01</leafValues></_>
    <_>
      <internalNodes>
        0 -1 611772 6.2872413545846939e-03</internalNodes>
      <leafValues>
        -3.4640854597091675e-01 6.8885958194732666e-01</leafValues></_>
    <_>
      <internalNodes>
        0 -1 417123 -1.2222747318446636e-04</internalNodes>
      <leafValues>
        -6.9458556175231934e-01 3.5137504339218140e-01</leafValues></_>
    <_>
      <internalNodes>
        0 -1 144605 4.4048659503459930e-02</internalNodes>
      <leafValues>
        2.7628287672996521e-01 -8.5316663980484009e-01</leafValues></_>
    <_>
      <internalNodes>
        0 -1 341408 -1.8224697560071945e-02</internalNodes>
      <leafValues>
        -9.3983507156372070e-01 2.3652480542659760e-01</leafValues></_>
    <_>
      <internalNodes>
        0 -1 366185 -4.8452915507368743e-05</internalNodes>
      <leafValues>
        -7.7336478233337402e-01 2.2375848889350891e-01</leafValues></_></weakClassifiers></stage2>
</opencv_storage>
